/* Auto generated from checkpoint checkpoint_epoch_1.pth */


#ifdef HAVE_CONFIG_H
#include "config.h"
#endif

#include "dred_rdovae_enc_data.h"


#ifndef USE_WEIGHTS_FILE

#define WEIGHTS_enc_dense1_weights_float_DEFINED
#define WEIGHTS_enc_dense1_weights_float_TYPE WEIGHT_TYPE_float
static const float enc_dense1_weights_float[2560] = {
-0.00641421414911747,0.013524373061954975,-0.022634604945778847,-0.010432758368551731,-0.0005662529147230089,0.030816644430160522,-0.02727571688592434,0.006568990182131529,
0.008616304025053978,0.035778868943452835,-0.005369587801396847,0.03408988192677498,-0.0001323924370808527,0.011195871978998184,0.010267635807394981,0.007447374984622002,
-0.022141480818390846,-0.02435336820781231,-0.019518330693244934,-0.007963882759213448,-0.01366780512034893,0.20179390907287598,0.0012827840400859714,-0.016156427562236786,
-0.004084089770913124,0.0002971591311506927,-0.02572098933160305,0.011652394197881222,0.005521843675523996,0.027047794312238693,-0.027914278209209442,-0.027846302837133408,
0.03997107222676277,0.007329093292355537,-0.008203167468309402,0.049027010798454285,-0.011602159589529037,0.004906512331217527,-0.002617227379232645,-0.00234914175234735,
-0.09045687317848206,-0.015038794837892056,-0.02100089006125927,0.0008771545253694057,0.0004957304918207228,0.011574437841773033,0.004206946585327387,-0.016325298696756363,
-0.00916779600083828,0.0005961974966339767,0.08691096305847168,-0.030438093468546867,0.011951538734138012,-0.006111000198870897,0.0032412856817245483,0.031165728345513344,
0.01307948213070631,0.006005146540701389,0.001837579533457756,0.028213325887918472,-0.00813764613121748,-0.009092622436583042,0.004404034931212664,0.00387560180388391,
-0.015502923168241978,-0.02212495356798172,0.011840030550956726,-0.02809017524123192,-0.019131645560264587,-0.0016747706104069948,-0.0016634451458230615,0.02792757749557495,
-0.028333719819784164,-0.006887432653456926,-0.02695377916097641,0.033795394003391266,-0.0008777559269219637,0.031009679660201073,-0.05601784586906433,0.011886089108884335,
-0.0031409519724547863,-0.005071158986538649,-0.0006921530002728105,-0.020530397072434425,0.00430409936234355,0.005583190359175205,0.03539860621094704,-0.007964270189404488,
-0.0034574782475829124,-0.007753713522106409,-0.008940712548792362,0.0003817135002464056,-0.014401247724890709,0.013951340690255165,-0.06207900121808052,0.00655011972412467,
0.04395943880081177,0.017196042463183403,0.01644016243517399,0.04046221449971199,-0.008579195477068424,0.02044242061674595,0.013732540421187878,0.021930314600467682,
-0.08761259913444519,-0.004872524179518223,0.021410921588540077,0.005511546041816473,-0.026216845959424973,-0.021173791959881783,0.0374111644923687,0.006233034655451775,
0.026016883552074432,-0.02207810804247856,-0.039251916110515594,0.032124124467372894,-0.01983596198260784,0.023566294461488724,-0.04759940505027771,0.04168232902884483,
0.02251078188419342,0.02929314412176609,0.023984188213944435,0.010826938785612583,0.04705395922064781,0.008913488127291203,0.0397871732711792,-0.004449076019227505,
-0.01364944875240326,-0.01662769541144371,-0.01006567943841219,-0.026931939646601677,0.001876612426713109,-0.011288954876363277,-0.00042147477506659925,0.013981402851641178,
-0.020950738340616226,0.025424307212233543,-0.007603648584336042,0.017027828842401505,0.00914742797613144,0.007453764323145151,0.05408221483230591,-0.013001629151403904,
0.031886205077171326,0.006673950701951981,0.016264783218503,0.016582271084189415,-0.03111940436065197,-0.06262543797492981,-0.011722697876393795,-0.051429565995931625,
0.017954913899302483,-0.03040136583149433,-0.007287442684173584,0.004687710665166378,0.005427938885986805,0.05691368505358696,0.012149753049015999,0.00089973583817482,
0.0435689277946949,-0.024665938690304756,-0.005468074232339859,0.041487906128168106,-0.05417831242084503,0.01841229945421219,-0.03662442788481712,0.03487524017691612,
-0.010729825124144554,-0.02893860451877117,-0.0322364941239357,0.03345237299799919,0.011110231280326843,-0.06564292311668396,0.028635943308472633,-0.02021971344947815,
0.04395052790641785,-0.009365244768559933,-0.004362004343420267,0.009080391377210617,0.0387171246111393,0.008140032179653645,0.05177753418684006,0.00147727329749614,
-0.014482077211141586,0.02353087067604065,0.03837526589632034,0.007723432034254074,-0.004444796591997147,0.007997940294444561,-0.02968832291662693,-0.011139695532619953,
0.023359252139925957,0.05633484572172165,-0.004300262313336134,0.0035121969413012266,-0.0067336116917431355,0.005412145983427763,-0.008169961161911488,0.02466447278857231,
0.021176887676119804,0.04661587253212929,-0.020868336781859398,0.026882361620664597,-0.053291965276002884,-0.01025062333792448,-0.06495264917612076,-0.06224499270319939,
0.007390403654426336,-0.01365207601338625,0.0226175244897604,0.016543855890631676,0.02650480531156063,-0.013810153119266033,0.06429564207792282,0.0031190202571451664,
-0.020404446870088577,0.011576373130083084,0.018238617107272148,-0.02278183028101921,0.005492504686117172,0.004883411806076765,0.031035948544740677,-0.004518828354775906,
0.05758592113852501,-0.01761096715927124,-0.013089289888739586,0.03488004952669144,-0.03677061200141907,-0.003920126706361771,0.008969821967184544,0.03025934472680092,
-0.021514223888516426,0.014793937094509602,-0.045183632522821426,-0.052558209747076035,-0.01390787772834301,0.017288224771618843,-0.019607530906796455,0.004147098865360022,
0.05379819497466087,-0.005854093469679356,-0.0023052068427205086,0.0011730000842362642,-0.048109669238328934,-0.025842681527137756,0.04987223818898201,0.0355163998901844,
-0.026762602850794792,-0.013181260786950588,-0.021956058219075203,0.02111990563571453,-0.06438939273357391,-0.07997224479913712,0.031160572543740273,-0.045869652181863785,
-0.0024134849663823843,0.04136928915977478,-0.003919284325093031,-0.007951066829264164,-0.004705357830971479,-0.0046449629589915276,-0.0026642591692507267,-0.0014613682869821787,
0.03299335017800331,0.006271681748330593,-0.03254843130707741,0.02039508894085884,0.0014344725059345365,0.017964279279112816,-0.03208640217781067,0.002512746723368764,
0.007808415684849024,0.014252725057303905,0.006363692693412304,-0.020662155002355576,0.010596559382975101,-0.013407092541456223,-0.014784875325858593,-0.0499429926276207,
-0.036503925919532776,-0.015687542036175728,-0.029935792088508606,-0.08231354504823685,0.002446170663461089,-0.028653357177972794,0.043944716453552246,-0.03563864156603813,
0.018627285957336426,-0.009232999756932259,-0.013688137754797935,0.02964773215353489,9.244985994882882e-05,0.023323340341448784,0.04757516086101532,0.023216012865304947,
-0.04061218351125717,-0.017635779455304146,-0.016034606844186783,0.014672995544970036,0.06911984086036682,0.024817809462547302,0.019289802759885788,0.01932782679796219,
-0.02961757592856884,0.011492475867271423,0.0026492858305573463,-0.028529081493616104,-0.025696227326989174,0.012912354432046413,0.05356493964791298,-0.02870420180261135,
0.013569003902375698,-0.015953833237290382,-0.09831666201353073,0.003738798899576068,0.07777334749698639,0.09093176573514938,0.013051404617726803,0.012052071280777454,
-0.051156289875507355,-0.03101145103573799,0.02612508274614811,0.018149645999073982,-0.014665551483631134,0.002383128274232149,-0.0027258845511823893,-0.0128534696996212,
0.014384890906512737,0.006674591451883316,-0.04350597783923149,0.0034328715410083532,0.004424926359206438,0.013779060915112495,-0.059889066964387894,0.059946149587631226,
0.0001892385189421475,0.003962487913668156,-0.046588294208049774,0.05728266015648842,-0.00033634068677201867,0.014796148054301739,-0.016068244352936745,-0.020930897444486618,
0.05775666609406471,0.004204920027405024,-0.0030530395451933146,0.01466064527630806,0.02177390269935131,-0.012134554795920849,0.06613501906394958,0.0018091540550813079,
0.014081411994993687,0.013373980298638344,-0.019210582599043846,0.02378692477941513,0.007869760505855083,0.019515275955200195,-0.03322381526231766,0.0021652551367878914,
-0.01976967789232731,0.018252743408083916,0.0525822676718235,-0.030435768887400627,0.0042214160785079,0.01748562976717949,0.016830043867230415,-0.0013937251642346382,
-0.051580000668764114,-0.03239627182483673,-0.006013804115355015,0.009783132933080196,0.007582762278616428,0.003918296657502651,0.03931625187397003,0.027570029720664024,
0.0046648127026855946,0.0002902375999838114,0.0194361861795187,-0.01080495398491621,-0.06464149057865143,0.021661460399627686,-0.02020907774567604,0.10389787703752518,
-0.017072562128305435,-0.048338234424591064,0.0020699126180261374,0.013171744532883167,0.0029426186811178923,0.025167055428028107,0.0029852211009711027,0.04845519736409187,
-0.014853202737867832,-0.042491406202316284,0.0002519423724152148,-0.029932333156466484,-0.000974703230895102,0.05456940829753876,0.032419152557849884,0.03481869027018547,
0.008674822747707367,-0.0031551343854516745,0.002287098206579685,0.00580639997497201,0.019383763894438744,-0.031461041420698166,0.027736108750104904,-0.06257187575101852,
-0.008273239247500896,0.05222025513648987,0.017678285017609596,0.0039924150332808495,-0.07446219027042389,0.02723878063261509,0.05647728592157364,0.027453819289803505,
-0.002165419515222311,0.0388471744954586,-0.008079225197434425,0.008259950205683708,0.048248592764139175,-0.0035060876980423927,0.015341834165155888,-0.045252475887537,
-0.04797164350748062,-0.02414681762456894,0.004085130523890257,-0.033351775258779526,0.09320781379938126,0.018465878441929817,0.00827111303806305,0.04646633565425873,
0.0017240358283743262,0.013228803873062134,-0.0673239454627037,-0.03952134773135185,0.0031793764792382717,0.03533853590488434,0.024315955117344856,-0.021417273208498955,
-0.010253587737679482,0.0027109214570373297,0.07098577171564102,-0.012425880879163742,-0.021534491330385208,-0.038991779088974,0.046063005924224854,-0.016476329416036606,
0.0017983757425099611,0.00843857042491436,-0.009171295911073685,-0.049050409346818924,0.01248216163367033,-0.0017676434945315123,-0.005224479828029871,0.0406457781791687,
-0.021072110161185265,0.008744491264224052,0.02112625166773796,0.020000414922833443,-0.009860852733254433,0.014702005311846733,0.041242100298404694,-0.027372989803552628,
0.007990553975105286,-0.005462038330733776,0.02376684360206127,-0.04402501508593559,-0.050920844078063965,-0.03614041954278946,-0.013032451272010803,0.0011847835266962647,
0.024508822709321976,0.0026148981414735317,0.014671954326331615,-0.020022835582494736,0.0778660997748375,-0.02277231216430664,0.07136685401201248,0.02792530693113804,
0.05203400179743767,0.037860285490751266,-0.017794501036405563,0.006384727079421282,0.010813348926603794,0.013349669054150581,0.0860091969370842,-0.026914361864328384,
0.009489153511822224,-0.02167452499270439,-0.03746115416288376,-0.004826842341572046,-0.026591654866933823,-0.020696138963103294,0.017906969413161278,0.0003945759090129286,
0.018573740497231483,-3.315337744425051e-05,0.05300084501504898,0.00845971331000328,-0.0520046129822731,-0.018034128472208977,-0.06724774837493896,-0.040705908089876175,
0.006358490325510502,-0.0038275716360658407,0.09531193226575851,0.01857556588947773,0.016027353703975677,-0.0069474708288908005,0.053378842771053314,0.0310395285487175,
0.01783452369272709,0.02274969592690468,-0.01232681144028902,0.0013500378699973226,0.015375539660453796,0.001711252611130476,0.006572358310222626,-0.027056368067860603,
-0.06699949502944946,0.008209031075239182,-0.015658723190426826,-0.004691609647125006,0.01599477231502533,0.07111857086420059,0.04120412841439247,-0.01080713514238596,
-0.0024069061037153006,-0.011684082448482513,0.013183715753257275,0.0004935169708915055,-0.03819267824292183,0.011991621926426888,0.023521890863776207,-0.016719967126846313,
-0.029983725398778915,-0.04580717906355858,0.029846128076314926,0.010095729492604733,-0.05875103920698166,-0.0052469088695943356,0.030219310894608498,-0.0019350703805685043,
0.013567372225224972,-0.005844925995916128,-0.04409533739089966,-0.02716955915093422,-0.042976025491952896,0.0374017208814621,0.032619576901197433,-0.014258145354688168,
0.008102401159703732,-0.030243920162320137,0.08019320666790009,0.01959824562072754,-0.07201351225376129,0.03398251533508301,-0.01634315401315689,-0.0075352867133915424,
0.03093705140054226,0.03307048976421356,0.005701996386051178,0.016712026670575142,-0.03690347447991371,0.007685780990868807,-0.023530807346105576,-0.03653661161661148,
0.050602760165929794,0.004698550794273615,-0.0001818296586861834,0.022556329146027565,-0.047023706138134,-0.058836620301008224,-0.05580023676156998,-0.005775358062237501,
0.05534824728965759,-0.0038869366981089115,0.002031712792813778,0.08080899715423584,0.007387771271169186,0.008241010829806328,0.0100638996809721,-0.004232301842421293,
-0.025301139801740646,-0.015859432518482208,-0.008161449804902077,-0.006297548767179251,-0.009061445482075214,-0.022051922976970673,-0.005589952692389488,0.04394328594207764,
0.0016754847019910812,-0.00826168805360794,-0.00941405352205038,-0.0009429242345504463,0.050019584596157074,0.00776319857686758,0.034980352967977524,-0.08175121992826462,
0.01022687554359436,-0.0025291338097304106,0.030020397156476974,0.04657049477100372,0.037178922444581985,0.018836261704564095,0.017128480598330498,-0.003550768131390214,
0.0009526698850095272,-0.042776674032211304,-0.0008509316248819232,-0.009216655045747757,0.00557768065482378,-0.023709772154688835,-0.0028278541285544634,-0.03772036358714104,
-0.012125053443014622,0.014491585083305836,-0.007781782187521458,-0.01583767868578434,0.015028273686766624,-0.0049195378087460995,-0.0011856101918965578,-0.025255315005779266,
-0.03493761271238327,0.012835759669542313,0.009548788890242577,0.030346335843205452,0.028862364590168,0.030440961942076683,-0.01743561029434204,-0.0022338738199323416,
0.025783877819776535,0.014103333465754986,-0.005744979251176119,0.008808465674519539,-0.0094764344394207,0.06321720778942108,0.002539463574066758,-0.0794447511434555,
0.02997353859245777,-0.04427478462457657,0.008615360595285892,-0.017768530175089836,-0.092159204185009,0.019942540675401688,0.004577771760523319,0.009311416186392307,
-0.017939284443855286,0.010114096105098724,-0.00764441816136241,-0.00825987197458744,-0.06721169501543045,-0.028820104897022247,0.02341102436184883,0.019972728565335274,
-0.002868205076083541,-0.004167498555034399,-0.008674518205225468,0.011107806116342545,0.04177946224808693,0.00975894182920456,0.006423454266041517,-0.019775932654738426,
-0.002842977875843644,0.0716889351606369,0.007183994632214308,-0.0637839064002037,0.027073310688138008,0.06069067865610123,-0.03809936344623566,-0.001680938876233995,
0.02926766499876976,-0.02390311472117901,-0.010989867150783539,-0.03208933770656586,0.005607056897133589,0.015595150180161,0.02293708361685276,-0.0056742471642792225,
0.020933745428919792,0.033227015286684036,0.010509159415960312,0.0026332978159189224,0.008234758861362934,0.02848324365913868,-0.0066102114506065845,-0.015534233301877975,
0.01917249523103237,0.006288333795964718,-0.0437769889831543,-0.01867816224694252,0.04678085446357727,-0.003676042892038822,-0.01860964484512806,0.044042058289051056,
-0.015403578989207745,-0.012397012673318386,-0.012993724085390568,-0.03706352785229683,0.014462160877883434,0.019489463418722153,-0.02477327734231949,-0.011603444814682007,
0.005833554081618786,-0.03484272211790085,-0.0022506662644445896,0.015222419053316116,-0.01501742098480463,0.00812989380210638,-0.005798675119876862,-0.05268622934818268,
0.06546284258365631,-0.010201961733400822,0.0014216734562069178,0.001169009367004037,-0.04279892519116402,-0.020559119060635567,0.020275147631764412,-0.022478654980659485,
-0.0024992197286337614,0.009557726792991161,0.006926310248672962,-0.025694219395518303,-0.046376973390579224,0.0036953215021640062,0.021551860496401787,-0.032054491341114044,
0.024986762553453445,0.0025922239292412996,-0.018453557044267654,0.021001147106289864,-0.05434136092662811,0.027213558554649353,-0.026185721158981323,-0.0013908845139667392,
0.015501871705055237,0.005994142033159733,-0.003635372733697295,-0.008696937933564186,0.021216150373220444,0.04564612731337547,0.0391838438808918,0.012806175276637077,
0.00013976541231386364,0.024069219827651978,0.003951707389205694,0.01726374216377735,-0.01571746915578842,-0.007024865131825209,-0.010192620567977428,-0.02488454058766365,
-0.01161745935678482,0.035426653921604156,0.0028602108359336853,0.06256716698408127,0.02109363116323948,0.006126140709966421,0.025006990879774094,0.008118265308439732,
-0.01035477314144373,-0.017228998243808746,-0.012156473472714424,-0.02368929609656334,0.031544029712677,-0.05209038034081459,-0.0018986121285706758,0.025570649653673172,
-0.056169528514146805,0.05411234125494957,-0.019871462136507034,0.008432270959019661,-0.01167718693614006,0.0022532374132424593,-0.004135671071708202,-0.05230807512998581,
0.016038769856095314,-0.025731680914759636,0.0017641796730458736,0.010115555487573147,-0.007787743583321571,-0.013021598570048809,-0.011875005438923836,-0.021353965625166893,
-0.00041754182893782854,0.002366730710491538,0.028493905439972878,-0.02827753685414791,0.10849972069263458,-0.008495460264384747,-0.02263362519443035,-0.05097900703549385,
0.02506987750530243,-0.05084318295121193,-0.018617872148752213,0.02630300261080265,0.04225271940231323,-0.030438372865319252,-0.007789083756506443,0.02174282632768154,
-0.0028413552790880203,-0.005920251831412315,0.026926247403025627,-0.011147560551762581,-0.006231571082025766,0.0007277814438566566,0.016872258856892586,-0.014867513440549374,
0.006414666771888733,-0.02514992095530033,0.03664940595626831,0.03464681655168533,-0.011364168487489223,-0.018613506108522415,-0.021304531022906303,-0.01039107609540224,
0.021227914839982986,0.01876758597791195,-0.014249329455196857,-0.029408898204565048,-0.012398182414472103,0.0007400084286928177,0.00726863881573081,-0.011434778571128845,
-0.016949331387877464,-0.011934208683669567,0.02995087206363678,-0.011725107207894325,0.02770210988819599,-0.042356036603450775,0.035338833928108215,0.001242667669430375,
-0.08418846130371094,0.045861177146434784,0.00566821126267314,0.04057896137237549,-0.01727493293583393,-0.0011706700315698981,-0.00014667017967440188,0.029526153579354286,
0.009271387942135334,-0.005355204455554485,0.0012570589315146208,0.0005191420787014067,0.051648590713739395,-0.005948914680629969,-0.00043884251499548554,-0.0011787174735218287,
-0.024890756234526634,0.002091572619974613,-0.016309844329953194,-0.00400618277490139,0.04573111981153488,-0.0035910308361053467,-0.015344798564910889,0.018682291731238365,
-0.02084827981889248,0.002912676427513361,-0.011242160573601723,-0.03169410675764084,-0.01107434555888176,-0.016523534432053566,-0.007583847269415855,-0.007307057268917561,
-0.00432550860568881,-0.0024989231023937464,0.012186308391392231,-0.00550755113363266,-0.0006324712885543704,-0.007554769981652498,0.01751098595559597,7.05313723301515e-05,
0.021301379427313805,-0.004610115196555853,-0.045935969799757004,0.0025308618787676096,-0.03627964109182358,-0.006719920784235001,-0.0006848457851447165,5.162695379112847e-05,
-0.0011124222073704004,-0.004381305538117886,-0.0040100570768117905,0.05298945680260658,0.0009389882325194776,0.007387265563011169,-0.005357075482606888,-0.015975212678313255,
-0.00502824829891324,0.005915733985602856,0.044291067868471146,0.0013361169258132577,-0.004346164409071207,-0.0034330536145716906,-0.07436642050743103,-0.008864166215062141,
-0.023287253454327583,-0.02183525450527668,0.0029921906534582376,0.08049855381250381,0.041311558336019516,0.0034613325260579586,-0.0017277344595640898,0.02776234783232212,
0.021489635109901428,0.02480418048799038,0.012180216610431671,0.015477395616471767,-0.015401098877191544,-0.002113447990268469,0.006161732133477926,0.01618846133351326,
-0.02622026950120926,0.0034835818223655224,-0.026160147041082382,0.029285317286849022,-0.03365514054894447,-0.0013293096562847495,-0.011775567196309566,0.04675324261188507,
-0.001972079509869218,0.04550958424806595,-0.007332800887525082,0.013341814279556274,0.035934653133153915,-0.011313926428556442,-0.008855725638568401,0.005243316292762756,
0.015410920605063438,0.018250983208417892,-0.004844580311328173,-0.0032078397925943136,-0.029593894258141518,0.019168617203831673,0.02951575256884098,0.0595947727560997,
-0.0012629932025447488,-0.005138643551617861,0.03563334792852402,0.01066193450242281,0.001955950865522027,-0.015924837440252304,-0.020461155101656914,0.029515165835618973,
0.019838768988847733,-0.009920606389641762,-0.03278827294707298,-0.03197116404771805,0.019469020888209343,0.009351082146167755,0.016374893486499786,0.001966432435438037,
-0.011018877848982811,0.010960209183394909,-0.007303974125534296,-0.012897727079689503,-0.008082136511802673,0.025843439623713493,0.00022738188272342086,-0.05464855208992958,
-0.00700002908706665,-0.038033582270145416,-0.01390104927122593,-0.06935715675354004,0.050244614481925964,-0.0004877280443906784,0.0031548188999295235,-0.02316865511238575,
-0.03715645894408226,-0.005302025470882654,0.007532002869993448,-0.006167576182633638,-0.03357074037194252,0.006111254915595055,0.013111529871821404,0.00021617385209538043,
-0.029002591967582703,-0.005932065658271313,0.0189589224755764,0.015836201608181,0.06619664281606674,0.00014397357881534845,-0.04947535693645477,-0.028573814779520035,
0.007395988795906305,0.03711985424160957,0.005160859785974026,0.005741791799664497,-0.013586043380200863,0.01385586243122816,0.0020781964994966984,-0.01104061957448721,
-0.008311396464705467,0.019133437424898148,0.034945614635944366,0.01705087348818779,-0.037069227546453476,-0.0024536519777029753,0.00868347566574812,0.004298671614378691,
0.0010770416120067239,-0.02345314435660839,-0.024851087480783463,0.008570004254579544,-0.014833535067737103,0.03953283652663231,0.0015292217722162604,0.024365615099668503,
-0.016593802720308304,-0.0051138619892299175,0.012421893887221813,0.05339225381612778,-0.005131535232067108,-0.006047246512025595,-0.006699982099235058,0.005997905507683754,
-0.01717248186469078,-0.007485071197152138,-0.025771480053663254,0.006410084664821625,-0.009147971868515015,0.024190321564674377,0.02894465997815132,0.022406453266739845,
-0.02056058682501316,-0.01905781961977482,0.004347354639321566,-0.02931351214647293,0.09387443959712982,0.0031173252500593662,-0.002340689767152071,0.02614922821521759,
-0.0021661724895238876,-0.008036726154386997,-0.004492117092013359,-0.012773863039910793,-0.027281954884529114,-0.00805064756423235,-0.02925245836377144,-0.00876173097640276,
0.0339970588684082,-0.007810708601027727,-0.001228483160957694,-0.013595029711723328,-0.019601644948124886,-0.016102496534585953,0.038760121911764145,-0.06288600713014603,
0.01206239964812994,-0.00360258505679667,0.018213288858532906,-0.019800754263997078,0.014126733876764774,0.021585727110505104,-0.0024362928234040737,0.0003741542750503868,
-0.00738673098385334,0.014383140951395035,0.031585391610860825,-0.0026920847594738007,0.039987366646528244,-0.025160133838653564,-0.037725768983364105,-0.038919318467378616,
0.02056148834526539,-0.020024646073579788,0.01124949473887682,0.007230347953736782,-0.026514440774917603,0.03774595260620117,0.0037999132182449102,-0.00977353472262621,
0.0038421035278588533,0.003445899346843362,0.0037789708003401756,-0.035685427486896515,-0.003931037150323391,-0.008958452381193638,0.01828066073358059,0.0019148447318002582,
0.004494125489145517,-0.0007899486809037626,-0.016707267612218857,-0.004662185907363892,-0.007133018225431442,0.013455191627144814,-0.0293720830231905,0.00575978634878993,
-0.07632216066122055,0.0038904217071831226,-0.003632625564932823,0.048119474202394485,-0.05984780937433243,0.0028351806104183197,-0.0009748843149282038,0.030329344794154167,
-0.04622926563024521,-0.0053225620649755,-0.013813593424856663,-0.004633850418031216,-0.08213740587234497,-0.006349531002342701,0.028244754299521446,0.003897755639627576,
0.048725228756666183,-0.001578180119395256,-0.0019334206590428948,-0.012738265097141266,-0.06833823025226593,-0.009150227531790733,-0.016580894589424133,0.03494255244731903,
-0.027044927701354027,-0.02009623311460018,0.009152662940323353,0.02311823144555092,-0.009525448083877563,0.01581456884741783,-0.00843796692788601,0.007960140705108643,
-0.010182103142142296,-0.039940088987350464,0.018475288525223732,0.002514905296266079,-0.003985188435763121,0.021217910572886467,-0.0076526012271642685,-0.024419011548161507,
0.018671302124857903,-0.008397823199629784,-0.013948570936918259,0.001779852551408112,-0.00971824862062931,0.05339277908205986,0.004247001372277737,-0.002592010423541069,
0.0015943635953590274,-0.01239758636802435,0.0009150212863460183,0.018380803987383842,0.015756402164697647,-0.0034672270994633436,-0.004525104537606239,-0.0030069707427173853,
0.011945875361561775,0.005598824005573988,-0.055150702595710754,-0.005342494696378708,-0.032074712216854095,0.03363185003399849,0.025235913693904877,0.006647741887718439,
0.14345607161521912,0.19960853457450867,0.4107266068458557,0.23077429831027985,0.14435049891471863,0.014906241558492184,-0.010983699932694435,0.06740441918373108,
0.12205309420824051,-0.3776755630970001,0.20695807039737701,0.44186025857925415,-0.5610774159431458,-0.27907124161720276,0.04412013292312622,-0.015701286494731903,
0.042780835181474686,-0.014466732740402222,-0.03943751007318497,0.07208307832479477,0.15621747076511383,-0.02609557844698429,-0.17208777368068695,0.1246257796883583,
0.1309928447008133,-0.19142822921276093,0.048002421855926514,-0.3200717568397522,-0.37474966049194336,0.3105413317680359,0.000864250585436821,0.0045346529223024845,
-0.2223624885082245,0.13214923441410065,-0.3834490478038788,0.1520538479089737,-0.2229599803686142,-0.09279603511095047,-0.04711923375725746,0.029870344325900078,
0.0016255093505606055,-0.2849029302597046,0.11420371383428574,-0.019542066380381584,0.14943352341651917,-0.15581998229026794,-0.011546282097697258,0.043070919811725616,
-0.06924794614315033,-0.012682173401117325,0.1290275901556015,-0.11373265087604523,-0.3281152844429016,0.07690266519784927,-0.21390509605407715,0.10712110996246338,
0.20118959248065948,0.07167046517133713,0.18405170738697052,0.04755045846104622,-0.022676287218928337,0.07228536158800125,-0.1547270119190216,0.18745148181915283,
-0.04659833386540413,-0.03226984664797783,-0.06523831188678741,0.004995413590222597,-0.08890200406312943,-0.01054509449750185,0.003394512692466378,-0.022110478952527046,
-0.10534939914941788,-0.08106087148189545,0.04161933436989784,0.07783457636833191,-0.03882844001054764,-0.03666936978697777,0.05464624613523483,-0.00012724395492114127,
0.02618970349431038,0.018052389845252037,-0.0005923811113461852,0.06929317861795425,-0.09658810496330261,0.025187304243445396,0.04557673633098602,-0.06107918918132782,
0.0007027694955468178,0.0521150566637516,-0.01310861948877573,0.008318638429045677,-0.07950681447982788,-0.09859872609376907,-0.005351067520678043,0.010484824888408184,
-0.05965713784098625,0.028287628665566444,0.09141883254051208,0.005873455666005611,-0.007674739696085453,-0.25813037157058716,0.18671375513076782,-0.04797558858990669,
-0.09622085839509964,0.039619993418455124,0.005533162038773298,0.06512349098920822,-0.05141112580895424,-0.10946641862392426,0.029523631557822227,-0.01182648167014122,
-0.03542987257242203,0.060103632509708405,-0.011049645021557808,-0.06089166924357414,-0.028590720146894455,0.03458063304424286,0.08684675395488739,0.11442321538925171,
-0.06394899636507034,0.008811014704406261,-0.04210524633526802,0.009367220103740692,-0.07765860110521317,0.13022446632385254,0.06694070249795914,0.03688879311084747,
0.00430965656414628,-0.014583401381969452,0.019369440153241158,0.006889034528285265,0.0020347200334072113,0.020138010382652283,-0.04500707983970642,-0.004593443125486374,
-0.005400346126407385,-0.025744838640093803,0.0015774923376739025,-0.015934593975543976,-0.00026899788645096123,0.000408563093515113,-0.012745263986289501,-0.0019107344560325146,
0.021992426365613937,-0.024807892739772797,0.006112896371632814,0.011587071232497692,0.013763087801635265,-0.20359350740909576,-0.004771618638187647,0.012811273336410522,
0.006387866567820311,0.0008553450461477041,-0.015440243296325207,-0.016338178887963295,-0.004834271967411041,-0.015856435522437096,0.02428300864994526,0.05613173544406891,
-0.051292985677719116,-0.005419658496975899,0.016913730651140213,-0.06761075556278229,0.010918129235506058,0.0055009750649333,-0.003098477143794298,0.0020911251194775105,
0.07811757922172546,0.02225959673523903,0.02171018347144127,0.007665037177503109,0.006732997950166464,-0.008915089070796967,-0.0005271901609376073,0.01555977575480938,
0.005207906011492014,0.019545311108231544,-0.06919237971305847,0.03102651983499527,-0.01179115567356348,-0.025519346818327904,-0.0016418099403381348,-0.033053431659936905,
-0.016222506761550903,0.013418754562735558,0.0002536461397539824,0.012029116973280907,0.008014228194952011,0.010377476923167706,-0.003870871849358082,-0.012043553404510021,
0.012949343770742416,-0.014407958835363388,0.005311919376254082,0.017175227403640747,0.02188744954764843,0.006712082773447037,-0.00015987217193469405,-0.003789272392168641,
0.03551647439599037,0.011205590330064297,0.04894844815135002,-0.006766302045434713,-0.0042707473039627075,-0.02480168081820011,0.019784418866038322,0.022241510450839996,
0.028269819915294647,0.003825629595667124,0.037283431738615036,-0.007178702391684055,0.01760753244161606,-0.011468973942101002,-0.0187661312520504,0.003943806514143944,
-0.005266499239951372,-0.02064663916826248,0.005516151897609234,0.0007520419312641025,0.024823704734444618,-0.025197353214025497,0.009084997698664665,-0.009007018059492111,
-0.04326779022812843,-0.03540849685668945,0.0008125340682454407,-0.09030885994434357,-7.38858652766794e-05,-0.012242939323186874,0.01930360309779644,0.0156776811927557,
0.05698544159531593,-0.011439239606261253,-0.00529867596924305,-0.017673352733254433,0.022310830652713776,0.0232387762516737,0.031079445034265518,0.00879305973649025,
-0.016266053542494774,0.005814041011035442,0.06480381637811661,-0.01235639862716198,0.04220695421099663,0.0015723510878160596,0.027324780821800232,-0.02805759757757187,
-0.015426354482769966,0.030215250328183174,-0.01766156032681465,-0.009463018737733364,-0.0619996003806591,-0.024281974881887436,-0.04117193818092346,0.0163077674806118,
0.02257126197218895,0.03388556092977524,0.01797451823949814,0.02973400242626667,0.00026209987117908895,-0.003640036564320326,0.0013958492781966925,-1.670569872658234e-05,
0.00222322391346097,-0.03493044525384903,0.024043381214141846,-0.004533551633358002,-0.010946717113256454,0.016053980216383934,-0.03992343321442604,-0.004170021042227745,
-0.013077476993203163,0.002200530841946602,0.011206749826669693,0.03481083735823631,-0.0015339577803388238,0.06166233494877815,-0.020313650369644165,0.003456045873463154,
0.0499744787812233,0.02690660022199154,0.00015833346697036177,-0.0035420763306319714,-0.011182326823472977,-0.062042657285928726,-0.0016743030864745378,0.01775885373353958,
-0.041607193648815155,0.0006143174832686782,0.01434321515262127,-0.05541205406188965,0.03211786970496178,0.025131382048130035,0.02270212024450302,-0.031012533232569695,
0.0220034196972847,0.013872399926185608,-0.01808468997478485,0.011233535595238209,0.012565151788294315,0.04586368054151535,0.03889837861061096,-0.014615374617278576,
-0.007956327870488167,-0.04541582614183426,-0.023728109896183014,-0.017885243520140648,-0.03628736361861229,0.017418047413229942,-0.03265400975942612,0.013977901078760624,
-0.012569785118103027,-0.024270541965961456,-0.05213283747434616,0.004366929642856121,-0.015099410898983479,-0.02101694419980049,-0.009885820560157299,-0.04842707887291908,
0.004611296579241753,0.018621135503053665,-0.02144710160791874,-0.025469711050391197,-0.002566115465015173,-0.0153542160987854,0.0028957652393728495,-0.02065165340900421,
0.02793395146727562,-0.05024178326129913,-0.04103024676442146,-0.012472178786993027,0.0469416081905365,-0.01001940667629242,0.06473515182733536,-0.07930880784988403,
0.051160044968128204,0.015706773847341537,-0.06589485704898834,-0.03208589926362038,-0.0006658452330157161,0.02524355612695217,-0.005180534441024065,-0.005646365694701672,
0.038931503891944885,0.007784290239214897,-0.016587305814027786,0.016561981290578842,-0.021900149062275887,-0.003417525440454483,-0.002970893168821931,-0.01807755045592785,
-0.05077405646443367,0.017791859805583954,0.015527896583080292,-0.04626252502202988,-0.026533396914601326,-0.021672671660780907,-0.010466308332979679,0.00449554855003953,
-0.0010781243909150362,-0.028472386300563812,0.04779178276658058,0.003243978600949049,-0.008646910078823566,0.04945513978600502,0.02047828584909439,-0.014860797673463821,
0.00954336579889059,0.015886303037405014,-0.00642422866076231,0.02525542862713337,0.03477346897125244,0.01843881607055664,-0.052985161542892456,-0.026089951395988464,
-0.02990284003317356,0.011359299533069134,0.04822573438286781,-0.0018147361697629094,0.02390305884182453,0.07967650145292282,0.005976696033030748,0.015359187498688698,
0.01578887738287449,0.006998222786933184,0.0024441129062324762,0.0023732499685138464,0.01436952780932188,-0.017195886000990868,0.002797734457999468,-0.012172355316579342,
0.020702846348285675,-0.027013679966330528,-0.02796804904937744,-0.010764995589852333,0.012618938460946083,-0.013170255348086357,-0.00922723114490509,-0.02203778550028801,
0.06998959928750992,-0.005623579025268555,0.03747880831360817,0.012285329401493073,-0.0020648259669542313,0.02037421427667141,-0.02593619003891945,-0.013972426764667034,
-0.04216040298342705,0.07346805185079575,0.024402344599366188,0.015483733266592026,-0.009228373877704144,0.02048638090491295,-0.007447626907378435,-0.0065095997415483,
-0.005142246838659048,0.012034928426146507,0.006589685101062059,-0.03431512787938118,0.00984397903084755,0.0041168066672980785,-0.03148239478468895,0.009683670476078987,
0.020840175449848175,0.01345321349799633,0.015323394909501076,0.06028745323419571,-0.053860243409872055,-0.03424588218331337,-0.04490099847316742,-0.01606149598956108,
-0.031073080375790596,-0.01329768542200327,-0.019529297947883606,-0.004444080404937267,0.020004581660032272,-0.025341548025608063,-0.08999928086996078,0.021420516073703766,
-0.005721112713217735,0.02738911658525467,0.04250214248895645,0.024715501815080643,-0.07894594967365265,-0.04828261956572533,0.02486933209002018,0.03730721399188042,
0.01694747805595398,0.0003572629648260772,-0.009029464796185493,-0.029196847230196,-0.053124867379665375,-0.002495539840310812,-0.001440897467546165,-0.018831713125109673,
0.04664849862456322,-0.03322463110089302,0.0676470398902893,-0.0025395157281309366,-0.011122630909085274,0.0035871819127351046,0.03150840476155281,0.046296656131744385,
-0.03398637846112251,0.0006992465350776911,0.04592377692461014,-0.03230873495340347,-0.014934487640857697,-0.016702771186828613,0.005796533543616533,-0.016018100082874298,
-0.02042856253683567,-0.0073391105979681015,0.0007925707614049315,-0.04179082438349724,-0.04655204340815544,0.015400905162096024,-0.01599731110036373,-0.016709476709365845,
0.0034500190522521734,0.024211471900343895,0.00857638381421566,-0.002441524527966976,0.004691445268690586,0.038322217762470245,-0.005021779332309961,-0.03206514194607735,
0.006504056975245476,-0.0026129160542041063,-0.011776513420045376,-0.018874002620577812,-0.08609598875045776,-0.02707096002995968,-0.006026376038789749,0.0018522311002016068,
0.009038761258125305,-0.02042914740741253,-0.006741703022271395,-0.00968028325587511,0.0006693482864648104,-0.02279653772711754,0.04195081815123558,-0.04096822440624237,
-0.04981690272688866,0.007193190045654774,-0.0010094105964526534,0.00835684034973383,-0.02431357279419899,0.08155238628387451,0.04017544537782669,-0.053810421377420425,
-0.0072178528644144535,0.011518755927681923,0.01599547453224659,-0.028726670891046524,-0.03316907212138176,-0.02434469200670719,0.0010168594308197498,0.035035379230976105,
0.02212831750512123,0.010031553916633129,0.01440728921443224,0.03183649852871895,0.002386326901614666,-0.03895225748419762,0.018866444006562233,0.028724363073706627,
-0.03840837627649307,0.01348971202969551,0.030444733798503876,-0.034304019063711166,0.04275132343173027,0.0352906696498394,-0.041970476508140564,0.022190650925040245,
0.015607450157403946,-0.04920515790581703,-0.027611225843429565,0.020360097289085388,-0.0055416603572666645,-0.0334855392575264,0.0010307544143870473,-0.006657533813267946,
0.02340683527290821,0.05943543463945389,-0.0010852374834939837,-0.009453482925891876,0.053547877818346024,-0.009465580806136131,-0.032032690942287445,0.04559023305773735,
0.01991039328277111,0.050962310284376144,-0.004554011858999729,0.036655157804489136,0.019552582874894142,0.029568800702691078,-0.018388688564300537,-0.027082500979304314,
0.07194708287715912,0.02588268741965294,0.023384056985378265,0.015047501772642136,-0.0010005607036873698,-0.01649022474884987,-0.003154326928779483,0.02684527449309826,
0.025400714948773384,0.010230333544313908,-0.04770352691411972,0.008592724800109863,-0.06391741335391998,0.03330777958035469,-0.006910786498337984,-0.02885119989514351,
0.014025809243321419,-0.003119279397651553,0.02485482394695282,0.019800888374447823,0.011137046851217747,0.006188965402543545,0.0021243542432785034,0.007069905288517475,
-0.014708714559674263,-0.023006202653050423,-0.04140172526240349,-0.016007373109459877,0.026720134541392326,-0.011596125550568104,-0.006017378997057676,0.0010261657880619168,
-0.0008439465891569853,-0.0009474440012127161,0.0065016732551157475,0.04952041059732437,0.018782583996653557,0.016158664599061012,-0.03245487064123154,0.03307332843542099,
0.010991995222866535,-0.09052974730730057,-0.0020614280365407467,-0.062226343899965286,0.015036913566291332,0.023503033444285393,-0.01353423297405243,-0.021298373118042946,
-0.0316472165286541,0.009027964435517788,0.0035096630454063416,-0.007543038111180067,0.03962601348757744,0.0029743462800979614,0.0034196351189166307,0.03534489497542381,
-0.026433687657117844,0.04470537230372429,-0.023064937442541122,0.007442038971930742,-0.02289360761642456,0.06332771480083466,-0.015933269634842873,-0.007087518461048603,
-0.07071660459041595,0.03670527786016464,-0.05077659338712692,-0.021630359813570976,0.05442386120557785,0.02224014140665531,0.020996740087866783,0.036268450319767,
0.005206021014600992,-0.004163217265158892,0.04046003520488739,-0.014034509658813477,-0.0020489715971052647,-0.0024136649444699287,0.022568194195628166,-0.05207919329404831,
-0.004501543007791042,-0.008053096942603588,0.0180185679346323,-0.03914841637015343,0.04691893979907036,-0.0008353177108801901,-0.010649940930306911,-0.016766417771577835,
-0.015720101073384285,-0.03404153510928154,-0.00024946348275989294,0.010815640911459923,0.007719914894551039,-0.07923875004053116,-0.01280405092984438,-0.0005657616420648992,
0.023260705173015594,0.01579071208834648,-0.007131857331842184,0.03580690547823906,0.013891533948481083,-0.00877382792532444,0.017939232289791107,0.0369790717959404,
-0.034761760383844376,-0.022503580898046494,-0.031781360507011414,0.018270134925842285,-0.011006646789610386,-0.00971729215234518,-0.0017147932667285204,-0.022958040237426758,
0.00224813143722713,0.052852094173431396,0.03768211230635643,0.011955750174820423,-0.025638051331043243,0.0634705200791359,0.07063154876232147,-0.05362919718027115,
-0.015232177451252937,0.04654956981539726,0.006006088573485613,-0.01246557105332613,0.05374874919652939,0.01555746328085661,0.00860313419252634,-0.02419504150748253,
-0.007006863132119179,-0.0073460666462779045,-0.009855182841420174,-0.025057503953576088,0.04128149524331093,-0.02112988755106926,0.016293158754706383,0.024802973493933678,
-0.0258779413998127,0.008965819142758846,0.03033347614109516,-0.027838826179504395,0.02932829223573208,0.05755192041397095,-0.039009999483823776,-0.03598840534687042,
0.09353511780500412,-0.01273663341999054,0.011416971683502197,0.03651849180459976,0.032036926597356796,-0.013873223215341568,-0.006615296471863985,0.0405893512070179,
0.033717844635248184,-0.001298449351452291,-0.018097465857863426,0.014501115307211876,-0.04053821787238121,0.024957897141575813,0.0006958034937269986,0.00994810275733471,
-0.012282295152544975,0.008979152888059616,0.0009172267164103687,0.018588997423648834,-0.0050464593805372715,0.006309580057859421,-0.00967382825911045,-0.006743354257196188,
-0.01089825201779604,0.0034745701123028994,-0.026361646130681038,0.055114202201366425,-0.013204226270318031,-0.024454453960061073,-0.011500638909637928,-0.006572100333869457,
0.015404985286295414,-0.09092658013105392,-0.010169592685997486,0.013320354744791985,0.0077116284519433975,-0.004644556436687708,0.047036223113536835,-0.05044392868876457,
-0.02141987718641758,0.0038859276100993156,-0.005330378655344248,0.026256795972585678,-0.016090232878923416,0.02778618410229683,-0.013617289252579212,0.004836017731577158,
0.041866619139909744,-0.022306546568870544,0.030417656525969505,0.05869313329458237,-0.01565539836883545,-0.02598300203680992,0.02093510329723358,-0.005695645697414875,
0.019562717527151108,3.5153523640474305e-05,0.04753588140010834,-0.004050874151289463,-0.017287354916334152,0.024986490607261658,-0.002610845025628805,0.027851060032844543,
0.05398983135819435,0.020081453025341034,-0.008103528060019016,-0.027740538120269775,-0.04406837746500969,-0.01631208322942257,0.0016112925950437784,-0.011273259297013283,
-0.04189771041274071,-0.05132194980978966,0.02263295091688633,0.011810924857854843,-0.04025043174624443,0.04071074351668358,0.03807130828499794,0.01945590227842331,
0.016008539125323296,0.007372981868684292,-0.002064184984192252,-0.03728613629937172,0.044633571058511734,-0.007261896040290594,0.019772980362176895,0.011374815367162228,
0.003882962977513671,0.03912081569433212,-0.0005983956507407129,0.006380702834576368,0.02443854697048664,-0.05944700166583061,0.007304274011403322,0.01782488077878952,
-0.02422669157385826,-0.04433140158653259,0.009206293150782585,0.011064041405916214,0.020133819431066513,-0.013448654673993587,-0.02401811070740223,0.05799436196684837,
-0.009554745629429817,-0.011259372346103191,0.04926298186182976,0.032412830740213394,-0.028035275638103485,0.04739183932542801,-0.009764255955815315,-0.0164017453789711,
-0.029553178697824478,-0.018390856683254242,0.01904429867863655,-0.030966708436608315,-0.020856790244579315,-0.002129278378561139,0.07031881809234619,-0.038817085325717926,
0.021967381238937378,0.010356992483139038,0.07578366249799728,0.02358189970254898,0.034053683280944824,-0.032824818044900894,-0.05081895366311073,-0.014870291575789452,
-0.04305481165647507,-0.0003544554638210684,-0.01166190393269062,0.04109453782439232,0.014641273766756058,0.0008872523321770132,0.004470570478588343,-0.12535420060157776,
-0.014201435260474682,-0.01214405708014965,-0.002575948368757963,0.013643707148730755,-0.04535834863781929,0.031176717951893806,0.011933285742998123,-0.0025921741034835577,
-0.008044040761888027,-0.006046587601304054,0.002637715544551611,-0.020874468609690666,-0.025189783424139023,-0.009449332021176815,0.08028121292591095,-0.022070398554205894,
0.009045993909239769,0.010088038630783558,0.01793482154607773,0.01912379078567028,0.010131622664630413,-0.03555276244878769,0.012814491055905819,-0.001920654671266675,
-0.0056386603973805904,0.018331237137317657,-0.0007878129836171865,0.02811664529144764,0.054483819752931595,-0.0022446925286203623,0.002716215094551444,0.04903993010520935,
-0.014599154703319073,-0.021017959341406822,-0.02303864248096943,0.003902428550645709,0.029327990487217903,-0.00027433549985289574,0.018801793456077576,-0.019987300038337708,
-0.002539994427934289,-0.009130747988820076,0.022508183494210243,0.05282999202609062,-0.014008598402142525,-0.019556744024157524,-0.013426299206912518,0.008814328350126743,
0.022012900561094284,0.0002039843675447628,0.05102599784731865,0.008008315227925777,-0.03063175082206726,-0.0034947784151881933,-0.03725917637348175,0.002223250223323703,
-0.08196861296892166,-0.0063399747014045715,0.011522436514496803,-0.04047919809818268,-0.0071573033928871155,0.0097576342523098,0.003276475239545107,-0.07231081277132034,
0.0596042275428772,0.010727547109127045,-0.015769973397254944,-0.005636550020426512,-0.038325194269418716,0.027690721675753593,0.000243020971538499,-0.014705070294439793,
-0.0031176505144685507,-0.0028589393477886915,-0.014068002812564373,0.042330868542194366,0.05193019285798073,0.00517340749502182,-0.025282442569732666,0.0018295084591954947,
-0.002401049481704831,-0.026552412658929825,0.018605181947350502,-0.0017125008162111044,0.01320999301970005,0.011692410334944725,-0.025207966566085815,-0.013059571385383606,
0.0030833447817713022,-0.053295720368623734,-0.026651324704289436,0.012828211300075054,0.0056014759466052055,-0.02091594599187374,0.029835954308509827,-0.020637741312384605,
-0.006144505459815264,0.0184470321983099,0.017883121967315674,-0.006727026775479317,0.02817007154226303,-0.006682218983769417,0.00841387640684843,0.020682211965322495,
0.038585733622312546,-0.0030819890089333057,-0.017517250031232834,-0.05077718570828438,0.01850070059299469,-0.0004208285245113075,-0.013522736728191376,-0.00907113403081894,
0.02590768411755562,-0.0008706019725650549,0.0038224849849939346,0.0016498962650075555,-0.0029675012920051813,0.006524641998112202,0.026495620608329773,-0.06999275088310242,
-0.074681855738163,0.0009863192681223154,-0.005759422667324543,0.0136617636308074,-0.04898657277226448,0.0025002306792885065,0.005545483902096748,0.04950127378106117,
0.044513486325740814,-0.026037171483039856,-0.03453068435192108,-0.007160422392189503,0.02074326016008854,0.0018748249858617783,-0.017349470406770706,-0.001998819876462221,
-0.009184623137116432,-0.004851453006267548,-0.004902907181531191,-0.001579340430907905,0.030509579926729202,-0.006230940576642752,-0.03053792379796505,0.015216290950775146,
-0.00022373984393198043,0.007907885126769543,0.014479206874966621,-0.018236011266708374,-0.002973171416670084,0.023424355313181877,-0.01027335599064827,0.004881270229816437,
0.0014626102056354284,0.013507036492228508,0.02627214603126049,0.011331702582538128,-0.022872457280755043,-0.013498746789991856,0.05161726474761963,-0.03172949329018593,
0.005857896991074085,-0.006957191973924637,-0.03357914462685585,0.0030475431121885777,-0.021427489817142487,6.873484380776063e-06,-0.0015456787077710032,0.007052538450807333,
-0.03245026245713234,0.008112574927508831,0.006426584906876087,0.06555438041687012,0.0025436189025640488,0.013974339701235294,-0.0046969931572675705,0.006228624377399683,
-0.0035300764720886946,-0.006450335495173931,0.009645875543355942,0.006009035278111696,-0.0017568616895005107,0.00960429199039936,-0.08978193998336792,-0.033951569348573685,
-0.019786518067121506,-0.02704274095594883,-0.00922455545514822,0.11955001205205917,0.031008563935756683,-0.00485583720728755,0.010012836195528507,0.04300980642437935,
0.0047609698958694935,-0.058610424399375916,-0.020140226930379868,-0.02127652056515217,-0.010151940397918224,0.007777005434036255,0.003947094548493624,0.014277404174208641,
-0.027510466054081917,-0.0025409760419279337,0.016016632318496704,0.00012407262693159282,-0.0024135743733495474,0.010368479415774345,-0.00362959667108953,0.023636184632778168,
0.019481297582387924,0.036790356040000916,0.013959985226392746,0.018941545858979225,0.03911714628338814,0.030931193381547928,-0.0037656021304428577,0.010887783952057362,
-0.01657240092754364,0.029091594740748405,0.04570787400007248,0.0004323564062360674,-0.04685595631599426,0.02419889159500599,0.04986700415611267,0.04981168359518051,
-0.012493626214563847,-0.01230280939489603,0.04315744340419769,0.02169935405254364,-0.01777041144669056,-0.003714440856128931,-0.024404585361480713,0.020444832742214203,
0.03054020367562771,0.018865171819925308,-0.01442711241543293,-0.036531973630189896,0.0102557223290205,0.002588452072814107,0.03158898279070854,0.010003658942878246,
-0.029696188867092133,-0.014565512537956238,-0.024141250178217888,0.018437692895531654,0.004511568695306778,0.01680987887084484,-0.008426240645349026,-0.006355618592351675,
-0.031662654131650925,-0.033540576696395874,-0.010660248808562756,-0.06747370213270187,0.0730983093380928,0.0010947765549644828,-0.00028944588848389685,-0.00780751695856452,
-0.038424305617809296,0.0015160568291321397,0.03379044309258461,-0.00023920147214084864,-0.020769337192177773,-0.025462232530117035,0.012036137282848358,0.002564795548096299,
-0.0330946147441864,0.001573767396621406,0.008124873042106628,0.013629334047436714,0.06672623753547668,-0.007104860153049231,-0.06469976902008057,-0.03876303508877754,
0.009709684178233147,0.04520706459879875,-0.0008027772419154644,0.007144789677113295,-0.028413202613592148,0.01349994819611311,0.008864477276802063,-0.0060931844636797905,
0.015897173434495926,0.016777200624346733,0.02396003156900406,0.016202591359615326,-0.04088589921593666,0.01294923946261406,0.00154833123087883,0.01659385859966278,
-0.002881505759432912,-0.004312369041144848,-0.027714133262634277,0.0017599877901375294,-0.03905656188726425,0.029368404299020767,-0.007315615192055702,0.0023466586135327816,
-0.005535491276532412,-0.01096698734909296,0.014155053533613682,0.06053769588470459,0.004560383036732674,0.0016813455149531364,-0.0013268656330183148,0.001958919921889901,
-0.015067251399159431,7.716073741903529e-05,-0.03244077041745186,0.012706558220088482,0.013733068481087685,0.006187275983393192,0.048971738666296005,0.028191570192575455,
-0.05191915109753609,-0.021110225468873978,0.005267749074846506,-0.015180275775492191,0.10714957863092422,0.0034119875635951757,-0.0018588114762678742,0.030541958287358284,
-0.01287247333675623,0.010393251664936543,0.000608398113399744,0.0019351111259311438,-0.020769862458109856,-0.03858131170272827,-0.018825596198439598,0.0022786741610616446,
0.029377860948443413,0.0050471811555325985,-0.003872658358886838,-0.020542621612548828,-0.028736410662531853,0.009553002193570137,0.0347837470471859,-0.08118537068367004,
0.015993991866707802,-0.005100070498883724,-0.015117637813091278,-0.044204775243997574,0.0081877326592803,0.00447066267952323,0.0025141946971416473,0.00041398938628844917,
0.007140951696783304,0.008148969151079655,0.023709721863269806,-0.010172048583626747,0.02746606431901455,-0.020230600610375404,-0.04313839599490166,-0.03324523940682411,
0.013235017657279968,-0.014192815870046616,0.004478809889405966,0.009722668677568436,-0.03752845525741577,0.03897084295749664,-0.010057641193270683,-0.002513311104848981,
0.022535480558872223,-0.01219563465565443,0.0006136581068858504,-0.03604048863053322,0.009058195166289806,-0.007565747946500778,0.006761002354323864,0.002532574813812971,
-0.0005112849175930023,0.0033447113819420338,-0.024126771837472916,-0.021420113742351532,-0.0006566037773154676,0.010607280768454075,-0.02692558988928795,0.011664464138448238,
-0.09614729881286621,0.013132301159203053,-0.001023380202241242,0.06733351945877075,-0.051364604383707047,0.004229678772389889,-0.003971373196691275,0.032717619091272354,
-0.06668748706579208,-0.015907205641269684,-0.008464325219392776,-0.0019856186117976904,-0.07292094081640244,-0.016641121357679367,0.02469668909907341,0.006212486419826746,
0.053043048828840256,-0.0024928415659815073,-0.007840610109269619,-0.019180916249752045,-0.054423242807388306,-0.0061108944937586784,-0.013196398504078388,0.015210992656648159,
-0.02327452041208744,-0.026542961597442627,0.007243331987410784,0.02895796298980713,-0.008828941732645035,0.011227569542825222,-0.0017914753407239914,0.008798468858003616,
0.006398155819624662,-0.0339839868247509,0.021757321432232857,0.008098038844764233,-0.006971262861043215,0.02664434351027012,-0.019457342103123665,-0.014742142520844936,
0.014542045071721077,-0.006407146342098713,-0.018777787685394287,0.002017194638028741,-0.014545145444571972,0.053830280900001526,-0.0013229232281446457,-0.010130600072443485,
-0.0026194967795163393,-0.009970132261514664,-0.0058762626722455025,0.015007048845291138,0.013257994316518307,-0.004960105288773775,-0.003869730979204178,-0.0005787729169242084,
0.0017266913782805204,0.011109690181910992,-0.05135614052414894,-0.006340577732771635,-0.022907717153429985,0.023398898541927338,0.03272862732410431,0.017982402816414833,
-0.12988263368606567,-0.024997564032673836,0.35761716961860657,-0.20761574804782867,-0.22032015025615692,0.005393942818045616,-0.013532550074160099,-0.04383055865764618,
-0.004283473826944828,-0.2649780511856079,0.0320834144949913,0.28106823563575745,0.5970198512077332,-0.2172362208366394,0.11243191361427307,-0.02563716471195221,
0.024723593145608902,-0.003173289354890585,0.09188102930784225,0.10892654955387115,-0.1317848265171051,0.02917146123945713,0.20776160061359406,-0.2397644966840744,
-0.08309689909219742,0.19236302375793457,-0.02563468925654888,0.2895204424858093,0.3675038814544678,0.24302303791046143,0.006376176606863737,-0.026578648015856743,
-0.3120383322238922,-0.13947176933288574,-0.37196436524391174,0.01618216559290886,0.2155257910490036,0.19570870697498322,0.12169856578111649,0.0076862480491399765,
0.16112276911735535,-0.3066559135913849,-0.0463627353310585,0.08731324970722198,-0.16148383915424347,0.2719612717628479,0.005063085816800594,0.28284791111946106,
0.09471453726291656,0.009468364529311657,-0.08080880343914032,0.1608991026878357,-0.17168685793876648,-0.07199979573488235,0.24612641334533691,0.32507044076919556,
0.08567113429307938,0.0484805703163147,-0.10257067531347275,-0.036593399941921234,-0.006530992686748505,-0.02050929144024849,0.18115796148777008,-0.14887848496437073,
0.11579354107379913,0.014703118242323399,-0.024356050416827202,0.08834684640169144,-0.07461098581552505,0.007375888526439667,0.01285246666520834,-0.09238435328006744,
-0.05874994024634361,-0.010607642121613026,-0.06948763132095337,0.018803739920258522,-0.02886785939335823,0.015562022104859352,0.02617798000574112,-0.0059265438467264175,
0.1245272234082222,-0.0044637578539550304,-0.04833125323057175,0.02665947563946247,-0.00498195132240653,-0.05552563816308975,-0.2057047039270401,-0.122149258852005,
-0.0018083396134898067,0.0009229489369317889,0.006078872364014387,0.030809829011559486,-0.024605754762887955,-0.09531289339065552,-0.061945587396621704,0.014177422970533371,
-0.03727071359753609,0.1340733915567398,0.024037200957536697,-0.0941402018070221,0.08799218386411667,-0.0029062952380627394,0.0080268494784832,-0.007126000709831715,
-0.016227679327130318,-0.02789226733148098,-0.12196386605501175,-0.13914534449577332,-0.13371554017066956,-0.0015092265093699098,-0.021208273246884346,0.10713125765323639,
0.10320234298706055,0.02143152244389057,0.029191799461841583,-0.06328935921192169,-0.013525697402656078,0.016826851293444633,0.10060513764619827,0.04296758770942688,
0.09789244830608368,-0.00812450423836708,-0.03312951698899269,-0.06033102422952652,0.04373590275645256,0.03438640758395195,-0.07244444638490677,0.022103168070316315
};


#endif /* USE_WEIGHTS_FILE */

#ifndef USE_WEIGHTS_FILE

#define WEIGHTS_enc_dense1_bias_DEFINED
#define WEIGHTS_enc_dense1_bias_TYPE WEIGHT_TYPE_float
static const float enc_dense1_bias[64] = {
-0.006853403523564339,-0.05960375443100929,-0.11066694557666779,0.010920748114585876,-0.018937988206744194,-0.30400753021240234,0.039006561040878296,0.027233151718974113,
-0.03985209763050079,-0.20062994956970215,0.05995381996035576,-0.3417477607727051,-0.03271928057074547,-0.0438249446451664,0.028833670541644096,-0.3610338568687439,
-0.050666775554418564,-0.22455526888370514,0.14544269442558289,-0.003105554962530732,0.0618470199406147,0.11154743283987045,-0.07184381037950516,-0.020001353695988655,
-0.04110532999038696,0.016429822891950607,0.011251960881054401,-0.020200762897729874,-0.013902515172958374,-0.06241475045681,0.274068146944046,-0.2548379600048065,
0.18218429386615753,0.05214725807309151,-0.206487774848938,0.2924529016017914,0.08660661429166794,0.01957651786506176,0.053513769060373306,-0.04574676975607872,
0.16760948300361633,-0.017531145364046097,0.07157760858535767,0.053445395082235336,-0.0008920511463657022,0.02485433593392372,-0.11586947739124298,0.037308961153030396,
-0.025665365159511566,-0.1113438680768013,-0.15871094167232513,-0.09375368058681488,0.06953025609254837,0.17570336163043976,0.02711847797036171,0.07869116961956024,
0.13579286634922028,0.00870626699179411,0.03723784536123276,-0.1731230616569519,0.02367278002202511,0.046277545392513275,0.002595479367300868,-0.00645731994882226
};


#endif /* USE_WEIGHTS_FILE */

#ifndef USE_WEIGHTS_FILE

#define WEIGHTS_enc_zdense_weights_int8_DEFINED
#define WEIGHTS_enc_zdense_weights_int8_TYPE WEIGHT_TYPE_int8
static const opus_int8 enc_zdense_weights_int8[17408] = {
5,-8,3,14,-2,2,-2,-1,
10,27,73,16,-18,23,-1,18,
9,-5,-1,-5,0,-12,2,3,
60,11,-15,-15,2,17,-18,-2,
-4,-7,-6,-5,2,2,-1,3,
4,6,1,6,10,1,1,-5,
12,-2,2,-4,1,-3,1,-15,
-10,-2,-1,-13,-17,8,9,-6,
25,-3,1,1,-1,0,-1,-1,
15,-54,37,67,10,-2,-4,-2,
-21,4,3,7,0,5,-1,-3,
-10,4,10,-9,23,5,-15,6,
10,-11,19,1,0,0,1,1,
-45,-57,16,-17,39,10,-6,4,
-7,1,5,2,6,-3,-8,-5,
-11,1,-1,8,-24,-11,-5,-26,
-10,4,-5,0,0,0,-1,-3,
12,-14,-11,18,-20,-5,-7,1,
-1,-1,9,-5,7,0,-4,5,
6,-19,-7,14,13,9,-7,-4,
-7,3,5,-7,-3,5,1,-1,
11,-12,-28,18,2,20,-28,1,
1,-6,-10,-10,-2,-4,14,12,
-23,42,14,11,4,-5,3,-7,
1,-13,-4,-22,-4,0,-1,1,
41,-40,3,-40,-17,23,6,-2,
-7,-9,0,6,5,-13,1,1,
-48,17,13,24,5,10,6,-25,
-4,0,-4,-2,1,0,-1,0,
-52,66,-12,-9,0,-8,-4,-8,
-3,-1,-6,3,-2,1,6,-2,
6,24,18,-5,-12,-4,3,-12,
-1,-9,8,-6,-2,2,-2,0,
-65,22,-81,28,1,-2,-2,-5,
-5,9,5,-3,-4,4,-3,5,
-1,1,23,20,5,7,8,-3,
20,-27,15,-10,-5,0,-3,-1,
-5,-23,-3,-9,-4,-14,4,-3,
1,5,-8,11,-6,17,-7,2,
2,-8,-25,-13,-1,-8,15,10,
-7,-8,3,21,-1,-2,-3,-4,
-3,-52,7,-27,-8,-17,3,-6,
0,0,6,-1,-3,5,9,0,
3,-12,8,-44,0,-1,8,-29,
-14,19,-1,-3,3,-6,2,1,
14,-15,-12,50,-8,-17,8,-2,
5,14,-3,0,0,-9,-5,-4,
13,-2,-2,8,7,7,-6,10,
11,9,-3,-39,0,1,2,-3,
-2,-7,16,-20,14,0,-4,2,
-2,0,1,3,9,-6,0,5,
-7,-14,-1,-17,10,20,8,-7,
-2,-2,-13,-2,0,0,2,2,
-78,11,-9,42,-6,11,-23,-16,
4,3,10,2,-3,-6,8,5,
-25,2,5,5,-13,-18,-4,1,
2,3,2,12,0,1,-4,2,
53,21,11,5,-2,3,11,-4,
1,0,17,-4,-7,1,0,2,
13,-11,4,16,-15,-10,-3,6,
-28,-2,2,9,0,-3,3,-3,
18,3,-11,52,-8,-14,1,11,
16,-5,-4,9,3,11,3,16,
-6,43,-1,14,6,-18,21,-15,
13,0,-4,33,2,4,-1,2,
-10,10,57,-5,-2,-4,-1,6,
-1,-10,-1,3,-3,23,1,4,
11,-2,-7,-11,5,-44,-7,4,
-3,-4,-3,-7,0,0,1,2,
-13,0,4,-8,3,14,-2,6,
-2,4,0,0,-2,-8,0,-2,
-12,-7,15,4,-3,-6,-1,5,
-19,12,-1,38,8,6,-1,-5,
7,-27,99,-28,9,4,-4,-12,
17,-7,-4,6,7,6,1,-6,
19,22,18,10,-17,5,4,13,
1,29,6,1,2,3,-1,1,
29,5,-3,59,-44,10,5,3,
19,-10,2,1,-2,-3,-2,-1,
28,55,-2,10,30,18,4,-7,
7,-7,8,-20,-3,-3,2,1,
87,-19,-9,24,-4,22,10,-7,
-4,-22,-5,6,7,8,2,2,
11,-15,2,31,-3,18,1,2,
5,7,3,16,2,9,1,-5,
4,-3,0,17,-12,-2,-1,36,
-8,-2,1,11,3,-3,4,1,
-18,22,-17,20,-4,15,-9,6,
-6,26,-35,-42,-5,0,3,-20,
-23,-88,-2,-3,-15,-6,-1,12,
-3,0,4,-5,19,2,-9,10,
-9,-6,17,-15,-16,34,-22,5,
20,-7,3,14,-9,1,-1,-5,
15,6,8,-29,7,-6,-8,-2,
0,2,-2,-4,-22,4,3,2,
34,-1,-6,7,-36,0,-8,-5,
-25,5,1,16,5,18,-18,-5,
-10,-3,-25,-14,28,7,9,20,
-5,3,2,-2,4,10,7,-17,
39,5,-13,8,38,-4,5,-21,
-10,-5,0,14,-8,-6,-4,-17,
7,-42,-10,19,14,8,-30,-5,
11,0,-26,7,12,-3,-18,-15,
-30,-6,-6,-19,22,-4,4,23,
3,-7,41,9,20,-31,47,34,
6,12,-13,-16,-27,-6,-35,-2,
-5,-30,-17,-39,4,-21,-13,5,
8,-82,1,26,-8,16,-4,18,
19,-25,-11,-21,8,6,-14,10,
34,-18,-19,12,9,-21,-12,33,
8,-5,-21,-22,38,6,37,2,
27,-11,36,27,35,30,8,-14,
-22,-3,-21,25,5,4,-4,-1,
11,11,13,-9,19,-21,-18,-7,
2,15,9,-7,2,15,-7,-3,
-45,-18,51,-2,11,21,9,-12,
-23,3,15,-26,-2,-21,-7,-11,
8,18,7,20,39,-30,3,-3,
8,11,10,-14,-11,0,7,-6,
-59,-30,-23,-1,30,13,-1,-4,
-33,-4,38,-47,-36,24,18,-23,
11,-11,29,0,12,-26,18,-6,
-12,25,-15,13,-5,-33,-15,9,
51,55,24,-20,-11,16,-16,-1,
10,15,30,-8,3,-13,-3,-6,
-17,5,12,-15,10,-3,-24,-10,
-8,23,11,-17,-5,-49,-10,-2,
-20,18,-2,-16,41,2,-7,5,
6,-3,-3,-7,17,34,13,35,
-2,-3,-48,6,1,-26,-5,10,
-2,4,1,-9,-14,6,-4,1,
15,11,13,-20,22,28,-2,-9,
5,-6,-18,-1,-5,-15,4,-2,
-2,-4,9,1,18,-6,18,8,
2,-1,-4,2,10,5,4,1,
-18,17,-1,0,-46,-39,-7,-6,
-13,-37,-12,-5,29,25,-42,-33,
-3,-15,-19,-12,11,-34,14,3,
-1,24,-7,-13,-15,21,13,3,
39,-6,44,3,-8,4,-2,6,
5,12,17,-28,-1,-4,-3,-1,
6,-2,-11,10,-4,16,-3,-10,
-18,10,-19,13,2,-6,19,-10,
-48,5,27,-24,-30,-17,-30,14,
7,-2,21,5,-2,16,-5,-2,
-50,16,13,51,12,-3,6,6,
11,-12,-5,-15,5,4,7,11,
-22,-13,-4,6,-5,7,-26,-29,
-28,17,0,-2,-2,-1,1,1,
-8,-16,17,-24,5,22,-7,26,
-3,14,55,-19,-11,6,6,-9,
2,15,5,-27,-16,-27,-13,31,
1,-15,2,-1,-41,-27,1,-12,
7,4,0,45,3,14,-4,5,
-11,-7,-2,-10,-17,4,4,-3,
5,54,6,6,7,23,10,3,
13,6,-4,17,5,6,-16,11,
7,11,-15,-3,-9,-24,12,11,
3,10,10,3,6,12,-14,17,
-21,-26,-30,-36,30,-21,-9,-31,
4,9,-5,-3,1,4,4,0,
98,8,-9,-10,2,111,-41,-25,
5,17,6,16,-2,14,1,0,
-13,71,19,1,3,-8,35,3,
-24,5,2,2,15,1,1,-4,
16,7,67,5,-52,10,-1,1,
-100,3,-3,-7,48,2,3,4,
-18,2,1,-26,-24,-2,-12,18,
-32,-1,-13,-3,-6,2,3,0,
34,-8,26,-59,5,6,-10,-6,
-5,127,11,-3,-13,18,2,3,
-17,-5,-39,21,-12,-21,-9,12,
-2,-3,-12,-62,2,0,-3,-6,
-4,-23,-35,-6,4,15,3,-6,
-1,20,-18,-4,6,-4,19,19,
-11,-65,7,-6,-3,2,-2,-14,
-8,-1,11,4,0,-1,2,0,
19,-22,-14,-101,-5,-3,14,-5,
2,5,6,1,-9,1,-1,-2,
14,-1,-16,21,10,-22,18,6,
-11,-6,7,-4,-4,0,-5,0,
14,9,-6,24,-7,-21,29,100,
5,-7,-15,-18,-5,-1,0,9,
40,7,42,66,-8,2,19,16,
-3,12,-6,17,-5,-3,-1,0,
-4,-16,-99,4,-10,-6,2,-1,
6,-2,1,-1,-7,-6,-4,0,
-40,2,-14,-11,7,-1,5,13,
45,2,9,0,2,1,2,-3,
-3,-8,11,1,6,2,5,-3,
16,1,-8,5,6,7,-9,-107,
-13,4,-12,13,23,21,-1,-50,
28,22,-22,-4,-30,7,-23,-13,
21,24,-2,56,10,5,-9,11,
5,7,-3,-16,-22,1,-2,3,
20,-13,29,-8,26,-9,13,19,
4,4,-8,-8,-1,-3,3,-5,
-74,56,45,42,1,4,-14,-4,
-10,6,-1,4,3,35,-7,-14,
10,-7,-19,14,26,4,-18,-16,
9,8,24,-13,0,2,1,2,
-21,10,-22,5,4,6,1,-8,
-5,-4,11,6,1,10,2,-19,
-20,-7,-31,-8,-6,-29,-7,-1,
-7,-14,17,-9,3,5,4,1,
3,6,8,14,-12,-14,-6,-1,
7,0,-2,-2,-3,11,-5,10,
6,-26,20,-16,3,2,-26,21,
47,1,5,16,-4,-9,1,-6,
-16,10,-2,0,4,-5,-6,-7,
-2,-9,-13,-7,-14,-24,14,2,
33,-4,33,2,-30,16,-17,16,
-3,10,-28,-12,-6,-6,4,6,
7,0,-6,-6,12,2,22,17,
-24,3,-9,-3,1,5,2,-4,
4,-6,-4,49,7,-34,29,-23,
-6,1,11,5,-20,-2,-4,9,
9,18,-7,-2,5,-21,5,5,
-6,2,-8,-3,-2,-9,-6,10,
22,35,40,-22,-9,12,20,-17,
-11,-21,8,15,1,-2,-2,1,
0,14,-5,35,-15,-7,5,0,
15,-5,0,-14,-24,8,23,-11,
-21,-10,-10,-5,-47,-17,-7,8,
-11,3,-6,11,-4,-1,1,1,
-16,-5,-37,-1,-7,14,9,-2,
4,-2,-12,-2,-9,-15,-7,-6,
19,31,17,-6,30,10,19,-14,
-3,3,-21,0,2,0,0,4,
13,-8,0,6,-13,-13,-5,-4,
0,9,-1,-3,-13,-15,7,-11,
4,-2,-1,11,-29,18,-10,-5,
-20,9,-22,-9,-3,-4,-3,3,
53,-7,-37,20,8,-7,-5,-20,
3,1,-6,-3,18,-7,24,-11,
-6,-31,-27,44,15,6,7,2,
8,7,-10,13,-5,1,-1,-1,
-4,-21,20,9,-3,4,9,-16,
4,-10,-5,-1,-5,0,36,-13,
-8,-1,22,29,3,28,8,37,
4,-11,-4,7,25,2,39,4,
-11,-16,26,32,-11,10,-5,-10,
-1,5,-4,3,1,8,1,16,
-23,12,-14,42,15,-6,4,1,
-1,-5,7,22,4,-3,1,-13,
-18,-41,13,-6,-5,-6,0,-8,
-8,2,-1,-4,-20,9,-18,13,
6,-34,-10,-19,-25,9,-14,8,
-6,9,5,4,0,0,-3,-1,
2,3,-7,11,5,-3,-1,-2,
3,-4,2,7,6,12,6,22,
20,17,23,29,34,-5,1,29,
10,34,-4,-6,6,-6,2,3,
30,-17,6,42,20,2,5,-21,
-7,2,-4,14,13,10,-8,5,
1,32,39,19,43,-10,-26,-19,
13,4,2,3,-4,3,1,4,
-25,8,34,13,-73,-8,-6,23,
4,0,3,-12,1,-5,-3,5,
24,0,-4,-26,-7,-8,8,-19,
3,14,23,-3,6,11,-2,7,
2,1,1,0,-17,-17,-11,67,
-3,10,0,-28,-11,-1,6,-4,
127,-19,26,-92,3,16,9,21,
2,6,-18,-3,2,-1,1,1,
9,8,0,2,-9,-4,-17,59,
0,3,-1,-15,4,-5,-1,9,
-15,0,7,54,11,0,7,-5,
9,-16,15,62,0,2,1,-3,
-5,8,0,-2,2,13,41,-9,
-7,6,-10,13,3,-2,0,26,
-2,76,-22,9,7,12,13,-40,
-15,8,11,10,-1,5,-2,3,
49,-1,-84,-4,-14,-1,2,4,
4,-13,-2,-6,-3,33,1,72,
-20,36,1,29,-18,-27,1,68,
-18,3,15,9,-6,3,-1,3,
0,-1,-5,6,20,-1,6,19,
6,9,5,-12,28,9,1,0,
-10,-92,10,53,-54,-3,-74,9,
-7,25,-7,5,1,2,-10,-2,
-5,1,-18,-7,3,-26,-23,1,
6,-44,0,4,2,-20,-1,0,
17,-11,-8,3,9,-11,12,1,
-3,15,-52,-12,1,1,5,-2,
-15,-2,0,21,16,7,21,-37,
-31,-3,1,0,6,-3,-29,-2,
-34,-6,5,86,10,-2,-23,26,
-15,19,4,-2,8,3,-3,19,
38,15,34,-19,7,19,-9,-7,
-12,3,-7,1,-3,-7,6,9,
0,-11,-8,9,-10,-62,-28,-25,
-10,5,-3,3,6,13,-8,7,
6,0,-4,-1,8,3,2,15,
-1,3,11,2,0,0,-7,11,
-19,19,-1,2,-7,34,-13,17,
4,-6,-2,26,0,0,0,-2,
105,10,52,34,-1,-1,-13,-6,
1,-1,6,-1,0,-5,-4,-5,
0,-1,15,-5,1,9,11,43,
-23,4,-24,-8,6,1,1,3,
-55,8,24,-49,-4,-8,5,9,
-3,-4,3,1,8,7,-4,4,
-19,27,-14,16,-11,-47,47,-19,
1,-32,-13,14,9,-5,-20,3,
35,-10,16,-7,7,1,6,-2,
-2,10,-2,8,-16,2,4,-9,
-1,6,3,-7,34,49,-40,27,
28,-2,13,33,-2,3,1,-1,
2,12,-19,31,-9,-2,7,2,
-9,4,-8,2,-9,-8,-10,-26,
-15,-18,-7,-11,16,9,-9,5,
1,-8,-8,-26,7,-5,-8,12,
10,28,-22,9,4,4,-3,-10,
0,6,-1,6,6,4,1,-6,
33,-5,-7,-4,21,4,-6,-16,
-9,-6,6,-11,-15,34,-25,1,
6,-4,-3,-2,-1,-4,-4,-5,
-2,-2,1,-10,-13,-1,-2,12,
-6,-13,-13,19,2,6,-16,22,
-3,0,1,2,-2,2,-6,16,
-68,38,-12,22,-10,-16,0,8,
-6,7,-7,0,-5,-9,19,5,
9,-16,21,9,28,-11,-1,7,
-20,-2,15,10,4,10,11,-2,
10,-9,6,2,1,5,12,7,
-2,4,1,-4,9,7,9,-4,
14,19,-13,16,0,-20,-2,-28,
4,-6,19,-2,24,-9,23,-58,
-3,3,-1,-2,7,3,-8,14,
-3,4,4,1,1,-13,-1,8,
6,-14,6,1,-25,20,46,43,
15,-19,-9,-14,-2,-3,4,-6,
-6,-6,5,1,2,2,-5,-11,
-4,10,7,-10,-1,-4,-17,7,
-17,-23,25,-4,15,-30,14,2,
1,-18,-6,-6,-6,-8,-7,4,
-9,-4,-3,-23,-2,-12,19,-2,
-5,-4,-8,-12,7,-4,5,18,
-1,1,0,-1,-24,-37,-40,24,
-7,-6,4,4,-2,1,0,0,
14,-8,4,0,9,5,-8,-3,
-1,1,-8,5,0,-3,-18,-13,
-7,-6,21,-4,-43,7,-12,0,
0,-1,15,9,-1,-18,1,5,
-3,6,-26,-22,5,-4,13,-9,
1,-14,9,-1,6,3,-11,6,
13,-4,11,-12,20,21,-23,-6,
-21,19,-3,17,-5,-2,1,-1,
-5,-9,2,7,-6,4,-1,7,
-5,11,2,2,1,0,-5,6,
-1,-8,7,-15,11,-10,-4,-8,
-4,-10,7,-1,1,1,3,3,
65,3,4,3,3,-16,15,11,
2,-14,13,-3,-2,5,-3,2,
4,6,-29,4,-10,-64,38,12,
-10,-53,-10,4,3,0,0,-1,
-7,4,5,31,4,-4,-7,-3,
3,-14,0,0,0,14,-6,0,
-20,-7,-9,6,-13,53,-7,17,
-127,2,-1,19,0,1,-7,4,
3,1,3,-5,-5,-8,-2,-7,
-2,7,1,0,10,-5,-3,-11,
7,9,-11,4,4,-51,5,55,
23,4,3,27,-1,-2,12,-2,
10,-3,-17,-16,18,-9,9,6,
2,1,-14,5,-10,-14,10,13,
27,11,20,-42,26,5,-31,63,
-18,-17,-12,10,1,-5,-1,0,
5,-22,-2,-3,-29,-7,-6,3,
-13,-15,-6,-3,-2,-14,-8,1,
-6,-1,-24,8,57,-46,1,-4,
-15,2,-15,-10,-1,2,0,-1,
4,0,2,1,7,6,-2,2,
-4,2,-22,1,-7,2,35,0,
5,14,4,1,-41,4,-14,-11,
0,0,3,-8,1,0,0,-2,
8,-91,-2,-7,-3,-1,-5,2,
-10,0,-14,1,-4,-2,-9,0,
15,12,-1,3,-2,0,7,2,
2,24,13,15,-9,0,8,6,
1,1,-4,-3,4,-4,-5,-4,
0,-5,-6,4,8,43,4,-1,
-7,-2,5,-12,-27,5,-14,17,
-2,-23,-4,10,2,2,0,0,
-9,-30,51,-8,1,4,-1,-7,
-2,-10,-4,-8,-2,3,-9,11,
-3,-18,-4,2,1,-40,21,-13,
-30,32,-6,-8,-33,48,48,-50,
5,-6,70,-34,-6,-2,17,-8,
-14,2,0,9,9,0,-12,5,
0,-7,-6,2,28,23,26,61,
10,-1,-4,5,-9,-4,0,16,
81,0,-9,64,7,-2,1,4,
-3,6,-10,4,-5,-4,-3,-7,
-9,-9,-22,-8,0,3,-1,10,
4,-28,-18,7,0,0,-1,-3,
22,21,-29,26,-6,0,-16,-1,
9,-17,6,4,13,3,17,-6,
-20,-10,-6,-1,12,-17,-17,2,
11,2,-15,-6,0,0,-2,2,
-4,3,-1,5,8,-1,5,-7,
-3,4,2,5,1,-6,18,3,
-9,-16,17,-25,18,-19,9,-15,
-19,-3,-15,-9,54,31,-6,25,
-5,13,6,37,5,8,-4,-2,
-2,5,-6,-4,7,-6,5,-2,
13,24,-7,11,45,-2,-19,23,
2,-5,-9,18,-23,20,3,6,
46,13,53,73,-5,-8,-23,-15,
2,9,2,4,28,12,4,8,
-18,-14,-3,6,-10,6,27,-36,
-14,-19,8,-14,-36,22,29,-42,
0,-9,-2,-30,1,-6,10,11,
7,2,-7,-5,-13,15,0,-11,
-4,-15,-2,-36,29,22,55,-4,
1,-4,-3,22,-8,-4,31,3,
6,10,2,23,2,1,2,-3,
-1,-1,2,9,10,13,12,9,
-8,-2,-5,-11,45,12,9,-8,
-7,-28,0,-1,-3,14,5,-7,
-8,14,-24,24,5,10,13,1,
-15,-5,3,-8,-11,3,7,-3,
28,-10,4,5,23,-28,20,8,
22,-20,2,-10,0,1,-1,0,
31,-21,12,13,-6,-10,2,-15,
0,-9,-2,4,3,-7,-1,4,
44,12,-2,26,16,-13,-45,13,
-1,-9,-6,-22,38,25,1,18,
-13,-35,-6,6,2,2,15,-5,
3,-6,0,5,-6,11,-8,3,
-16,-15,19,9,14,7,-7,-41,
-6,2,-11,-21,-22,5,56,40,
18,6,-17,16,-11,-12,-7,-10,
4,-9,7,0,-3,10,-5,19,
-24,21,7,-14,10,12,51,-2,
-14,7,28,16,4,-50,-24,-47,
-27,-14,-46,16,-12,0,8,-2,
15,-1,-3,4,12,-4,9,20,
16,6,-25,-13,-33,-42,-8,35,
14,15,-5,-30,41,-8,-46,-34,
-10,5,-4,12,3,-3,21,-22,
3,-3,1,3,-13,-20,6,-5,
16,2,31,-16,22,10,-7,-20,
14,10,-8,19,2,26,29,58,
-5,-43,20,-33,-2,-2,3,-2,
9,6,-14,1,13,-21,-2,9,
-7,-1,-9,-7,-32,15,-32,-58,
11,-31,-17,3,2,-3,2,-1,
-93,0,-2,90,3,-3,26,4,
-1,3,-2,2,4,-14,4,3,
3,13,20,-10,-1,-42,26,14,
-6,26,11,15,1,0,3,1,
-10,-1,-15,-6,6,-6,10,-10,
1,-1,-3,3,0,-11,-119,-10,
-5,6,2,7,3,-26,-12,-9,
4,7,0,-5,-127,-1,-1,0,
-3,-25,-7,0,0,1,3,5,
5,1,-4,7,1,7,8,-1,
-5,-19,2,41,-1,6,-1,-6,
-30,-13,-12,-1,-1,0,1,1,
-9,4,-1,-20,3,0,7,-1,
-4,4,3,-4,9,2,36,-2,
7,0,29,5,-114,7,-23,-2,
22,-29,-29,-3,-3,0,-1,1,
4,8,-10,-119,-6,-6,4,2,
0,-7,3,-2,-15,5,-31,5,
-7,9,7,-6,17,112,-16,0,
25,0,2,-1,-3,-1,3,1,
2,17,68,-38,0,-7,-2,0,
9,-1,2,4,52,-15,8,-4,
5,13,-5,18,8,21,8,-4,
-26,-5,-31,-1,0,-5,-2,2,
-4,7,7,19,-11,-5,2,-1,
-12,9,-1,4,-11,-23,4,5,
3,-15,-4,2,29,0,-91,2,
-2,1,-23,39,-2,0,-8,3,
40,42,-13,-9,-7,2,-13,7,
-7,3,3,2,-12,3,-7,5,
-10,-5,3,7,6,-3,-11,-49,
0,-31,8,32,0,0,-1,2,
0,-7,0,1,-2,6,0,-7,
3,3,4,8,-4,-14,2,4,
2,-28,-21,1,-26,-21,10,7,
29,25,16,2,-1,0,0,0,
-1,-1,0,9,3,-8,-26,4,
-3,-13,-27,-6,13,-11,4,-12,
-2,25,11,13,6,-5,7,-10,
-12,2,28,7,1,0,0,-1,
3,-4,1,-8,8,-8,0,2,
-11,-6,1,-3,11,21,-7,-3,
-4,-9,25,1,-14,2,1,-13,
0,-8,22,-14,2,1,-1,0,
8,2,0,1,2,-8,2,5,
4,-5,-3,-4,-10,-8,4,-5,
-5,9,4,-16,-6,7,-1,-5,
-7,-1,7,5,0,2,0,0,
0,23,-3,-2,12,-2,-11,-2,
2,10,-2,-1,-3,0,-1,-2,
8,8,-31,-4,-4,8,9,3,
19,5,16,-10,0,1,-1,0,
0,4,0,-1,1,-9,-7,0,
-6,4,0,-3,-3,-3,13,-7,
-10,-21,1,6,9,-7,3,-4,
36,3,4,-6,1,0,0,-1,
0,-20,68,0,14,-15,2,-15,
-14,-12,2,13,9,-14,-1,10,
-38,-4,-7,3,-10,28,-4,-14,
4,-4,0,25,-1,-1,0,1,
0,3,0,-14,15,11,1,-7,
4,-11,0,-6,8,0,0,-10,
15,-34,-1,4,24,11,-24,-43,
8,-5,-5,20,0,0,0,0,
2,-5,0,-2,-2,7,8,2,
3,-3,-10,2,0,3,-20,27,
9,0,-8,16,-20,0,12,-1,
9,14,11,-22,0,0,0,0,
-1,-4,2,1,3,-1,-2,-9,
-6,-2,-5,-9,-3,-21,-11,3,
1,-11,-12,1,-8,1,20,-2,
-15,0,-14,-2,0,0,0,-1,
0,-4,0,55,-5,-24,-3,-8,
11,1,2,-1,-2,7,22,6,
1,-25,1,16,7,-15,14,6,
5,-3,-1,-25,0,1,0,0,
12,-50,0,-1,-7,3,1,-15,
-5,5,-3,4,-21,3,-3,-4,
12,-3,-7,15,0,6,-7,-1,
20,1,14,3,0,0,0,0,
4,0,-24,-3,6,-1,10,1,
3,2,6,-18,-5,1,-1,-4,
-5,1,39,0,-6,1,-8,22,
-3,-1,0,10,-2,-1,0,-1,
4,1,10,-1,-6,7,-1,-3,
-2,14,0,5,-14,10,0,-17,
11,-5,0,-4,-14,6,0,8,
-7,-29,0,15,1,-1,-1,0,
-5,6,-3,10,19,3,-11,14,
19,-19,-10,6,1,0,-11,-8,
5,8,-4,-36,8,-12,12,-5,
8,-8,-22,-7,-1,0,1,0,
-5,1,-4,-1,-2,4,11,7,
1,-12,2,-11,-6,6,-8,-8,
-1,-8,-9,-11,1,-15,16,11,
3,-1,19,-9,2,-13,-17,0,
8,0,-1,8,1,9,10,3,
-3,-9,1,13,2,-21,13,-9,
18,-18,0,-1,39,-2,-10,3,
39,-8,-21,-5,-6,49,-12,-11,
8,-1,3,-14,4,4,6,7,
-4,7,2,-6,0,-5,3,15,
-5,5,-5,6,14,-2,-3,-10,
33,-4,-10,-11,1,14,30,9,
6,0,-8,6,-1,9,-3,-1,
-9,-5,-1,-2,1,-12,-18,8,
7,-11,-10,7,25,1,-16,8,
-25,5,-2,4,10,19,-34,-26,
21,2,-16,-19,0,-5,-4,-1,
-11,4,1,0,-2,0,-24,2,
3,3,4,21,10,-15,-13,14,
2,7,6,-26,30,-29,-14,-18,
21,3,14,15,-8,-17,-5,-4,
1,-1,1,-2,12,2,3,-24,
3,-10,-4,-9,17,-3,7,7,
7,4,-23,1,-3,-6,-11,-1,
-6,9,-2,2,9,4,25,-3,
1,-10,1,-9,9,-1,7,-15,
-4,14,-3,10,0,18,38,-19,
-56,-1,12,-24,-7,20,-20,-4,
1,19,-7,-8,-8,-10,1,27,
2,-10,-4,-5,-7,-15,11,-3,
6,-6,3,-11,-3,4,-1,-40,
28,20,-3,-15,-20,14,-2,9,
-7,-3,13,-9,-29,-2,-2,-1,
-7,0,6,3,2,-12,-31,-12,
-3,-4,19,1,7,-2,7,12,
-18,-30,1,1,0,-8,10,-13,
7,-8,8,-7,4,-4,4,-4,
1,-8,-1,4,22,15,19,-20,
4,25,-9,-2,-11,35,3,-4,
-3,86,-85,-18,-19,4,6,10,
-10,22,-1,4,12,0,3,8,
6,1,6,0,8,-7,23,19,
11,-12,5,7,-9,-35,-17,5,
11,-35,-2,-24,-31,12,-2,-27,
4,-9,-14,14,-1,9,-8,-4,
5,1,0,0,-9,-3,33,-11,
-6,5,4,-4,0,3,-6,8,
40,53,3,17,15,11,0,22,
-2,2,15,-8,1,-15,-3,-5,
4,1,-3,1,-10,24,33,27,
-2,11,-3,3,-20,0,-20,21,
25,-5,19,38,16,7,29,-17,
-2,-7,-1,1,-1,-10,13,-6,
3,-1,1,3,14,-5,4,18,
2,8,2,-8,1,-12,-9,19,
25,-7,-52,-29,1,-17,8,21,
18,11,12,3,5,-10,-14,3,
-3,-3,1,-5,-17,11,-10,18,
-1,1,5,-12,13,-6,-8,10,
-16,-6,-10,-9,-10,35,-11,38,
-14,-1,3,11,-15,-3,10,2,
1,-2,-10,0,21,17,8,-15,
10,5,13,-3,18,-1,-12,-2,
19,-36,-30,-17,-29,21,17,28,
-6,6,-15,4,-3,7,3,12,
4,0,1,6,6,-6,21,10,
-4,-5,6,3,-10,29,-32,-18,
39,-30,-24,32,-52,-34,16,7,
-4,6,-1,-1,-3,-6,1,-3,
-5,-4,0,5,-41,9,-20,-23,
4,-6,-8,-16,-3,-21,-7,12,
-2,3,-14,-21,-3,29,31,-97,
-4,-6,-1,-5,-8,0,-5,1,
-3,0,5,-2,12,14,14,-1,
-5,8,10,-6,1,-5,2,4,
15,11,39,-3,62,-26,-1,-20,
22,-24,11,-23,4,-6,-4,-21,
2,5,7,-6,34,53,-22,34,
14,13,5,10,-8,-14,-5,29,
-7,-3,-12,17,-9,-19,17,22,
-13,-23,0,1,2,-2,-1,6,
-2,20,0,-2,-8,23,-6,12,
-13,39,7,-1,9,-2,-1,-8,
60,-10,13,11,-19,16,-89,33,
-12,-36,0,8,2,-5,0,5,
-1,2,2,-2,-7,4,29,-3,
-8,-5,7,3,-9,5,3,-5,
-14,-31,20,3,51,27,-11,15,
14,-33,-9,2,-5,-1,1,-1,
-7,-10,5,3,-14,6,-13,27,
1,-10,15,1,1,10,-1,-4,
-7,-67,-11,6,-40,54,-20,-34,
6,1,6,4,29,-12,18,4,
2,-8,-12,6,-37,-6,29,-8,
6,-21,2,-25,23,30,-32,19,
-20,-41,-2,-64,-38,-73,2,2,
11,-9,4,12,3,-5,6,-1,
0,-2,3,2,55,26,-10,-33,
10,-2,2,-4,18,1,4,-13,
13,-38,-49,-12,-8,-6,16,22,
12,-9,9,3,15,2,9,-12,
24,9,-3,3,41,-14,-14,-9,
-1,-8,2,5,-19,-1,-6,37,
12,14,8,51,-49,4,14,-18,
-12,-12,-11,-10,-9,-10,4,-14,
-2,6,1,-5,-20,-3,-10,38,
-46,-2,13,14,21,10,6,-1,
-4,11,-4,16,-30,-17,-4,36,
-25,20,6,3,10,-8,8,-24,
-5,17,-7,14,-15,52,-22,10,
-12,-21,3,6,-11,20,15,14,
-27,6,-12,10,-49,-3,31,48,
17,-41,14,-16,16,-3,-6,-11,
7,9,-10,3,28,50,-1,-9,
-7,-1,30,4,13,-12,4,31,
57,31,-21,-1,-36,-18,1,14,
1,-4,-20,32,-6,6,16,6,
8,-1,-1,-13,9,-59,6,-33,
-5,-3,8,5,18,5,-26,17,
-37,-36,8,-1,23,-22,-67,40,
4,21,-8,-19,17,13,-12,-6,
6,-1,-3,2,2,-15,5,17,
-22,-12,12,3,32,20,1,-18,
-35,18,-2,-46,3,-8,16,47,
-23,-7,27,-11,5,-2,-9,5,
-4,9,1,-16,-12,17,-23,-5,
-42,38,20,6,34,0,21,-15,
-77,-52,-31,53,-55,-13,33,-22,
-28,-12,28,0,6,-17,-8,-16,
1,10,-2,4,19,31,3,8,
-9,10,-3,-19,-6,-8,-2,43,
13,1,-1,-20,-43,-13,-2,-8,
-8,-11,2,-7,2,14,-2,-10,
-4,4,-4,-1,-11,5,-5,9,
10,-9,-1,7,-7,13,1,-33,
-9,-2,36,-15,40,29,15,11,
-5,-1,1,0,6,13,-6,1,
-9,-4,5,-8,4,-39,34,-3,
-8,0,-7,-7,-20,-9,10,3,
51,31,-24,12,-35,-17,-32,-48,
-19,1,-36,-16,3,1,-6,-7,
6,-4,-6,-8,10,12,19,-37,
57,-4,5,16,-5,-1,-7,-43,
-8,9,0,-60,30,53,-2,1,
4,0,5,-7,-3,5,-12,11,
5,-8,-18,1,7,44,0,21,
25,17,20,-11,19,-11,30,16,
-9,28,-28,11,4,62,12,6,
-14,24,-33,9,15,3,-10,6,
-7,-6,-7,-13,-11,-12,-32,-5,
0,8,6,3,-28,18,-3,-13,
-74,62,-27,19,10,-6,14,-22,
21,10,10,13,0,0,3,-4,
-13,-8,-9,1,30,-34,47,9,
-17,0,1,6,4,-7,-16,-5,
-14,-1,-11,-18,-5,-1,3,-5,
16,5,1,-9,16,30,4,-10,
3,2,3,-10,0,7,1,-3,
-15,17,-8,14,-19,-32,-3,-15,
-44,86,5,1,-70,-17,-40,43,
14,10,11,11,-4,-13,-8,11,
-1,-4,-12,16,58,-44,-36,16,
-13,-18,7,0,6,-22,28,28,
-17,10,11,-17,2,-26,-28,-8,
2,8,1,1,9,-4,5,4,
2,-18,4,0,3,-5,-14,2,
18,-1,-37,-6,15,25,1,-4,
-25,16,-34,18,14,-5,13,35,
15,-12,-1,97,-38,2,0,-1,
9,3,4,19,6,4,-5,38,
6,-19,-4,68,-11,7,6,-16,
-8,-4,-4,-15,-19,12,-44,-4,
3,-12,-28,3,13,-5,-4,3,
-16,-11,-3,3,6,8,28,9,
6,9,11,-3,-22,21,-6,-2,
-31,-5,9,-18,23,-13,-40,-37,
2,-6,-12,-3,4,-7,-3,10,
-1,6,-11,4,0,13,-26,-30,
-17,43,-6,-1,-7,-22,-2,3,
4,-10,-23,11,-19,-12,-17,-23,
-31,-30,-11,1,1,-3,-1,3,
2,2,4,2,60,-48,31,-20,
7,2,-2,-17,-14,4,-13,0,
30,-29,-30,12,-3,-24,0,2,
15,10,-6,22,3,0,-7,-12,
-15,2,11,-2,27,-7,4,-15,
16,-3,34,-6,3,-2,-29,4,
43,11,0,-21,39,-1,-12,-13,
40,4,-5,19,-11,-19,-4,-1,
-1,-6,-1,-3,28,99,-4,7,
-18,8,0,17,-9,-9,-16,-3,
18,-11,9,-38,-6,-83,-36,14,
-25,-15,28,0,1,2,-8,1,
9,2,-18,-12,-3,-17,-12,-1,
-10,-2,-10,3,-10,-4,-13,-29,
-21,2,-29,-30,16,-10,4,21,
4,-46,-6,-18,-1,14,10,-18,
-8,-11,2,11,8,-33,-14,1,
-29,-69,-17,32,5,-19,4,-7,
-26,-1,9,-19,-46,73,-37,-20,
-9,-19,-31,16,15,9,9,4,
-14,9,8,21,36,6,17,22,
18,-36,26,-2,-3,5,6,10,
-7,-11,16,-15,47,5,2,34,
-32,-56,15,-13,-1,-6,-5,-5,
8,4,22,7,-36,-43,-28,-17,
-15,-8,36,-9,-12,7,5,-2,
-18,-6,-5,-36,11,15,-2,-32,
14,6,-13,-15,-18,5,13,3,
-6,17,9,0,-15,-26,35,14,
-39,25,17,-8,-19,-7,-7,-2,
0,-21,4,-4,-10,-15,-52,-30,
23,0,4,18,-5,0,11,-6,
16,9,7,0,-44,9,4,38,
17,-37,-35,2,-9,1,11,-15,
16,27,-5,-18,-76,35,-19,-33,
-13,11,-1,36,0,2,14,6,
6,5,23,-4,-19,-12,24,-28,
4,41,-6,3,-12,10,-1,4,
-28,-11,-11,-6,48,30,-37,46,
12,-7,-1,47,16,-29,23,-10,
6,-6,-13,11,5,57,29,26,
26,-13,54,-26,-32,11,-4,1,
41,-4,8,-12,10,-6,8,8,
14,-1,33,-14,-1,8,3,4,
-14,-9,4,-14,-30,18,-12,-18,
8,10,-36,-7,-31,-28,4,13,
-41,26,-4,-20,45,-7,18,-17,
-25,-27,11,13,-1,7,-8,5,
-3,-4,9,-4,30,-7,-16,55,
-23,-2,9,-17,-14,13,-11,-15,
36,-25,0,12,-26,96,-36,38,
-2,2,-13,-5,2,5,0,-15,
10,0,6,-2,-29,-41,46,8,
-1,44,47,0,-4,-19,8,1,
-16,2,-10,-13,2,12,45,44,
15,-16,-27,-16,3,8,-9,9,
-4,9,8,11,33,10,20,9,
-22,-26,19,3,-9,9,0,9,
15,32,12,12,-24,11,-13,-29,
28,21,-25,-32,7,0,-5,5,
4,1,10,15,-25,3,-1,46,
4,-12,9,30,-6,0,-19,11,
37,-39,31,8,-18,75,53,-46,
10,20,0,5,17,8,-9,9,
-20,19,-6,2,35,10,-30,-35,
-11,1,62,0,11,-7,-7,3,
-12,1,-17,-14,16,-14,-29,-1,
3,-7,-9,-26,-26,-1,0,-1,
-3,14,-12,-2,16,-44,3,29,
-26,-17,24,-6,8,-13,-35,15,
24,28,33,7,-35,35,75,6,
16,-13,4,41,-7,5,-3,2,
-5,-9,-4,10,15,31,-17,-4,
4,-5,-10,-17,-19,-9,14,-2,
23,4,5,-34,7,-9,-2,-6,
-5,-28,-26,49,3,13,-13,-1,
19,13,-9,-10,17,-27,-4,-14,
18,34,-14,6,4,2,-9,8,
28,-5,-10,0,-16,20,-14,94,
10,-4,3,15,-3,-2,0,3,
-10,4,4,6,-14,20,7,17,
1,-3,5,-37,31,9,3,19,
12,2,-45,12,34,4,29,1,
4,-22,19,10,1,5,-14,1,
-18,-3,-11,-8,6,0,-23,-7,
17,4,-30,28,25,5,6,-4,
-7,-7,12,20,68,9,15,3,
6,-3,-15,26,-7,2,8,3,
3,-1,1,9,-17,-8,-8,-23,
2,0,12,-4,-11,0,2,-3,
11,4,30,15,22,-72,-56,-14,
-1,-29,24,2,8,8,-12,-22,
4,-6,-22,7,7,-1,18,-28,
46,60,12,25,1,2,7,-51,
-10,-2,2,-9,-8,-58,-17,13,
1,39,-3,4,1,-21,2,51,
4,-15,2,6,3,55,2,81,
5,-16,-11,8,7,-10,9,-2,
1,4,0,-45,-32,-3,44,55,
20,-37,-42,68,-12,0,-4,-4,
4,-2,-27,13,-24,-21,20,19,
11,23,21,-94,42,-25,0,8,
-36,9,11,8,-35,1,44,26,
3,12,-1,2,2,15,2,0,
-3,-9,19,-2,-3,14,-21,4,
10,0,6,-16,-6,87,-1,-3,
-30,5,-15,-52,-15,11,32,-43,
-47,11,14,11,-6,-4,-14,12,
1,-2,-14,0,20,-36,-56,-37,
-5,32,6,18,-2,-3,8,18,
-12,7,-34,4,-15,12,-1,-32,
21,-25,1,0,-4,0,6,-2,
10,20,-15,9,-30,21,-37,-1,
5,4,2,0,-12,-5,7,-8,
-2,21,32,-1,-31,60,62,-62,
23,-10,-19,-5,18,4,0,-8,
15,15,-4,-9,-25,13,17,3,
-1,-4,-4,26,-7,-17,12,14,
1,18,0,20,3,-11,-7,-26,
-3,-18,1,-11,0,-1,12,-2,
3,-4,-26,-7,-4,52,18,6,
-3,1,-4,-26,-4,-3,18,1,
18,-3,16,-2,-23,-10,-57,-60,
-15,-23,-34,17,2,1,6,-2,
3,15,-9,5,4,-25,35,10,
23,8,7,4,3,4,-7,-3,
25,15,17,-14,-3,60,-28,27,
12,3,2,-45,-6,0,3,2,
-20,-36,27,27,-39,-4,26,-44,
7,35,-5,6,-25,9,11,-9,
-5,15,-26,-3,33,3,79,50,
24,8,-1,0,1,4,5,6,
-13,-9,-5,-11,-3,14,25,18,
28,8,-11,16,8,5,-1,0,
30,-6,13,2,46,-3,-79,-37,
3,-17,14,7,6,3,-3,0,
6,-18,21,-17,-50,9,-17,-12,
22,14,-6,-21,5,-1,-5,15,
0,-6,-9,-6,-3,50,27,-41,
2,-16,-26,13,-32,-9,-17,-6,
6,-22,4,-23,-3,-6,-7,0,
36,-4,-19,-23,5,14,-8,-36,
13,4,-33,-14,24,-14,30,62,
-31,7,-12,24,4,1,-1,-5,
-21,17,-8,13,43,12,1,-36,
28,-21,-14,4,-3,1,-1,30,
8,11,29,-15,-19,6,-6,79,
15,9,9,-21,0,10,2,1,
-16,7,0,-8,7,-29,-4,10,
-3,-2,19,-2,-14,-4,20,-2,
11,7,-4,5,92,-32,29,8,
9,-7,-38,24,-9,12,3,-7,
-15,-3,-1,4,-26,8,-2,-8,
-18,-10,-9,-26,-25,-34,11,-21,
8,6,-5,-10,-49,-47,27,23,
2,-1,-19,-40,-7,-9,8,-6,
0,0,15,-17,13,-3,11,18,
-20,4,-14,16,-17,-8,23,10,
36,-4,-36,-5,84,38,32,42,
-2,-6,10,11,-7,-2,-6,-4,
-11,-6,-8,0,39,20,14,-16,
-1,-2,-12,-24,2,12,-21,-4,
12,0,10,-13,-29,7,12,18,
8,17,53,-13,7,-4,3,-1,
2,9,-12,4,32,-48,-17,-51,
-5,7,6,0,-23,-7,11,11,
10,-15,0,4,-29,-8,-60,29,
24,10,-14,-13,-7,-8,-4,-3,
-1,-22,10,3,-5,20,11,28,
-6,-3,-2,-8,1,7,6,9,
8,-7,3,6,7,-9,-12,11,
10,-14,35,-8,2,-4,2,-3,
5,-2,0,-11,13,7,-62,-14,
-16,8,-2,5,8,-13,3,-6,
-12,-11,16,8,8,103,-35,73,
1,-11,38,19,1,-1,-5,12,
-3,11,3,3,-6,-11,3,12,
3,-28,4,1,-2,-54,16,-3,
7,15,3,-24,-25,-47,9,11,
-13,-38,10,8,-3,-6,0,6,
0,-7,0,4,0,127,0,-15,
-1,4,-4,5,-9,0,8,7,
0,0,-11,19,-13,4,26,36,
7,44,-23,-40,3,4,-4,-1,
8,8,-7,16,7,-26,-23,-26,
7,31,-32,1,17,22,3,-2,
13,22,-1,18,-59,-6,4,-37,
-35,2,-32,19,10,-38,1,3,
0,5,-13,11,-39,-20,31,-53,
38,-7,-18,-21,5,-12,39,-15,
-20,-8,0,-13,-52,22,-7,-79,
80,-6,24,-30,5,24,-4,-3,
-19,-13,-3,-3,-67,-11,-8,12,
-44,5,58,-47,5,8,-10,-4,
14,0,-4,-5,22,42,19,55,
11,-19,6,5,91,-3,127,0,
-4,-4,1,1,-11,-45,-28,-5,
18,-70,11,5,-20,-4,9,-4,
19,11,3,2,-21,-1,-4,-2,
0,-10,-3,9,9,-5,3,-8,
-1,-1,-3,2,5,0,2,-2,
-7,2,-5,-24,-127,6,-2,-12,
11,-13,29,-7,-52,11,-19,-29,
-7,-10,13,116,-11,9,6,12,
-24,-1,-3,-7,0,4,-1,-6,
6,-7,4,-12,-10,67,11,0,
-12,9,18,3,-83,0,-10,14,
-13,-12,30,-10,-4,3,-9,-8,
-6,15,-9,-2,38,-16,-40,37,
11,-11,3,7,-5,8,13,-1,
-33,-29,-11,-5,3,-65,-21,-12,
-34,-18,33,8,-2,6,5,2,
4,-9,-17,3,6,20,20,-15,
18,-13,15,-31,-19,4,-17,18,
1,-2,21,38,4,11,-18,6,
-7,-2,-13,4,-1,1,-8,3,
-2,21,1,-11,-12,0,3,13,
-9,2,-21,1,8,4,1,6,
-3,-9,-5,5,11,51,-34,-24,
31,-1,30,-19,1,4,1,-1,
-1,-10,6,-15,0,-29,37,12,
6,5,-29,29,2,-7,12,9,
-12,23,2,0,-14,70,37,-13,
-2,-15,-2,42,6,-1,-4,3,
27,-4,-9,-15,15,15,11,4,
9,12,-18,7,0,5,-7,-12,
6,11,3,-1,9,-2,-35,37,
-27,23,9,-7,-17,2,4,-4,
-16,22,20,2,14,9,-7,20,
-35,19,-1,-2,2,2,0,4,
-8,-23,-2,4,9,5,3,-8,
-20,1,-14,-1,0,-2,-3,-4,
-3,6,12,13,0,19,-18,-6,
-17,-19,-17,-6,-12,12,21,1,
4,-13,23,41,-6,58,26,-35,
-18,23,6,26,3,3,3,-2,
19,-15,5,-26,37,10,-49,9,
-7,31,31,-15,-11,6,-4,14,
-5,1,-3,-8,-6,-3,-19,-57,
-2,-12,-3,-2,1,3,-7,9,
-34,-10,-8,-1,31,14,-20,-3,
0,1,4,3,4,12,-16,8,
-14,21,-31,16,-16,-57,-23,-43,
3,18,3,-24,10,2,-5,5,
-14,25,-6,-19,-12,2,-10,-16,
-12,-9,10,0,-5,-5,-4,5,
-4,-27,9,21,25,81,-43,11,
-3,9,-3,41,6,3,-2,7,
3,-9,-10,-1,-3,9,24,-3,
-10,10,4,-5,2,-14,5,-10,
-11,8,-9,7,-10,14,76,24,
-4,6,12,28,4,2,10,1,
14,31,-11,5,32,9,-9,-16,
2,18,21,-3,5,6,25,-24,
-1,-25,17,4,30,-32,-55,-47,
6,15,-4,-13,-3,-4,7,4,
7,8,-15,7,-34,-24,-11,-3,
-26,-16,-18,37,-20,-9,-11,-3,
2,-6,5,1,-26,-38,23,25,
-22,25,24,-29,6,0,-7,1,
32,6,-6,-17,-28,-4,-14,26,
0,12,7,24,-3,-3,10,-10,
-28,12,0,-28,7,-3,-30,-3,
17,29,16,15,-11,0,-5,4,
-23,-6,6,9,15,9,-8,1,
-16,3,-2,6,23,-3,11,-17,
-27,-11,-17,3,2,-31,-63,-18,
4,-11,-10,1,-6,-5,-2,5,
7,-13,2,11,-26,-21,-8,-4,
-36,-12,19,0,-20,-12,0,7,
14,11,-8,-3,3,42,35,-1,
-11,54,36,-4,-3,-15,-10,4,
-2,-6,9,2,4,-29,10,3,
-16,29,-59,-4,10,-6,0,-6,
-15,-6,-8,20,-45,83,-6,32,
1,2,-1,9,-1,-3,23,-1,
-1,8,21,-2,-13,18,-20,-15,
8,-5,9,26,1,-7,8,22,
1,17,-15,22,0,27,-8,45,
-6,56,-3,14,0,0,-13,2,
24,1,-1,0,5,15,7,18,
-7,127,5,-5,-8,9,-8,-27,
-28,-11,11,-4,-11,-61,71,13,
24,0,-44,3,4,1,-3,-3,
-23,6,0,-4,27,-12,-82,-6,
13,3,41,4,7,-2,-11,2,
17,3,13,-8,-3,76,34,4,
-1,-22,27,5,1,-12,-14,-2,
6,-36,-10,-4,-7,32,-75,-3,
-8,5,1,1,0,-2,0,1,
-3,6,0,-4,9,28,-9,14,
-10,18,1,1,-6,2,7,1,
9,-12,-10,8,-5,-42,-13,5,
16,21,2,-7,-2,0,0,-6,
-28,14,-11,0,-39,-3,-55,-18,
-44,19,9,-8,3,-14,-1,1,
0,0,-7,4,-5,14,6,0,
24,-16,-6,-3,-24,-4,-9,2,
5,13,-5,2,0,-9,-11,-13,
9,1,-1,4,2,-2,-11,1,
1,-1,-84,-45,-4,-5,-10,-26,
-10,5,11,7,-3,4,-11,-22,
3,1,-13,20,7,-8,-7,5,
-33,21,6,6,1,8,-3,-3,
-10,2,-15,18,-22,6,17,-11,
-15,-2,1,15,4,19,-5,2,
-35,1,18,3,2,-7,-3,-6,
10,4,5,51,-6,-4,-4,16,
6,0,-5,5,6,4,-3,27,
-2,1,-6,-3,5,30,-24,-8,
16,13,-6,11,0,1,-3,-5,
6,-8,-12,-2,-7,-4,3,3,
24,-3,-16,-4,-4,-7,8,-4,
17,7,-5,16,-4,-9,23,12,
-10,4,-13,8,26,-3,-5,-18,
-13,1,-8,12,1,-2,5,0,
-1,-14,18,0,-15,2,-21,-19,
-35,-26,-9,20,-2,4,9,3,
-20,-26,14,12,1,-38,14,30,
1,-22,-14,47,-4,1,4,-1,
-7,-2,1,-13,-14,11,3,26,
-7,20,6,4,18,-13,7,5,
-1,8,-11,13,1,5,-5,0,
-4,-27,10,6,-2,7,-3,-2,
15,-17,-4,-4,2,1,2,1,
-16,5,30,-4,-27,9,-9,0,
-6,-12,16,-10,-3,24,-7,-24,
13,4,-3,1,-6,-1,-2,-6,
-1,-2,2,2,-2,19,0,-21,
5,35,8,-36,33,-10,3,-7,
9,-16,4,-4,1,3,-9,0,
9,7,1,20,-1,-1,0,-2,
-5,-24,1,-13,9,3,22,2,
-30,8,1,-27,10,25,3,-17,
-1,-45,-8,-4,46,9,3,-1,
38,47,0,-1,1,-1,3,11,
-1,12,12,-9,35,18,17,11,
-16,23,-23,20,5,-5,5,24,
-17,-3,0,-9,7,-28,3,-5,
2,2,-8,7,-6,14,-4,-1,
-12,-6,-2,-39,-6,-32,-5,5,
5,3,-13,1,3,-9,22,-2,
5,-43,-3,-20,0,-1,3,18,
-2,7,5,3,-9,3,3,6,
-9,8,7,-5,2,-7,1,6,
10,6,-12,-10,7,13,2,-8,
-12,17,7,1,4,8,32,-3,
25,-8,-35,-1,-5,10,0,-9,
-4,-4,7,-5,-25,16,22,1,
18,-2,5,-6,-7,-5,1,32,
34,0,-13,1,2,-5,-4,-1,
9,-4,-31,-19,3,-1,-10,16,
-23,9,-5,2,1,3,7,-18,
7,-5,2,-9,9,-3,3,9,
-13,-4,0,3,7,5,1,6,
2,5,2,2,-2,2,0,5,
25,-30,0,9,15,-5,0,-1,
-8,-2,-1,28,4,-7,-1,-13,
-11,-16,-24,4,-6,1,8,4,
1,-5,-15,-21,-8,-4,-10,-3,
3,3,-7,6,-10,5,10,1,
8,-4,18,-25,3,5,0,6,
18,0,-2,12,-1,-4,7,-19,
4,-41,13,11,-1,5,-2,-10,
8,-15,6,-11,1,-3,1,-29,
8,13,15,-14,8,4,4,-3,
-4,3,-4,10,6,5,-4,-9,
12,3,-2,-8,28,-4,1,-2,
-5,19,-4,-3,7,-12,5,-12,
8,-4,-2,-8,-8,-1,-2,1,
-10,1,-13,23,8,-4,-1,15,
-8,-1,-1,2,-11,0,3,14,
-10,-2,-5,3,-1,-4,6,-11,
7,3,2,-5,1,1,0,-4,
-11,0,-8,-20,9,1,5,-3,
3,-4,6,0,-9,-16,-6,1,
11,5,10,3,-20,1,-7,-2,
5,-2,-1,-1,-4,5,-7,-3,
-10,9,1,-6,-1,0,-1,3,
-14,-3,-2,-2,-21,-5,7,7,
-4,0,18,1,-9,0,15,-7,
2,0,-7,0,17,5,-3,-1,
-26,-12,-14,-17,-8,1,-3,-13,
3,0,-2,-1,3,2,1,-20,
-40,3,-12,-2,-6,2,6,14,
-11,-3,-1,11,-3,-1,-1,-4,
-6,-4,2,0,-1,7,3,-4,
5,-1,-6,-6,-2,4,-8,-24,
0,29,-18,-26,-28,-1,18,-1,
4,-3,-12,6,-10,-3,5,-2,
21,24,9,14,-5,4,0,-2,
-1,4,-1,12,-19,-2,3,-6,
-3,4,2,9,4,-30,0,4,
4,14,3,8,-6,6,-2,15,
22,9,22,14,7,1,-3,5,
-15,1,1,1,2,-1,7,-7,
-7,7,-15,-17,-2,-4,11,-7,
12,3,-2,-3,6,-5,2,2,
-18,-8,-3,16,-3,3,-1,-4,
-1,-1,-3,1,-2,-31,1,-4,
-1,13,-5,2,5,-8,1,-3,
2,6,-3,-10,3,-5,1,-2,
6,-14,-9,-9,5,1,-7,5,
1,-1,4,-1,-19,11,4,-14,
-3,6,3,0,3,-7,23,-19,
-16,0,-5,4,8,4,-3,1,
-25,-8,-17,10,0,2,-3,2,
0,-1,8,1,-10,9,-1,-2,
-9,-7,-24,21,-3,3,11,10,
3,2,4,6,0,2,-1,-2,
-14,13,-27,35,-5,6,0,1,
-10,1,-3,-1,-11,14,-6,-9,
7,9,5,-13,-5,-10,20,-5,
7,-7,6,-6,-3,0,-1,-6,
40,7,-8,34,1,6,-2,3,
-12,2,2,-7,19,3,3,11,
-10,-2,8,-31,7,1,6,-22,
5,-5,1,1,0,1,-1,6,
6,9,-50,-11,0,1,2,3,
2,3,12,0,9,0,-10,-9,
14,8,-17,13,-8,-2,-14,-5,
0,0,-14,4,3,-1,0,-4,
-31,-6,-42,-12,-1,-1,-4,-7,
1,-2,7,0,2,-3,-3,-3,
10,-1,15,-1,2,-2,14,2,
-3,-2,-11,4,-5,-2,-8,1,
10,17,-1,-39,-15,9,0,1,
0,-12,4,-17,11,6,-18,-7,
-10,-18,-26,4,-13,-1,-3,-3,
3,-8,2,3,-1,-1,6,-4,
-3,61,2,36,-4,3,-4,2,
-1,3,0,0,-1,2,5,5,
17,-2,-10,19,-6,-10,8,17,
7,0,-5,0,-1,-3,12,4,
-28,-9,-11,-30,3,2,-1,8,
1,-2,-1,-5,2,2,6,-12,
7,9,-10,5,-4,2,-5,10,
2,5,4,-10,0,-1,0,-2,
39,-63,7,-28,2,6,-1,5,
-1,15,2,-6,12,-22,-3,9,
16,22,1,3,29,-14,18,19,
20,-6,-1,8,-5,-1,-4,-1,
69,18,-10,-1,-27,-9,-1,1,
-3,-5,-1,-2,21,-20,9,2,
17,13,-9,-1,-31,18,3,-4,
-4,-14,2,-5,2,-6,-1,3,
24,-67,32,-6,4,-21,-10,6,
-6,6,-2,5,2,-14,11,-5,
9,-20,0,-11,7,19,3,-2,
0,-2,1,-14,-1,0,-4,5,
1,6,7,-46,3,0,3,-3,
6,-7,-1,-3,4,23,1,6,
1,15,6,-16,-6,13,4,-42,
15,0,0,-10,3,-3,-1,-5,
-29,49,46,31,1,-5,-20,-1,
1,14,-24,0,1,-7,-12,-2,
-17,4,15,30,19,-16,26,1,
-4,-30,-3,-7,-6,13,1,3,
-41,2,2,-48,-6,6,-2,1,
8,-2,-3,-2,-11,0,-5,2,
-11,3,4,-10,6,1,-7,-8,
-12,3,-3,-1,-7,0,0,0,
-18,51,-2,102,2,23,-10,8,
-3,3,-4,0,4,-2,-6,26,
17,-24,10,9,5,18,-7,13,
4,-5,21,-2,8,-10,3,-19,
49,9,16,78,23,5,11,24,
-14,-5,0,-6,18,-2,-3,-16,
28,-1,4,44,41,14,5,-14,
-5,0,7,-12,-2,10,0,0,
23,10,-75,23,-3,0,24,-4,
-1,7,-5,-1,5,-1,-11,0,
12,-2,13,-24,-8,-4,-59,18,
-32,39,-4,-1,-5,-4,-18,-1,
32,-30,-38,46,7,-6,11,7,
-10,10,-14,6,-5,-21,-32,25,
-6,-5,29,-9,-6,-4,-8,11,
23,-19,22,-2,14,-1,-1,12,
1,74,-12,6,5,1,27,-1,
-5,-7,1,0,2,-8,24,19,
52,8,-2,-20,-21,5,-51,-2,
-14,1,-3,1,31,1,12,8,
-5,-7,-31,-32,18,-6,-1,9,
-16,14,3,2,-34,-2,-11,1,
20,0,50,-36,-40,-16,12,-14,
2,11,2,-33,4,2,4,11,
17,-15,-13,-10,5,4,23,-13,
-10,3,11,-15,-14,1,9,-17,
-19,17,-19,-29,-1,-22,-23,13,
-36,-17,34,14,4,5,6,5,
-17,-6,14,-48,-2,7,-13,3,
-7,9,7,0,2,-4,15,-9,
5,52,-23,24,12,12,2,7,
11,-14,-1,-2,0,0,6,12,
-51,-22,-3,-24,-5,-8,1,-10,
-2,12,2,-3,23,-11,5,23,
-20,15,-2,-8,-16,17,-5,-12,
-12,-2,-8,-5,0,6,4,-7,
-38,-2,23,32,-29,4,-6,-1,
-20,8,3,-2,-13,-19,-2,-3,
-13,35,-39,-6,-6,9,-19,7,
-2,-6,20,0,5,-3,-4,-2,
-69,-33,31,15,6,3,4,-8,
-7,-14,23,14,-15,-2,-36,32,
-13,-12,10,17,39,-33,35,14,
26,18,-2,-33,10,-10,-1,-3,
-5,-71,-37,22,15,-7,33,-12,
1,-4,3,-6,-18,-21,-14,5,
-18,16,66,-28,31,-6,6,4,
-11,-1,-1,12,-3,1,-11,-3,
21,40,76,1,-18,-1,-16,-1,
-21,0,-13,-7,6,7,19,-25,
4,-21,-34,26,-1,15,10,-8,
-2,7,-14,18,-15,-3,8,21,
-78,-9,8,14,4,8,5,1,
-2,-7,-6,11,-12,-33,-22,10,
21,-29,-26,16,12,29,30,-16,
-5,32,-10,5,-7,-2,4,5,
9,-20,-21,-15,-5,8,-1,-7,
-2,-38,-2,11,13,-7,-2,9,
-19,30,-7,7,-16,40,2,-13,
7,-24,2,0,5,-16,-1,-14,
-27,23,0,-40,8,-3,3,11,
-4,-7,-7,4,-10,-8,26,-9,
47,-13,51,-19,-10,6,1,13,
16,-13,-2,-31,-2,1,0,-6,
4,-7,-19,6,-7,-5,-23,-3,
5,-2,-6,-1,6,28,26,-19,
19,21,-10,-20,0,-3,-11,7,
-2,-35,-4,-105,2,7,0,3,
20,16,-16,-6,-25,0,-1,-17,
13,4,0,7,14,-8,4,4,
-12,8,7,-8,18,-5,-8,26,
-23,-8,1,36,1,0,-6,2,
-12,5,21,0,-1,-22,2,4,
10,4,-3,1,5,-33,14,-5,
15,12,-1,-1,5,41,6,-6,
8,1,-11,-8,-3,-5,-1,-2,
14,33,41,-28,-1,13,1,-2,
-1,-1,-4,4,-8,42,25,3,
5,8,10,-10,-3,10,8,-5,
-3,-27,-44,0,2,-3,-2,-1,
5,-4,-6,2,-6,0,-3,-4,
1,2,-4,-11,-15,-14,-7,3,
8,-2,-14,-13,-2,-19,-3,6,
0,24,0,5,0,-3,-2,-1,
9,-25,-19,-11,-12,-10,12,-23,
5,1,-5,4,-15,-3,19,32,
4,-15,-4,-24,-12,0,76,18,
6,4,2,9,-3,-2,5,-2,
27,4,11,27,1,5,0,6,
3,3,-5,-1,15,-7,8,9,
12,1,-7,10,-7,1,-3,1,
-2,-5,2,-4,-3,-4,5,-2,
-55,4,5,9,-18,3,9,-16,
-5,4,5,22,5,2,-11,3,
-22,-12,11,-13,10,9,29,-3,
9,-11,7,-3,-7,0,1,0,
-16,31,6,7,-6,-17,-26,25,
-2,1,9,1,-8,-3,24,-33,
0,1,2,-2,-19,21,-14,12,
-10,-30,9,14,3,-1,2,10,
-18,-9,19,-1,7,-18,11,-3,
6,-1,5,2,-30,23,-7,-7,
-1,-6,4,10,14,9,34,8,
14,22,-2,-15,15,5,-4,7,
-16,13,-27,50,6,9,12,8,
-5,-4,2,-3,0,0,33,9,
-4,-12,-19,-9,1,4,1,5,
-5,-4,14,-8,10,-3,-2,-10,
0,0,10,14,11,-6,-4,-4,
1,1,-1,-1,-7,-19,-5,0,
-11,0,-7,-9,22,-13,18,-14,
10,-5,-8,-8,4,-1,0,-2,
18,-32,18,-32,-5,4,-5,23,
-2,-2,-9,6,-17,36,-24,31,
-13,3,-18,-4,-23,24,3,-7,
-1,3,6,-7,0,-1,1,1,
12,13,2,7,1,-6,-10,20,
1,1,6,9,-4,-33,22,8,
-2,16,-9,-11,31,3,-25,2,
4,-2,-24,21,-2,4,-8,7,
39,-4,28,-37,-14,-2,-24,-11,
1,-3,10,0,-39,13,15,-13,
14,6,-13,0,9,-20,10,-12,
-3,2,-3,8,1,3,5,3,
11,2,1,42,-4,-1,10,-13,
4,5,-3,1,1,-10,20,5,
12,-9,-5,11,16,-17,-46,-18,
6,-3,-12,12,-4,-2,4,-8,
-16,14,-1,7,0,-11,9,3,
2,2,-6,3,25,10,-3,-36,
8,-15,7,20,14,15,7,24,
6,8,6,-17,0,5,-1,9,
20,-9,6,-19,0,16,39,-4,
1,1,4,-4,-3,-3,9,-6,
13,-5,10,-7,26,5,1,6,
-10,1,14,-3,1,1,-7,4,
23,1,-9,4,1,13,-8,11,
2,1,7,7,18,-27,7,-13,
1,-5,5,3,-18,-13,-10,11,
-6,5,-16,2,1,4,-4,5,
-9,-13,-52,7,-12,16,-20,-45,
10,2,-2,-1,24,-3,7,-11,
-5,-19,-39,-9,-5,11,-23,0,
7,-2,-5,13,1,-6,-3,-2,
-10,25,-24,6,-4,19,-2,36,
-6,3,-3,3,-12,-5,19,-6,
27,-8,-2,-7,-34,31,5,25,
2,8,-9,4,-1,-3,-4,4,
-38,1,27,-22,-20,-36,-24,23,
3,2,0,7,-3,21,-5,6,
3,24,-16,19,2,-26,43,37,
0,13,6,7,11,-8,-1,10,
-14,46,1,33,-22,-2,15,30,
2,4,-1,-10,22,9,-25,9,
-5,-21,12,10,-4,-8,-15,24,
0,-2,-2,-7,2,4,3,0,
9,54,-1,-44,-1,-3,7,-2,
2,-4,9,-3,-31,12,6,16,
0,7,-1,-9,26,39,32,-5,
7,-2,4,5,-3,0,-13,-1,
-29,23,8,36,-4,4,0,-12,
-5,4,0,7,18,5,7,-22,
-16,2,3,-3,-5,-2,-8,-2,
-11,14,-10,16,8,-1,-1,-3,
-43,3,-21,-83,-17,11,20,-16,
6,1,4,5,-31,-7,2,-82,
-10,33,-6,1,5,-25,-10,-77,
39,1,3,-13,5,-3,1,4,
-17,-13,-1,-22,4,-1,17,49,
-3,1,4,-7,3,-2,8,66,
6,1,6,-11,-5,6,27,-76,
5,5,-7,25,1,-1,-7,-4,
-10,11,-21,7,38,-13,49,-44,
-6,9,1,-6,0,-12,-27,11,
1,-7,11,98,-23,-39,57,18,
5,3,-12,2,-2,-5,-3,1,
11,13,3,-22,3,-36,-4,2,
-7,5,-6,8,6,-36,-1,-24,
-5,27,1,3,-7,-8,-9,2,
2,-11,-5,-3,-13,-1,-1,2,
-30,36,-57,-20,3,7,26,-17,
-2,-4,4,3,-30,63,-38,-28,
-10,-4,-13,6,10,20,-7,-18,
5,2,-20,-10,-4,1,2,-1,
-21,-32,12,39,7,-10,7,1,
-5,-4,7,1,11,28,6,9,
5,-3,-1,-2,2,-6,23,14,
3,-22,-20,-4,-4,4,3,1,
14,10,27,-5,-77,-2,-6,28,
-2,0,-8,-4,-7,3,10,-13,
1,-4,0,29,14,-13,-8,-37,
15,0,8,1,-1,1,1,2,
-8,5,-16,-8,7,33,-14,-4,
2,-4,0,-1,-3,11,-8,-7,
-2,37,15,-6,-9,-8,-3,2,
8,-21,21,-4,-2,0,6,-5,
16,-24,41,9,1,-22,-9,-5,
5,1,-1,1,-6,29,5,2,
-13,29,-31,4,15,-13,-2,-8,
-10,-2,-6,-8,-2,2,-3,2,
-4,9,-35,12,3,-1,2,-11,
-1,0,2,9,7,-15,16,-27,
6,-7,-16,-7,1,2,2,0,
-1,-6,-18,-1,-20,-3,-2,-2,
3,-18,8,15,9,-21,-8,0,
4,2,4,0,5,14,15,-5,
-2,-4,-20,-30,8,-7,-16,-7,
-1,-6,-10,-1,-1,4,-3,-3,
33,-58,45,-8,-15,-7,-6,36,
7,-6,-3,-5,-10,9,2,-4,
3,24,-10,-9,13,-6,-7,-14,
-2,-12,18,-4,-9,-6,0,1,
-30,7,24,-1,-15,-11,-5,-6,
3,-4,5,0,-21,3,8,9,
14,10,11,-4,-1,9,0,-14,
-11,-4,13,-7,2,-1,3,4,
-3,46,0,-8,7,0,3,-7,
-3,-3,7,3,-14,3,-9,11,
3,14,24,0,10,10,9,13,
-13,-14,-3,-6,-3,-5,4,-2,
-2,10,40,-10,3,35,1,11,
-10,1,2,3,21,-24,8,-14,
6,-3,-32,-10,-3,-18,-4,2,
18,5,24,-46,-1,1,1,0,
-51,-16,-8,17,12,6,21,-1,
-6,-1,14,-2,7,-7,14,17,
-24,-29,-1,26,-8,-7,16,19,
-4,-2,-8,-5,-4,2,4,1,
-5,7,-24,-17,8,-15,-9,2,
9,2,-7,-3,12,15,-2,-11,
-10,-12,23,13,-7,1,-12,-6,
-12,8,1,8,1,-5,3,-3,
1,-3,-20,-1,22,-18,-41,-10,
2,3,3,-6,35,9,11,8,
-11,9,-19,-11,19,16,45,-10,
4,-29,5,-14,6,3,3,-9,
8,23,28,13,10,32,52,20,
-6,2,1,5,-5,2,-3,-21,
-14,2,-17,-11,-3,-24,-1,-19,
-1,-2,-15,18,4,1,1,4,
39,7,-5,-34,5,-9,-20,2,
2,-3,6,16,-7,-6,-7,1,
2,30,-16,-8,17,-18,6,16,
-3,5,7,5,0,-3,-1,-5,
11,5,26,0,0,1,5,-7,
-6,0,1,-1,-2,7,-18,5,
13,-17,-20,-4,-4,-3,-5,5,
5,5,-20,4,5,0,7,10,
0,10,-4,13,-18,-25,16,4,
-4,-3,-9,1,-19,-12,-3,16,
9,-1,6,-9,10,5,-23,22,
-21,5,2,11,0,4,2,0,
11,-1,6,6,-10,-1,-10,-6,
3,-2,0,4,10,1,4,12,
0,17,8,2,3,13,-2,4,
-8,9,1,5,-4,-1,-2,-2,
-4,-85,-23,-8,-1,-12,15,-5,
0,2,6,3,6,-6,-45,7,
9,-127,-56,-2,-7,-30,91,-4,
1,-18,-16,-4,-3,2,3,-1,
-6,-21,-29,9,-1,1,10,1,
3,-4,-2,-3,-6,-23,19,2,
17,-3,-3,2,-8,6,-30,3,
4,-18,0,-4,-1,-4,-2,2,
19,10,47,-13,1,127,10,-5,
-19,-9,-3,2,-5,-14,-5,-20,
-28,13,19,1,4,-7,24,105,
0,8,4,-4,0,0,2,7,
62,11,90,19,-8,-1,-12,-33,
-6,3,1,2,-33,5,43,86,
7,7,65,12,-8,-13,-40,-17,
0,-17,-9,17,-3,7,5,3,
-27,-4,-10,5,55,7,-14,13,
5,-18,7,3,-38,-23,-35,-17,
-7,12,9,0,28,-13,-46,5,
-13,6,-17,-3,-3,2,2,-2,
-10,-31,-6,1,-14,6,-13,-7,
0,6,60,-2,0,-17,-10,2,
3,12,13,2,16,13,20,0,
-15,2,7,-1,1,-1,0,1,
16,2,-7,-11,-16,4,17,2,
-47,2,0,-1,0,-8,4,6,
-5,0,-11,6,6,-4,6,-8,
8,-1,0,-2,4,-15,-1,3,
20,-21,12,29,-24,-11,-3,4,
1,-127,1,-2,-6,-32,-2,-25,
-8,10,9,-21,-12,12,11,27,
-2,-1,-2,0,0,5,0,-2,
6,-3,-14,11,7,-8,-11,14,
-1,-4,-10,3,-1,-4,15,4,
7,6,16,-1,0,8,-10,-9,
-8,5,-17,-6,1,4,4,-1,
-29,5,-26,21,1,22,4,1,
-2,6,0,7,-19,-20,26,-15,
21,-14,-9,10,-20,-17,-5,0,
-21,18,18,14,-3,-1,7,-3,
16,2,-8,14,11,4,-2,1,
0,-2,-2,-6,-7,4,-25,4,
-4,33,-39,-10,5,0,7,12,
3,-2,-5,3,-2,-1,-5,2,
-11,3,14,17,-27,16,26,11,
10,8,0,7,9,15,34,-16,
14,-16,15,21,30,-23,-11,-25,
-5,-6,13,6,-14,-5,2,2,
-38,-2,51,-6,5,17,4,16,
2,-3,8,-2,3,11,20,4,
-22,-13,27,33,-7,-4,3,11,
0,9,3,3,-9,0,-5,-2,
-47,-4,-19,4,0,0,-5,3,
5,4,-6,-7,17,15,11,15,
5,-34,-5,7,-14,11,-12,16,
26,-7,1,3,-7,3,4,12,
-4,-2,-4,10,-7,-9,-19,-6,
11,2,-8,5,-3,14,-7,-2,
2,-40,-3,-8,7,-8,8,5,
-10,-1,-1,1,9,5,6,6,
-27,-31,-25,-18,9,12,2,-13,
-4,-8,2,-6,30,-16,12,9,
13,9,-11,35,4,-5,1,-18,
-21,-18,-38,20,3,-11,5,-2,
28,-7,23,-17,-1,4,-1,9,
2,-7,4,4,12,11,-13,-4,
-29,-13,-48,8,17,-2,-19,-2,
6,9,5,1,5,-10,2,5,
-4,-8,-11,10,6,-2,5,5,
10,6,-1,1,0,11,9,-8,
-15,12,17,-24,15,19,5,9,
-1,5,-4,2,0,-5,-5,-8,
-8,0,-8,15,-6,-11,-4,-15,
4,9,-2,4,13,-16,0,-15,
18,2,-30,-10,-12,14,-6,-25,
9,-7,2,-7,-6,4,0,14,
12,32,-5,26,-23,-13,16,-24,
1,9,3,0,-18,0,10,21,
-6,15,16,-38,-6,22,-15,-2,
5,-16,-2,-8,-6,0,0,-5,
5,-26,-20,-5,11,-6,7,-22,
2,6,-5,6,8,14,20,0,
6,27,-17,-4,1,13,8,-13,
7,13,-14,8,-8,-6,-1,6,
-9,12,18,21,-15,-14,-5,6,
5,3,-1,13,-4,29,-5,-37,
9,0,-26,-8,-63,23,20,-47,
-16,-24,51,1,-8,-9,1,-3,
-58,-3,-25,-34,-11,-4,13,-6,
3,-1,-1,-5,19,0,4,7,
-6,10,-32,19,13,11,14,17,
-15,-7,2,1,-2,-2,5,-3,
-47,-6,11,-15,5,-22,4,4,
5,-8,-3,4,-3,-2,-22,10,
-7,9,0,15,13,-10,-5,18,
-10,-5,-25,10,7,-2,3,2,
15,27,9,-2,-1,-8,-12,1,
1,-4,-7,-2,-4,-6,56,10,
-13,16,11,0,-5,-1,93,-3,
-12,-4,2,4,7,0,3,14,
-10,-2,-23,3,1,-1,-15,1,
0,-1,16,1,-2,-24,-4,23,
1,-9,40,21,-1,6,18,-3,
-2,1,-5,3,-1,1,-6,-2,
12,-10,-7,32,1,-8,4,5,
-1,1,15,2,1,15,-3,13,
12,-6,-11,24,-1,-3,-4,-8,
0,30,4,-127,-3,0,0,2,
25,-7,-5,2,-4,1,16,-2,
-2,-3,5,-3,10,-2,-8,-4,
17,4,2,10,20,-1,1,-1,
2,-9,0,7,2,1,-1,2,
35,11,3,-6,1,31,-1,3,
1,-1,-11,0,7,-8,-8,-7,
-21,2,16,6,12,-22,-8,-2,
2,-5,-2,1,-8,-6,-3,10,
-19,19,2,17,22,-3,2,-1,
17,2,-5,-5,-5,13,16,-1,
7,3,9,-2,-1,8,0,-5,
-4,-4,-6,-9,5,-1,93,36,
-127,3,1,-16,2,-13,-2,5,
-1,0,1,0,-21,2,-2,8,
19,-40,9,-10,-41,2,9,-5,
-6,1,4,2,0,-2,-1,-4,
59,-15,-40,-30,3,-2,0,-10,
6,4,-2,-7,1,-4,43,-13,
-12,-5,-62,-40,5,-1,-16,-1,
-6,1,9,9,-5,-23,2,2,
-17,-33,-29,-24,6,10,19,-6,
0,-6,1,5,-10,30,4,9,
-8,2,30,-6,8,-5,-13,7,
-9,7,0,7,2,-7,7,-14,
-42,-24,-27,30,1,13,9,-16,
-13,10,-12,0,-10,7,1,-38,
3,1,-9,7,5,-5,0,0,
0,-7,-8,2,-19,1,3,-9,
-8,10,-10,5,-1,20,-13,4,
-3,11,-7,-5,-9,-16,3,15,
11,10,-4,-10,0,4,-15,5,
-18,12,0,-9,10,-4,9,-6,
4,-17,4,27,-6,-10,-5,-14,
3,2,5,2,15,10,17,-20,
9,-13,22,11,4,13,12,1,
6,-7,-26,3,6,-11,0,1,
-11,12,26,-9,-14,5,1,-10,
-7,2,-10,-1,4,16,1,-15,
33,-21,-13,-1,-23,-4,33,-3,
13,2,-1,36,11,8,-2,1,
14,0,-1,7,-2,9,9,-6,
0,-7,-3,-3,6,-3,27,2,
-24,19,2,8,14,-3,12,-3,
-2,5,-6,1,1,-23,5,-9,
55,2,-4,10,-8,-8,-6,-5,
-1,-6,0,-9,15,6,5,-1,
0,-21,-1,-1,-9,10,-3,13,
15,-3,0,4,-5,-8,-1,13,
41,-12,5,22,14,-10,-3,12,
7,13,-1,-8,8,-22,11,-28,
0,4,-1,19,-9,21,6,-6,
7,-9,1,-9,0,15,-1,-3,
22,19,-1,-2,17,-4,20,-7,
0,2,4,-7,-24,6,-5,0,
-1,-2,3,-6,-3,1,12,16,
-9,-38,-1,-5,0,-3,3,14,
-42,9,22,15,-1,1,-14,2,
-8,-2,-7,2,8,5,-32,-10,
-16,5,-3,10,4,6,-27,5,
23,19,-3,2,6,3,4,-1,
-22,-4,-33,17,-8,-6,8,7,
25,19,2,2,-4,-1,-18,-4,
2,-10,29,-2,1,-12,-5,2,
-2,4,5,-1,2,2,-3,7,
0,-17,19,10,1,2,-5,-9,
-5,4,-1,-17,-17,4,-4,-8,
11,1,8,5,-3,-6,-6,11,
-1,-6,3,5,2,3,-1,-6,
14,-5,25,11,5,1,-1,-12,
8,-3,23,-2,3,11,-18,-18,
-1,57,-16,-6,-8,-3,6,-15,
-2,0,9,0,9,1,-9,-7,
11,17,-1,6,-2,3,0,0,
2,1,0,-3,-6,8,-1,5,
15,1,0,-6,1,-3,0,13,
3,-17,0,9,13,-9,28,2,
15,25,36,-21,-5,-3,6,9,
-9,5,-8,-7,-5,10,9,-16,
-19,18,-11,-21,-8,1,4,-5,
-16,10,-8,1,-15,-13,7,11,
-18,13,29,-2,-2,1,6,-8,
3,-5,-10,2,-7,10,-5,-2,
8,13,10,0,-6,9,-11,-9,
19,9,-4,19,-3,0,12,1,
-1,-6,-5,4,0,0,0,0,
0,0,0,0,0,0,0,0,
0,0,0,0,0,0,0,0,
0,0,0,0,0,0,0,0,
-9,4,-2,-4,0,0,0,0,
0,0,0,0,0,0,0,0,
0,0,0,0,0,0,0,0,
0,0,0,0,0,0,0,0,
8,5,7,-4,0,0,0,0,
0,0,0,0,0,0,0,0,
0,0,0,0,0,0,0,0,
0,0,0,0,0,0,0,0,
-5,1,10,-10,0,0,0,0,
0,0,0,0,0,0,0,0,
0,0,0,0,0,0,0,0,
0,0,0,0,0,0,0,0,
-1,0,-5,1,0,0,0,0,
0,0,0,0,0,0,0,0,
0,0,0,0,0,0,0,0,
0,0,0,0,0,0,0,0,
2,10,-3,-20,0,0,0,0,
0,0,0,0,0,0,0,0,
0,0,0,0,0,0,0,0,
0,0,0,0,0,0,0,0,
1,-21,-10,-3,0,0,0,0,
0,0,0,0,0,0,0,0,
0,0,0,0,0,0,0,0,
0,0,0,0,0,0,0,0,
-2,0,2,-2,0,0,0,0,
0,0,0,0,0,0,0,0,
0,0,0,0,0,0,0,0,
0,0,0,0,0,0,0,0,
-2,-8,0,4,0,0,0,0,
0,0,0,0,0,0,0,0,
0,0,0,0,0,0,0,0,
0,0,0,0,0,0,0,0,
-4,9,2,6,0,0,0,0,
0,0,0,0,0,0,0,0,
0,0,0,0,0,0,0,0,
0,0,0,0,0,0,0,0,
-2,-8,-4,5,0,0,0,0,
0,0,0,0,0,0,0,0,
0,0,0,0,0,0,0,0,
0,0,0,0,0,0,0,0,
2,-19,-3,8,0,0,0,0,
0,0,0,0,0,0,0,0,
0,0,0,0,0,0,0,0,
0,0,0,0,0,0,0,0,
3,-3,-5,3,0,0,0,0,
0,0,0,0,0,0,0,0,
0,0,0,0,0,0,0,0,
0,0,0,0,0,0,0,0,
1,1,8,-4,0,0,0,0,
0,0,0,0,0,0,0,0,
0,0,0,0,0,0,0,0,
0,0,0,0,0,0,0,0,
-2,-2,7,5,0,0,0,0,
0,0,0,0,0,0,0,0,
0,0,0,0,0,0,0,0,
0,0,0,0,0,0,0,0,
-5,-14,-7,-4,0,0,0,0,
0,0,0,0,0,0,0,0,
0,0,0,0,0,0,0,0,
0,0,0,0,0,0,0,0,
3,-10,9,-14,0,0,0,0,
0,0,0,0,0,0,0,0,
0,0,0,0,0,0,0,0,
0,0,0,0,0,0,0,0,
1,12,8,-5,0,0,0,0,
0,0,0,0,0,0,0,0,
0,0,0,0,0,0,0,0,
0,0,0,0,0,0,0,0,
-22,25,-1,-12,0,0,0,0,
0,0,0,0,0,0,0,0,
0,0,0,0,0,0,0,0,
0,0,0,0,0,0,0,0,
-15,-17,-7,4,0,0,0,0,
0,0,0,0,0,0,0,0,
0,0,0,0,0,0,0,0,
0,0,0,0,0,0,0,0,
3,3,0,-13,0,0,0,0,
0,0,0,0,0,0,0,0,
0,0,0,0,0,0,0,0,
0,0,0,0,0,0,0,0,
-4,-29,-1,30,0,0,0,0,
0,0,0,0,0,0,0,0,
0,0,0,0,0,0,0,0,
0,0,0,0,0,0,0,0,
11,-27,-9,-11,0,0,0,0,
0,0,0,0,0,0,0,0,
0,0,0,0,0,0,0,0,
0,0,0,0,0,0,0,0,
4,2,2,-5,0,0,0,0,
0,0,0,0,0,0,0,0,
0,0,0,0,0,0,0,0,
0,0,0,0,0,0,0,0,
11,20,20,1,0,0,0,0,
0,0,0,0,0,0,0,0,
0,0,0,0,0,0,0,0,
0,0,0,0,0,0,0,0,
-17,0,-3,4,0,0,0,0,
0,0,0,0,0,0,0,0,
0,0,0,0,0,0,0,0,
0,0,0,0,0,0,0,0,
-14,4,19,11,0,0,0,0,
0,0,0,0,0,0,0,0,
0,0,0,0,0,0,0,0,
0,0,0,0,0,0,0,0,
20,15,-12,5,0,0,0,0,
0,0,0,0,0,0,0,0,
0,0,0,0,0,0,0,0,
0,0,0,0,0,0,0,0,
7,3,24,-7,0,0,0,0,
0,0,0,0,0,0,0,0,
0,0,0,0,0,0,0,0,
0,0,0,0,0,0,0,0,
-20,6,15,-15,0,0,0,0,
0,0,0,0,0,0,0,0,
0,0,0,0,0,0,0,0,
0,0,0,0,0,0,0,0,
-32,-34,-27,-4,0,0,0,0,
0,0,0,0,0,0,0,0,
0,0,0,0,0,0,0,0,
0,0,0,0,0,0,0,0,
-15,45,9,-21,0,0,0,0,
0,0,0,0,0,0,0,0,
0,0,0,0,0,0,0,0,
0,0,0,0,0,0,0,0,
13,11,11,-30,0,0,0,0,
0,0,0,0,0,0,0,0,
0,0,0,0,0,0,0,0,
0,0,0,0,0,0,0,0,
-17,-33,-26,-9,0,0,0,0,
0,0,0,0,0,0,0,0,
0,0,0,0,0,0,0,0,
0,0,0,0,0,0,0,0,
-2,-2,27,15,0,0,0,0,
0,0,0,0,0,0,0,0,
0,0,0,0,0,0,0,0,
0,0,0,0,0,0,0,0,
36,43,8,-9,0,0,0,0,
0,0,0,0,0,0,0,0,
0,0,0,0,0,0,0,0,
0,0,0,0,0,0,0,0,
50,-3,12,32,0,0,0,0,
0,0,0,0,0,0,0,0,
0,0,0,0,0,0,0,0,
0,0,0,0,0,0,0,0,
-16,-12,-29,2,0,0,0,0,
0,0,0,0,0,0,0,0,
0,0,0,0,0,0,0,0,
0,0,0,0,0,0,0,0,
-16,20,-4,24,0,0,0,0,
0,0,0,0,0,0,0,0,
0,0,0,0,0,0,0,0,
0,0,0,0,0,0,0,0,
-21,19,-14,-8,0,0,0,0,
0,0,0,0,0,0,0,0,
0,0,0,0,0,0,0,0,
0,0,0,0,0,0,0,0,
-13,-23,-28,-15,0,0,0,0,
0,0,0,0,0,0,0,0,
0,0,0,0,0,0,0,0,
0,0,0,0,0,0,0,0,
-10,-2,18,16,0,0,0,0,
0,0,0,0,0,0,0,0,
0,0,0,0,0,0,0,0,
0,0,0,0,0,0,0,0,
-19,9,-5,-2,0,0,0,0,
0,0,0,0,0,0,0,0,
0,0,0,0,0,0,0,0,
0,0,0,0,0,0,0,0,
1,-8,7,-11,0,0,0,0,
0,0,0,0,0,0,0,0,
0,0,0,0,0,0,0,0,
0,0,0,0,0,0,0,0,
-26,2,-6,1,0,0,0,0,
0,0,0,0,0,0,0,0,
0,0,0,0,0,0,0,0,
0,0,0,0,0,0,0,0,
17,7,2,-2,0,0,0,0,
0,0,0,0,0,0,0,0,
0,0,0,0,0,0,0,0,
0,0,0,0,0,0,0,0,
-9,0,-9,2,0,0,0,0,
0,0,0,0,0,0,0,0,
0,0,0,0,0,0,0,0,
0,0,0,0,0,0,0,0,
15,11,-5,22,0,0,0,0,
0,0,0,0,0,0,0,0,
0,0,0,0,0,0,0,0,
0,0,0,0,0,0,0,0,
45,-11,-20,-2,0,0,0,0,
0,0,0,0,0,0,0,0,
0,0,0,0,0,0,0,0,
0,0,0,0,0,0,0,0,
-8,-12,-14,14,0,0,0,0,
0,0,0,0,0,0,0,0,
0,0,0,0,0,0,0,0,
0,0,0,0,0,0,0,0,
-15,12,-22,-31,0,0,0,0,
0,0,0,0,0,0,0,0,
0,0,0,0,0,0,0,0,
0,0,0,0,0,0,0,0,
-21,9,0,-9,0,0,0,0,
0,0,0,0,0,0,0,0,
0,0,0,0,0,0,0,0,
0,0,0,0,0,0,0,0,
-15,-23,6,3,0,0,0,0,
0,0,0,0,0,0,0,0,
0,0,0,0,0,0,0,0,
0,0,0,0,0,0,0,0,
8,-3,-2,12,0,0,0,0,
0,0,0,0,0,0,0,0,
0,0,0,0,0,0,0,0,
0,0,0,0,0,0,0,0,
-6,18,-10,-23,0,0,0,0,
0,0,0,0,0,0,0,0,
0,0,0,0,0,0,0,0,
0,0,0,0,0,0,0,0,
-31,-4,3,-7,0,0,0,0,
0,0,0,0,0,0,0,0,
0,0,0,0,0,0,0,0,
0,0,0,0,0,0,0,0,
1,-4,9,27,0,0,0,0,
