/* Auto generated from checkpoint checkpoint_epoch_1.pth */


#ifdef HAVE_CONFIG_H
#include "config.h"
#endif

#include "dred_rdovae_dec_data.h"


#ifndef USE_WEIGHTS_FILE

#define WEIGHTS_dec_dense1_weights_float_DEFINED
#define WEIGHTS_dec_dense1_weights_float_TYPE WEIGHT_TYPE_float
static const float dec_dense1_weights_float[2496] = {
-1.4186356565915048e-05,6.712996309943264e-07,-3.391469590496854e-06,-0.015644118189811707,-1.4870982340653427e-05,-4.240966120505618e-07,4.857418389292434e-06,-1.1799827007052954e-05,
3.073045809287578e-05,0.04944306239485741,1.1384121535229497e-05,-8.69749499088357e-07,-8.063704626692925e-06,-1.3568226677307393e-05,7.1495992415293586e-06,4.15213180531282e-05,
1.5699584764661267e-05,-1.807105718398816e-06,0.002019699662923813,3.628383410614333e-06,-0.030246812850236893,1.380445155518828e-06,-1.699709173408337e-05,5.603159934253199e-06,
1.044300734065473e-05,1.6100633729365654e-05,1.3169704288884532e-05,3.19992468575947e-05,1.469732865189144e-06,1.0417066960144439e-06,-1.710630749585107e-05,5.1258643907203805e-06,
-0.0005902945995330811,-0.014514420181512833,-4.3512991396710277e-05,1.675439023074432e-07,-1.588557643117383e-05,-8.99772385309916e-06,6.151087291073054e-05,1.3189758647058625e-05,
-1.0597517757560126e-05,1.9445144062046893e-05,3.208498310414143e-05,-9.56197163759498e-06,-7.3454311859677546e-06,7.58432815928245e-06,1.8312472320758388e-06,-2.2099289708421566e-05,
-1.603454802534543e-05,2.862308974727057e-06,-6.254181698750472e-06,-7.002717552495596e-07,6.9300758696044795e-06,-6.706943167955615e-06,-1.3799915450363187e-06,-3.0181787224137224e-05,
7.354846275120508e-06,-0.01831451989710331,-1.0291812031937297e-05,6.13478232480702e-06,2.4250486603705212e-05,0.04902718961238861,5.053164841228863e-06,-1.9766375771723688e-05,
5.248341494734632e-06,1.33727808133699e-05,1.861868986452464e-05,-5.254179995972663e-06,-5.706229330826318e-06,-3.372524815858924e-06,4.348544734966708e-06,1.760355917213019e-05,
0.04402201995253563,0.029301833361387253,-1.2320840141910594e-05,-1.0146300155611243e-05,-1.5562346789010917e-06,-2.0780171325895935e-06,0.015928957611322403,-5.8104753406951204e-05,
-4.2703600229287986e-06,-1.0665510671969969e-05,-8.821702977002133e-06,6.035843398422003e-07,-1.6404981579398736e-05,3.5222399219492218e-06,-2.685793697310146e-05,-8.285889634862542e-06,
7.578174518130254e-06,-9.3378247356668e-07,1.8771664826999768e-06,-4.994141636416316e-05,2.9100960091454908e-05,-3.0241350032156333e-05,-4.973050636181142e-06,-0.03238086774945259,
-0.029848763719201088,-0.0012284707045182586,-0.006711263675242662,-0.0015000097919255495,0.005192168988287449,-0.005678767804056406,-0.00886971689760685,0.005190146621316671,
-0.025838155299425125,-0.001801704172976315,0.01175418309867382,0.0019029038958251476,0.005251554772257805,0.014148387126624584,-0.00326092098839581,0.019810443744063377,
-0.00951904896646738,0.021761298179626465,-0.003694069804623723,0.0005538894911296666,0.0043895067647099495,-0.009658746421337128,-0.01831766404211521,-0.027607977390289307,
-0.034648578613996506,-0.00043537039891816676,0.005589241627603769,0.043170683085918427,0.014368000440299511,0.0064719198271632195,-0.025623394176363945,0.0005924405413679779,
-0.0020214759279042482,-0.0001061546936398372,-0.06242003291845322,0.0046133920550346375,-0.4263095259666443,0.012032384984195232,0.003773296717554331,0.0033804394770413637,
-0.056152813136577606,-0.006838566157966852,0.005981789901852608,0.029223037883639336,0.00489071337506175,0.004320317879319191,0.007549422327429056,-0.007425445131957531,
-0.0013085820246487856,-0.0028380921576172113,0.002455767709761858,-0.005958066321909428,0.009621317498385906,-0.007359091658145189,0.00539473257958889,-0.0042104171589016914,
-0.002395783783867955,0.002972461050376296,-0.009519136510789394,0.01610404998064041,-0.00529576325789094,0.0058302064426243305,0.022142630070447922,-0.002192665822803974,
0.006892192643135786,-0.004035767167806625,-0.0047525386326014996,-0.009887569583952427,0.01999713107943535,-0.005815666634589434,-0.027923228219151497,0.00459145475178957,
0.0013221416156738997,0.001780614722520113,0.0005640169256366789,0.007434641011059284,0.2867770195007324,-0.13094019889831543,-0.00648777699097991,-0.002037250204011798,
0.007098069880157709,-0.013993958942592144,0.0005958944093436003,0.011050895787775517,-0.011552326381206512,0.0771259069442749,-0.0028112754225730896,0.0057181441225111485,
0.00912158377468586,-7.735780855000485e-06,-0.015568043105304241,-0.0019616170320659876,0.016258522868156433,0.005743999034166336,0.004181905183941126,0.005321888253092766,
-3.13788109451707e-06,1.140175186264969e-06,2.2368269583239453e-06,5.303943908074871e-05,0.00044715567491948605,-1.6580891042394796e-06,-5.726615199819207e-07,-2.6053401143144583e-06,
1.041427708514675e-06,-0.00011515608639456332,1.9023181039301562e-06,-5.7256565924035385e-06,-4.329563410010451e-07,2.5037629711732734e-06,-0.00011047657608287409,-1.3200250350564602e-06,
-7.184471905929968e-05,2.7872238206327893e-07,7.126976561266929e-05,9.066548045666423e-07,0.0003412443620618433,2.3527345547336154e-06,-1.7294983081228565e-06,-5.6883487786763e-07,
9.306663741881493e-06,-1.7490684740550932e-06,-0.0004981110687367618,-4.703461854660418e-06,5.032631179346936e-06,-3.033400730600988e-07,3.7352128856582567e-06,6.033808404026786e-06,
-0.00029296352295204997,0.00018936177366413176,-7.284695016096521e-07,-0.0009545068605802953,1.7530338709548232e-06,3.1791191759111825e-06,0.006438261363655329,7.565031978629122e-08,
-2.7920655156776775e-06,-1.648008947086055e-05,-3.497950501696323e-06,7.369314971583663e-07,-0.0006208331324160099,-7.2565735536045395e-06,0.005293807480484247,-5.039138954998634e-07,
5.446697741717799e-06,1.383735224180782e-07,4.073846866958775e-06,-1.7295453289989382e-05,-6.632688382524066e-06,0.00731896935030818,0.007905690930783749,-0.0096620237454772,
1.5085738596098963e-06,-5.4723939683754e-05,-5.999942459311569e-06,9.33728131258249e-07,-0.0005279409815557301,0.00026362776407040656,-5.761959528172156e-06,-2.6667507881938946e-06,
-2.4799576294753933e-06,-3.140819728741917e-07,-0.00036336950142867863,-8.680514724801469e-07,2.1886455670028226e-06,4.373806859803153e-06,-1.122105913964333e-06,0.0021625314839184284,
-0.00011321406782371923,-0.0001945735129993409,0.005732088349759579,-0.00027979345759376884,9.037411473400425e-06,-1.4027523320692126e-06,-0.00013429459067992866,-0.0076727112755179405,
-4.797783731191885e-06,0.008043075911700726,0.0006446891347877681,-2.197772346335114e-06,-6.632510121562518e-06,-5.93554705119459e-06,1.6812143144306901e-07,-0.0003824075683951378,
2.1833261598658282e-06,1.2847095831602928e-06,-1.562973693580716e-06,-0.0070127807557582855,-9.659861461841501e-07,0.007461292669177055,6.922223860783561e-07,2.5623206965974532e-05,
2.004670022870414e-06,-1.638308822293766e-05,1.7841810404206626e-05,-0.016032012179493904,-2.9895504667365458e-06,4.557236024993472e-06,-8.79504113981966e-06,-1.3375487469602376e-05,
-4.7474741222686134e-06,-0.045481935143470764,-2.420059172436595e-05,-8.28469364932971e-06,1.0393059710622765e-05,-1.6556679156565224e-06,1.0188548003498e-05,7.892043868196197e-06,
-1.0703699445002712e-05,-8.66698883328354e-06,0.003852550173178315,-1.0893494390984415e-06,-0.04617491737008095,5.523622803593753e-07,1.3410412975645158e-05,1.7921816834132187e-05,
2.8091080821468495e-06,1.4220202501746826e-05,-9.630595059206826e-07,-6.057407517801039e-06,-1.4636550986324437e-05,-1.3338428288989235e-05,5.28074087924324e-06,9.048736501426902e-06,
-0.002137859119102359,-0.005382686387747526,-8.711441296327394e-06,1.7510008092358476e-06,-3.516060678521171e-05,-1.8883481970988214e-05,-2.5346897018607706e-05,-1.2001974937447812e-05,
1.611255356692709e-05,-7.96010936028324e-05,-9.898343705572188e-06,7.87507542554522e-06,-7.084305707394378e-06,-2.959762787213549e-05,-2.4937206035247073e-05,-1.8827601024895557e-06,
-3.7595491448882967e-06,-2.6732334390544565e-06,-1.4149654816719703e-06,-8.990044193524227e-07,2.4612668312329333e-06,-2.809709076245781e-05,-2.1041687432443723e-05,-1.3151918665244011e-06,
-1.2024858733639121e-05,0.018610350787639618,4.023255314677954e-06,-4.957077635481255e-06,4.529201760306023e-06,0.008635119535028934,1.7303853383054957e-05,-1.5550434682154446e-06,
1.009307106869528e-05,-1.1271169569226913e-05,-1.3085914360999595e-06,-5.2437690101214685e-06,1.1614622962952126e-05,-2.239275272586383e-05,-2.0263478290871717e-05,-3.129549804725684e-05,
0.01687542349100113,0.0030646079685539007,-4.096285920240916e-06,2.2228718080441467e-05,2.172966196667403e-05,2.0068016965524293e-05,0.0059877983294427395,-9.95666687231278e-06,
4.71593884867616e-05,1.5657535186619498e-05,-7.558830475318246e-06,3.4428294384269975e-06,-7.167729563661851e-06,1.477738896937808e-05,1.0333978025300894e-05,-1.7300832041655667e-05,
3.3425309084123e-05,-1.0867871424125042e-05,-6.329442840069532e-06,-8.119753147184383e-06,-1.845273254730273e-05,1.7771231796359643e-05,2.1853409634786658e-05,-0.0175529345870018,
-4.936936420563143e-06,1.3638040400110185e-05,1.1699461538228206e-05,0.09246597439050674,-3.129756805719808e-05,4.822776099899784e-05,-3.223929525120184e-05,2.8799290703318547e-06,
-2.97086444334127e-05,-0.009232787415385246,-8.789704224909656e-06,-1.2499648619268555e-05,4.61581839772407e-06,-5.8814875956159085e-05,1.557132577545417e-06,3.20445942634251e-05,
-2.337910518690478e-05,2.5998548153438605e-05,-0.036010634154081345,-5.610696916846791e-06,-0.0008605925249867141,-8.639387488074135e-06,1.1340352102706674e-05,-1.1474382517917547e-05,
-5.5620850616833195e-05,5.87067952437792e-05,4.302667730371468e-05,6.785035657230765e-05,-2.3402606529998593e-05,2.100554047501646e-05,-4.5989352656761184e-05,4.150665336055681e-05,
0.05736057087779045,0.02900133654475212,-2.2599768271902576e-05,-1.559615702717565e-05,4.725392045656918e-06,-4.260579225956462e-05,4.5516222598962486e-05,4.670637281378731e-05,
-1.4404858120542485e-05,1.3043350008956622e-05,1.7783308067009784e-05,4.380599875730695e-06,-8.908466043067165e-06,-1.9120798242511228e-05,-8.047714800341055e-06,-6.793216016376391e-05,
-1.746045563777443e-05,-2.2349016944644973e-05,4.5009383029537275e-05,-2.8360902433632873e-05,-3.5610166378319263e-05,2.739137016760651e-06,3.786480374401435e-05,-2.4541179300285876e-05,
3.705751078086905e-05,-0.022278765216469765,8.610223630967084e-06,-1.205849457619479e-05,3.089186429861002e-05,0.0017991728382185102,5.662103376380401e-06,-3.244553226977587e-05,
-5.225482891546562e-05,-6.548630608449457e-06,-4.2076564454873733e-07,3.424139504204504e-05,-6.257260793063324e-06,-4.747061029775068e-05,-1.530425106466282e-05,-3.202681182301603e-05,
-0.014982898719608784,-0.005440067034214735,0.00010294831736246124,2.996868897753302e-05,-5.8274985349271446e-05,-8.021391295187641e-06,-0.03046920709311962,-2.7495627364260145e-05,
-1.3027997738390695e-05,6.437987758545205e-05,9.824532753555104e-06,-2.4213577489717864e-05,1.2412743672030047e-05,7.930821084300987e-06,2.0421772205736488e-05,3.633806045399979e-05,
-1.1363737939973362e-05,5.419754529611964e-07,-7.780837222526316e-06,2.12777540582465e-05,-2.2779782739235088e-05,-2.494802356522996e-05,1.366445667372318e-05,-0.028966011479496956,
-6.935809506103396e-05,-1.3741912425757619e-06,-1.3287771253089886e-05,0.001012505148537457,-0.03928380832076073,9.323994163423777e-05,3.534130519255996e-05,3.5900884540751576e-05,
-0.00011756953608710319,0.0028361682780086994,-0.00010012907296186313,3.9460122934542596e-05,6.461532029788941e-05,-7.508268026867881e-05,0.017684565857052803,-0.0015480018919333816,
-0.03757929429411888,1.3661117918672971e-05,0.0048459116369485855,4.0688908484298736e-05,0.0007516510668210685,2.2498979888041504e-05,-2.4475243662891444e-06,2.3257174689206295e-05,
-4.965702828485519e-05,-0.0018356990767642856,-0.02982792817056179,-0.001405128394253552,5.828081339132041e-05,4.2277720240235794e-06,-0.0016522194491699338,-8.130846981657669e-05,
-0.0017980674747377634,0.0008697842131368816,-4.5807806600350887e-05,-0.013680806383490562,-5.700306246581022e-06,-3.691061920108041e-06,-0.0025919026229530573,-4.05466380470898e-05,
-9.936267451848835e-05,0.001770361908711493,1.599048300704453e-05,-0.00012154538126196712,-0.053962644189596176,-4.7934441681718454e-05,0.00524675939232111,-2.5980569262173958e-05,
4.8385991249233484e-06,4.297408668207936e-05,-1.1132951840409078e-05,0.0014983200235292315,-8.42967419885099e-05,-0.001804908155463636,0.00037415215047076344,-0.001517297001555562,
-6.797914011258399e-06,0.0021507437340915203,-3.99330492655281e-05,7.863470818847418e-05,0.009777654893696308,0.0024136698339134455,4.172441549599171e-05,3.179868508595973e-05,
2.0711806428153068e-05,1.4588672456739005e-05,-0.0313975065946579,-4.592463665176183e-05,5.475700891111046e-05,1.7528613227568712e-07,-3.409085547900759e-05,-0.027559440582990646,
0.0028169085271656513,0.0013737463159486651,0.0045676748268306255,-0.0017154952511191368,0.0001107456992031075,5.36758525413461e-05,4.804312266060151e-05,-8.897835505194962e-05,
-4.435439404915087e-05,-0.0006038009887561202,-0.018901342526078224,6.47004198981449e-05,-2.7391752155381255e-05,8.594268001616001e-05,-2.66183906205697e-05,-0.00034637024509720504,
-0.002115233801305294,5.620917727355845e-05,-5.0031227146973833e-05,-0.0013331585796549916,2.53872149187373e-05,-0.0010385616915300488,9.032523666974157e-05,-0.0005623665056191385,
1.8221736581836012e-06,-1.3759147805103566e-05,-2.71117471584148e-07,0.01044423971325159,8.040605280257296e-06,1.7062691767932847e-05,2.86170205754388e-07,-1.5096769345745997e-07,
-1.0660479347279761e-05,-0.016112688928842545,-4.0368581721850205e-06,-2.185928451581276e-06,-1.816631993278861e-05,5.720291937905131e-06,5.981699359836057e-06,9.944871635525487e-06,
-3.5337918689037906e-06,9.676638001110405e-06,-0.019033942371606827,-1.9853649064316414e-05,0.01859995536506176,1.3410668543656357e-05,5.366686764318729e-06,1.41854598041391e-05,
6.311956894933246e-06,2.5396646378794685e-05,2.0226640117471106e-05,-1.6834215784911066e-05,-4.9536392907612026e-06,-1.4732782801729627e-05,-1.2165131010988262e-05,1.0887504686252214e-05,
-0.0471951887011528,0.00231011095456779,-7.942535376059823e-06,2.3988335669855587e-05,-7.932217158668209e-06,-4.159745003562421e-06,1.6511241483385675e-05,6.760889391443925e-06,
-2.71288172370987e-06,1.584663004905451e-05,1.3768216149401269e-06,-1.1603249731706455e-05,7.791340976837091e-06,-2.4579854652984068e-05,-2.0308923922129907e-05,1.932476379806758e-06,
1.0546275007072836e-05,6.5733061092032585e-06,-1.7745942386682145e-05,4.283542148186825e-05,1.5606521628797054e-05,4.99612360727042e-06,2.6923495170194656e-05,1.7764159565558657e-05,
-7.6785261171608e-07,-0.1047784835100174,-4.915137651551049e-06,5.8868026826530695e-06,4.8943566071102396e-06,-0.02145330049097538,1.6611453247605823e-05,-2.4317869247170165e-05,
-8.014698323677294e-06,-6.4149840000027325e-06,-9.928660347213736e-07,-2.9627988169522723e-06,1.9592029275372624e-05,-1.2823038559872657e-05,-3.473161268630065e-05,-3.6165300116408616e-05,
-0.028485355898737907,-0.03489604592323303,3.094928615610115e-05,1.3188970115152188e-05,-5.3611488510796335e-06,-1.6318019333994016e-05,-0.002524377079680562,-3.9331331208813936e-05,
1.4611460983360303e-06,2.9588888992293505e-06,-2.2695168809150346e-05,-5.01340025493846e-07,-1.0866183401958551e-05,7.364934390352573e-06,2.8853803542006062e-06,3.131725679850206e-05,
3.841149009531364e-06,-1.8124839016309124e-06,-1.5209902812785003e-06,-1.3862822015653364e-05,1.5680889191571623e-05,-2.8855067284894176e-05,-1.0021804882853758e-05,-0.0017259852029383183,
-0.002994114998728037,3.287712388555519e-05,0.004760858602821827,0.0009221123764291406,0.0011025998974218965,0.00139477732591331,0.01922077126801014,-0.013912588357925415,
0.0015972786350175738,-0.0008738433243706822,0.0027212300337851048,0.02347860299050808,0.018310977146029472,0.005033888854086399,0.0005539915873669088,0.005419951397925615,
0.00017578972619958222,-0.03357250243425369,0.00038291176315397024,-0.02061104029417038,0.001116791507229209,0.010316824540495872,-0.016461549326777458,0.015173424035310745,
0.005214945878833532,-0.0010456605814397335,0.00034950050758197904,-0.0069293491542339325,0.013371841050684452,-0.002012174343690276,0.003525653388351202,0.007904930971562862,
0.0013004614738747478,0.00026994917425327003,-0.02270588092505932,-0.001396883511915803,0.00046160680358298123,0.009583561681210995,-0.0006139645120128989,-0.008421022444963455,
-0.002436416456475854,0.0015321947867050767,0.014224091544747353,-0.011140754446387291,0.0031934520229697227,0.009985002689063549,-0.0015313515905290842,-0.006034015212208033,
-0.03494308143854141,0.005743969697505236,0.008317938074469566,-0.0025188480503857136,-0.0059895277954638,0.0008684287895448506,0.0007022443460300565,8.982930012280121e-05,
-0.05376092717051506,-0.0009472444653511047,0.013245133683085442,-0.030542368069291115,0.001000419957563281,0.002199881710112095,-0.0037254933267831802,0.0010973255848512053,
0.009931796230375767,0.023586198687553406,-0.0008970412309281528,-0.0026379767805337906,0.004772684536874294,0.03362122178077698,0.015186343342065811,-0.0020793862640857697,
5.012468318454921e-05,0.0005162522429600358,0.0022638931404799223,-6.279993976932019e-05,-0.003794613527134061,-0.009215785190463066,-0.0016476716846227646,0.001354707172140479,
-0.02175346203148365,0.00014994324010331184,-0.001548276050016284,0.018152648583054543,-0.004490858409553766,-0.00026211561635136604,-0.009593031369149685,0.0008294454892165959,
0.002004422713071108,-0.007298583630472422,-0.004364354070276022,0.00015489046927541494,-0.004688556306064129,0.00016661362315062433,-0.020767373964190483,-0.0006018247222527862,
-4.0459381125401706e-06,5.641464326799905e-07,-2.706864279389265e-06,0.03644077479839325,2.855425691450364e-06,4.899713530903682e-06,7.48777847547899e-06,6.222959996193822e-07,
-2.0024501736770617e-06,-0.028639035299420357,-5.477859303937294e-06,2.1266521343932254e-06,5.552441962208832e-06,7.259551694005495e-06,-7.852726412238553e-06,1.4286131772678345e-05,
-1.3501483408617787e-05,3.002665494022949e-07,0.06568731367588043,1.8775050136810023e-07,-0.02644563466310501,1.1781802641053218e-05,-1.72641703102272e-05,1.5072710993990768e-05,
1.7176656911033206e-05,-5.018376214138698e-06,1.8122174878953956e-05,3.803386789513752e-05,-1.8927712517324835e-05,-2.37341805586766e-06,9.429018973605707e-06,2.1674852632713737e-06,
0.06614267826080322,-0.0899396538734436,1.2153217539889738e-05,-3.3100450309575535e-06,5.457070528791519e-06,3.4026945741061354e-06,1.6493819202878512e-05,1.48002402511338e-06,
-3.9118322092690505e-06,3.4004020562861115e-05,-1.397301548422547e-05,-4.125337000004947e-06,-3.2003717933548614e-06,-5.3072931223141495e-06,4.887802788289264e-06,9.270191185350996e-06,
4.014651040051831e-06,-3.7205957141850377e-06,2.8670626761595486e-06,-1.2912357306049671e-05,-4.4334888116281945e-06,2.817045242409222e-06,1.0952851880574599e-05,4.577851541398559e-06,
1.1062809335271595e-06,-0.01759883388876915,8.421520760748535e-06,1.0066752111015376e-05,-6.69257178742555e-06,-0.029933961108326912,1.1243771041336004e-05,8.285628609883133e-06,
4.866008566750679e-06,-1.1641877790680155e-06,7.196578053481062e-07,-8.75966088642599e-06,1.3134250593793695e-06,8.697714292793535e-06,-1.7524473150842823e-05,-1.547738179397129e-06,
-0.028921237215399742,0.08325265347957611,4.42641248810105e-06,1.3028398825554177e-05,-1.1273275049461517e-05,-1.052413153956877e-05,0.0963720753788948,-1.0844845519386581e-06,
-9.975933608075138e-07,1.347575835097814e-05,6.195220521476585e-06,-8.69086852617329e-06,-1.3148562175047118e-05,4.711671863333322e-06,-2.2701165107719135e-06,6.506372756120982e-06,
-2.319635677849874e-05,-3.4432275697326986e-06,5.709032393497182e-06,-2.1388773348007817e-06,9.184904229186941e-06,-1.5097748473635875e-05,1.2427603905962314e-05,0.02360171638429165,
-0.011046847328543663,-0.02155713550746441,0.004946425091475248,-0.0004662835563067347,-0.0011257966980338097,-0.0012732723262161016,-0.0015512161189690232,-0.016017217189073563,
-0.006078230682760477,0.0005209591472521424,-0.018732627853751183,-0.0036523905582726,-0.004802667070180178,0.003557428251951933,1.8100474335369654e-05,-0.00110055401455611,
1.4777553587919101e-05,-0.0039052891079336405,-0.0010441516060382128,-0.008744752034544945,0.0002618490834720433,0.005735835060477257,0.0014944325666874647,-0.008099542930722237,
0.005545284599065781,-0.002060557948425412,0.0005447730654850602,0.004301849287003279,-0.0013637739466503263,0.009067822247743607,-0.0016522568184882402,0.013343789614737034,
-0.0004727521154563874,0.00211914861574769,0.00014008424477651715,-0.0003626988036558032,-0.0005172524251975119,0.020715484395623207,0.000889542221557349,-0.016682125627994537,
0.014256550930440426,-0.001831914996728301,-0.006697744131088257,-0.0008794608875177801,0.0007072199950926006,0.009306314401328564,-0.0011307660024613142,-0.003963157068938017,
-0.002892259042710066,-0.048101216554641724,0.0037198890931904316,-0.0009392612846568227,-0.007801784202456474,-6.164185469970107e-05,-0.0007151001482270658,-0.0002219361485913396,
-0.007670784369111061,-8.435862400801852e-05,0.010736841708421707,0.0058256168849766254,0.00025302093126811087,-0.00014311929407995194,-0.005412658676505089,-0.01823987253010273,
0.028966344892978668,-0.012416082434356213,0.0007321829907596111,0.011174263432621956,0.010568400844931602,-0.010992428287863731,-0.003319665091112256,-0.0007502972730435431,
0.0005712071433663368,-0.0011647003702819347,-0.0022188888397067785,-9.086862519325223e-06,-0.0019181945826858282,0.0025613217148929834,-0.0008713611168786883,0.0014949283795431256,
0.008269562385976315,-7.513064701925032e-06,0.0002818051725625992,0.0034969905391335487,0.012736045755445957,-0.0014498293166980147,0.01136876828968525,0.00011148561316076666,
0.00035839134943671525,-0.01861993968486786,-0.007125566713511944,-0.0010974849574267864,-0.008911188691854477,-3.793353971559554e-05,0.0166165754199028,-0.0006220626528374851,
0.001207767752930522,0.0006323582492768764,0.012176929041743279,0.00024658587062731385,0.005836912430822849,-0.02839796431362629,0.015088762156665325,-0.03129518777132034,
-0.01719130203127861,0.0005157245905138552,-0.002959036035463214,0.005881921853870153,0.01976991817355156,-0.0213495884090662,0.002984760794788599,-0.028640931472182274,
-0.0014203203609213233,0.011346685700118542,-0.0032791111152619123,0.003286190563812852,-0.00019255724328104407,-0.0001177881276817061,-0.006926542613655329,0.004819886758923531,
-0.006244855932891369,-0.008213157765567303,-0.00424767704680562,-0.031992003321647644,-0.01028304174542427,-0.004799503833055496,-0.005433406215161085,-0.012249479070305824,
-0.00035067868884652853,0.003193802433088422,0.005690011661499739,0.0010253962827846408,-0.007210437674075365,0.005755994468927383,0.0054725175723433495,0.003389288205653429,
-7.178543455665931e-05,0.09532767534255981,-0.006368632428348064,-0.016803354024887085,-0.001169985276646912,-0.0015061773592606187,-0.010644321329891682,-0.005018578376621008,
-0.007584379520267248,0.0009718718938529491,0.00550205959007144,-0.005181420594453812,0.009724822826683521,0.011514611542224884,-0.010864023119211197,-0.0008152404916472733,
-0.000420509313698858,0.0003122436173725873,0.0024585193023085594,0.006089992821216583,-0.004367169924080372,-0.00027222532662563026,-0.011913662776350975,0.006689729169011116,
-0.005338553339242935,-0.00913252867758274,-0.0021662311628460884,-0.004252273123711348,-0.0021237717010080814,-0.017294004559516907,-0.0013168621808290482,0.00289179221726954,
0.00026467160205356777,-0.0008952825446613133,0.004641679581254721,-0.00019024353241547942,-0.014014271087944508,0.012484016828238964,0.00040572884608991444,0.00113569269888103,
0.007341181859374046,9.631017019273713e-05,0.001165788504295051,-0.00760651845484972,0.005874104332178831,0.028331665322184563,-0.0011401267256587744,-0.0002453810884617269,
0.02658764459192753,-0.004918067716062069,-0.012141977436840534,0.0004129605076741427,-0.002483965130522847,-0.00444712582975626,-0.004158285446465015,0.0003567978274077177,
1.0509751291465363e-06,-3.108183648237173e-07,-1.523786636425939e-06,0.00975899025797844,0.055917516350746155,5.310972284178206e-08,2.389199948993337e-08,3.2595812626823317e-07,
3.454285604220786e-07,-0.008066356182098389,1.2116285006413818e-06,-2.7049507522747263e-08,-2.7418096237852296e-07,1.5706260114711768e-07,-0.06127924844622612,-1.7299053070019e-06,
-0.05690702423453331,-1.134099306909775e-06,0.01986178569495678,7.066584544190846e-07,-0.009443125687539577,-5.678356274074758e-07,4.37194209723657e-08,-1.5804320696588547e-07,
5.795811262032657e-07,2.196452896896517e-06,-0.03806973993778229,5.80907999392366e-06,1.098675056709908e-06,8.106791256068391e-07,9.541935241941246e-07,-4.175419405783032e-07,
-0.01797296293079853,-0.031487613916397095,1.5875319832048262e-06,0.05030367895960808,5.710719506168971e-06,-4.3605518840195145e-07,-0.01957644708454609,-2.7416589887252485e-07,
2.020657348111854e-06,1.0574919997452525e-06,-1.7799274019125733e-06,8.382033911402686e-07,-8.426516433246434e-05,1.3789522199658677e-06,-0.01700419932603836,-3.2791649573482573e-06,
-1.7702271293273952e-07,-6.844880999778979e-07,-4.749835511574929e-07,5.569978839048417e-06,-6.284305413828406e-07,-0.021395506337285042,-0.022955186665058136,-0.022533131763339043,
-2.5712108708830783e-06,0.0019779715221375227,7.180952366070414e-08,-7.95921494045615e-07,0.060533102601766586,-0.00978084933012724,1.5510528328377404e-06,1.2030335483359522e-06,
-4.3592149268079083e-07,-6.925316142769589e-07,-0.05446295812726021,-7.002183224358305e-07,8.165569624907221e-07,-8.218505627155537e-07,-1.5467919922684814e-07,-0.04251394420862198,
-0.007010640110820532,-0.006318491417914629,-0.0173418540507555,-0.03504205867648125,-1.4239948313843342e-06,1.135495949711185e-06,0.033749256283044815,0.0223886426538229,
8.666828144043848e-09,0.01909242384135723,0.053219426423311234,-7.825831289665075e-07,-4.298575220218481e-07,-9.197821526640837e-08,3.688573997351341e-07,-0.052871789783239365,
-1.6393873920605984e-06,-6.874635687381669e-07,5.878928845959308e-07,0.020903626456856728,-1.1273308473391808e-06,0.017886046320199966,-4.6120470642563305e-07,-0.006938817910850048,
-0.00010375691635999829,3.247004860895686e-05,9.821759886108339e-05,0.0018203555373474956,0.03134975954890251,-0.0001491805596742779,7.802507752785459e-05,-4.646134402719326e-05,
-8.480668839183636e-06,0.0015987629303708673,6.378250691341236e-05,-4.955743861501105e-06,-3.312355693196878e-05,-7.037763862172142e-05,0.0411352813243866,-0.002672023605555296,
-0.006668447516858578,0.00012622715439647436,0.0008667315705679357,-5.2474984840955585e-05,-0.002689855871722102,-3.176473546773195e-05,-2.7981701350654475e-05,7.795738201821223e-05,
-4.099123543710448e-05,-0.0042663756757974625,-0.013403845019638538,-0.0020359952468425035,8.828728459775448e-05,0.00012308653094805777,-0.0035612613428384066,2.0606990801752545e-05,
0.007187522482126951,0.006102185696363449,-0.00015160236216615885,-0.009547043591737747,-0.0001189114191220142,6.993954593781382e-05,0.00026419508503749967,-4.803007686859928e-05,
5.704715658794157e-05,0.0025689201429486275,-4.653879295801744e-05,-2.8023652703268453e-05,-0.007214998360723257,-1.2739716112264432e-05,0.0012789610773324966,-3.260577068431303e-05,
7.931613799883053e-05,1.9296961909276433e-05,4.2412411858094856e-05,0.003536949632689357,8.916961087379605e-05,0.00019875225552823395,0.003135416889563203,-0.0016372821992263198,
-1.170912855741335e-05,-0.0057935272343456745,-5.823991887154989e-05,-3.6848417948931456e-05,0.05512598901987076,-0.0021798040252178907,8.021709800232202e-05,-2.179050716222264e-05,
-8.946795423980802e-05,-8.792359949438833e-06,0.0012752276379615068,-1.4839421965007205e-05,-9.3720736913383e-06,-0.00010401901818113402,0.0001524787221569568,0.009846322238445282,
0.009151285514235497,0.0013981699012219906,0.0016990703297778964,0.020732177421450615,0.00013133387255948037,-0.00032313840347342193,-0.005443182308226824,0.0012855788227170706,
6.137578566267621e-06,-0.0003132113488391042,0.015258810482919216,6.279156514210626e-05,2.6577920380077558e-06,0.00014323822688311338,3.887501225108281e-05,0.03430923447012901,
-0.00331506528891623,0.00011458785593276843,1.9413902919040993e-05,0.005533692892640829,8.809089922579005e-05,0.0005851683672517538,-0.00012612805585376918,0.006974365562200546,
0.009095500223338604,-0.016726285219192505,0.03020486608147621,-0.00044419217738322914,0.0004452074645087123,-0.004099150188267231,-0.02677934616804123,-0.004977979231625795,
-0.02057347260415554,-0.0007503259694203734,-0.003925071097910404,-0.0017288306262344122,0.004530415870249271,0.008585336618125439,0.0014678004663437605,0.00411560432985425,
-0.0005920830881223083,0.002135033253580332,-0.002119923010468483,0.009189542382955551,0.0007910861168056726,-0.013617640361189842,0.009034213609993458,0.0014506353763863444,
-0.011802657507359982,-0.0016935652820393443,0.00038510956801474094,-0.012098905630409718,-0.015941279008984566,-0.013143016956746578,6.304148701019585e-05,-0.006703780964016914,
-0.001186822191812098,0.00010451766138430685,-0.007506928406655788,-1.3601656974060461e-05,-0.0001223474246216938,-0.026124201714992523,0.0028489665128290653,-0.025559553876519203,
-0.005082934163510799,0.004993036855012178,0.006624668836593628,-0.01256477925926447,0.002518625929951668,0.04895883798599243,0.0011361006181687117,-0.02284407801926136,
-0.01189722865819931,0.012017028406262398,-0.04787687584757805,-0.0059191077016294,-0.012395762838423252,-0.00043067813385277987,-0.0029704964254051447,-0.0005745631060563028,
0.026884978637099266,-8.549132326152176e-05,0.00036798042128793895,-0.0025828348007053137,0.001072730403393507,0.00019873421115335077,0.011770197190344334,0.025988472625613213,
7.407030352624133e-05,0.006730704102665186,-0.0004263115406502038,-0.009009646251797676,-0.0028287037275731564,0.03134806081652641,-0.015711721032857895,-1.8759201338980347e-05,
-0.001334077212959528,-0.0010641542030498385,-0.00011748593533411622,0.0004611874173860997,-0.0005436259671114385,0.0053382208570837975,-0.001586977276019752,-0.0024352138862013817,
0.00891538430005312,0.0004934017197228968,-0.00042585100163705647,0.007063447497785091,0.007548132445663214,-0.009532192721962929,-0.04444624483585358,0.0007540204096585512,
-0.00034783780574798584,-0.008942876942455769,0.010508575476706028,0.0003775673976633698,-0.013872097246348858,0.0003164229274261743,0.013299907557666302,-0.0016629495657980442,
-6.201508949743584e-05,-3.3766074921004474e-05,-8.646088826935738e-05,-2.1096100681461394e-05,-0.0003368266043253243,-1.4694235687784385e-05,6.419242708943784e-05,0.0001288550702156499,
-9.807765309233218e-05,-0.0009978980524465442,-1.7130276319221593e-05,-1.3210220458859112e-05,-2.937426688731648e-05,6.8190684032742865e-06,-0.00869336724281311,-0.017756685614585876,
0.03764526546001434,-7.200446270871907e-05,-0.006713566370308399,-9.518862498225644e-05,-0.001189647475257516,1.7521586414659396e-05,3.0409848477574997e-05,3.9088030462153256e-05,
-7.114020718290703e-06,-0.028217697516083717,0.008242645300924778,-0.013090886175632477,4.820458707399666e-05,-4.459140473045409e-05,-0.025573434308171272,-3.948502126149833e-05,
0.0019957784097641706,0.003348109545186162,8.705322329660703e-07,-0.008559148758649826,0.00030089193023741245,-1.5904046449577436e-05,0.004491089377552271,-2.751170313786133e-06,
0.00010407924128230661,0.024344427511096,-3.087502045673318e-05,-1.4815084796282463e-05,-0.026726895943284035,-6.729620508849621e-05,0.007928664796054363,2.667065564310178e-05,
2.606593170639826e-06,-1.2555013881865307e-06,2.7924676032853313e-05,0.031632330268621445,-1.0390178431407548e-05,0.00016297664842568338,-0.0005952127394266427,-0.0006416501710191369,
-2.3062233594828285e-05,-0.0021632330026477575,1.266980507352855e-05,-0.00014485639985650778,-0.0075239865109324455,0.0011387929553166032,0.00011853090109070763,-4.032035212730989e-05,
7.192415068857372e-06,-8.850955055095255e-05,-0.04805341735482216,4.841720510739833e-06,-5.990800491417758e-05,-5.840726589667611e-05,-0.0001222182618221268,-0.013009153306484222,
-0.0011709702666848898,0.0013484718510881066,-0.0009656540350988507,0.00906167458742857,5.399007932282984e-06,0.00015847905888222158,-0.002238489920273423,-3.960544927394949e-05,
-6.421503712772392e-06,-0.0028746630996465683,0.030030036345124245,4.897268445347436e-05,-4.414222712512128e-05,8.807071935734712e-06,-3.929476588382386e-05,0.014941789209842682,
-0.024585222825407982,4.454032932699192e-06,-1.1519284271344077e-05,-0.004023196641355753,-1.918249108712189e-05,0.00032597631798125803,3.446438495302573e-05,0.00554064242169261,
5.326572136254981e-06,-8.544527190679219e-06,-2.1054796889075078e-05,-0.006347654387354851,1.984593154702452e-06,-7.016220479272306e-06,1.3869846952729858e-05,1.4539062931362423e-06,
-5.146236162545392e-06,0.0063061704859137535,-1.414261987520149e-05,-1.6247651728917845e-05,-3.641884632088477e-06,1.884989433165174e-05,9.217507795256097e-06,-2.803281313390471e-05,
-1.461297051719157e-05,-5.667626737704268e-06,-0.023048439994454384,-6.537560693686828e-06,0.05450265109539032,-1.4324111361929681e-05,2.2518202968058176e-05,-1.2131315997976344e-05,
1.3007387678953819e-05,1.3382305041886866e-05,-1.520153455203399e-05,-4.8872927436605096e-05,1.322694242844591e-05,4.24408017352107e-06,-6.012582616676809e-06,-6.783453727621236e-07,
-0.010176148265600204,0.003663294715806842,-4.079255450051278e-05,-1.3353188478504308e-05,3.576078961486928e-05,1.3609026609628927e-05,-6.493857199529884e-06,-5.60647958991467e-06,
2.439418494759593e-05,2.1330075469450094e-05,3.8001389839337207e-06,-7.829002242942806e-06,1.2429752132447902e-05,-6.3909037635312416e-06,-1.479468210163759e-05,-7.924126293801237e-06,
9.229527677234728e-06,4.456954229681287e-06,-1.8155136558561935e-06,-3.3554122637724504e-05,-9.664662456998485e-07,-5.064530341769569e-06,1.9015909856534563e-05,1.1005368833139073e-05,
-1.673183032835368e-05,-0.02169954963028431,3.3751928185665747e-06,1.308999526372645e-05,-1.387137126585003e-05,-0.0003564674989320338,7.208147394521802e-07,-1.4544104487868026e-05,
6.535999091283884e-06,1.2545663594210055e-05,-7.56325971451588e-06,4.757826445711544e-06,7.078587259456981e-06,-5.1316237659193575e-06,-1.3454408872348722e-05,-1.1066543265769724e-05,
0.05969288572669029,-0.006382165476679802,2.7824638891615905e-05,-1.4180961443344131e-05,2.0343220512586413e-06,-3.401477442821488e-05,-0.004316703882068396,1.032040199788753e-05,
2.336227453270112e-06,9.054403562913649e-06,8.388849892071448e-06,-3.905771791323787e-06,4.948595687892521e-06,2.147763552784454e-05,-1.0024370567407459e-05,2.835961083746952e-07,
5.343687917047646e-06,3.2541890959691955e-06,1.1038759112125263e-05,-3.0316709853650536e-06,-1.2347253687039483e-05,2.011385004152544e-05,-2.420518740109401e-06,-0.08968816697597504,
-8.364251698367298e-06,-1.772963997836996e-07,5.064932793175103e-06,-0.004901035688817501,-8.47140135817881e-09,2.828742617566604e-05,1.4171681073094078e-07,-2.1789073798572645e-05,
-1.0748269232863095e-05,-0.005371036473661661,-5.229575208431925e-07,-1.675688872637693e-05,8.93187097972259e-06,2.172729182348121e-05,2.8230290354258614e-06,1.2418371625244617e-05,
-1.3307173958310159e-06,1.1252444892306812e-05,-0.019274907186627388,-3.4342865546932444e-06,-0.01938609406352043,8.145455467456486e-06,1.2781042642018292e-06,4.591976448864443e-06,
1.822601188905537e-05,1.756968595145736e-05,-1.4984855170041556e-06,-5.569416316575371e-05,-6.796850357204676e-06,-1.1909150998690166e-05,-2.5091447241720743e-05,-2.992148040448228e-07,
-0.03575124964118004,0.0856727808713913,-1.8445988416715409e-06,1.0702430699893739e-05,1.0981773812090978e-05,-1.171014901046874e-05,3.120318069704808e-05,-1.5921810700092465e-05,
1.3410176507022697e-05,1.8233868104289286e-05,6.817159373895265e-06,1.316841098741861e-05,-5.085652901470894e-06,-7.133888630050933e-06,2.9315526262507774e-05,1.0028132919615018e-06,
-5.120648438605713e-07,-7.3456999416521285e-06,-7.190632004494546e-06,-3.1022111215861514e-05,-2.6674529181036633e-06,6.596242201339919e-06,-3.803300569416024e-05,-2.4800245228107087e-05,
-1.0775449482025579e-05,-0.043177247047424316,6.6502602749096695e-06,2.903285167121794e-05,-2.908255510192248e-06,-0.012325442396104336,-1.743586290103849e-05,-6.26245036983164e-06,
-5.016160002924153e-07,7.714173079875764e-06,6.3584288909623865e-06,2.4529343136237003e-05,1.8392249785392778e-06,-2.1443045625346713e-05,-3.0291521397884935e-06,-3.074987398576923e-05,
-0.015363621525466442,0.06923569738864899,5.9002845773648005e-06,2.1485733668669127e-05,1.991025055758655e-05,-6.591775672859512e-06,-0.09164503961801529,3.3473188523203135e-05,
-1.8737590607997845e-06,-3.899654529959662e-06,2.5459550670348108e-05,3.0295376518552075e-07,3.217595804017037e-06,5.831642283737892e-06,-1.4859435395919718e-05,1.3697664144274313e-05,
3.351318810018711e-05,1.0273677617078647e-05,3.0768140277359635e-05,-1.0693071999412496e-05,-1.747590613376815e-05,-1.644139047130011e-05,1.5036383047117852e-05,0.010795710608363152,
-0.00014073372585698962,6.036262129782699e-05,0.0001353768166154623,0.00148923066444695,0.007912433706223965,8.734546281630173e-05,-3.818438926828094e-05,5.7583365560276434e-05,
4.036851169075817e-05,-0.002419636584818363,2.6825025997823104e-05,7.390718383248895e-05,-0.0002854187914635986,0.0004296224215067923,0.0006010538199916482,-0.045857641845941544,
-0.0023293294943869114,-8.432930371782277e-06,0.0009782486595213413,-0.00011993073712801561,-0.001570255495607853,-6.063285763957538e-05,7.043654477456585e-05,0.00011929988977499306,
-0.0001615168439457193,0.047051869332790375,0.0017097556265071034,-0.04126478359103203,1.4926187077435316e-06,0.0001602433912921697,-0.055314842611551285,9.416053217137232e-06,
0.0004711526562459767,-0.0005900015821680427,4.755901318276301e-05,0.018556982278823853,0.00034435902489349246,3.147877941955812e-05,-0.0015894492389634252,-8.627484930912033e-06,
-4.2787232814589515e-05,-0.04384943097829819,5.5671047448413447e-05,-0.00012522452743723989,0.005973632913082838,-2.7764041078626178e-05,-0.000216619111597538,0.000137215422000736,
3.621543146437034e-05,1.571161556057632e-05,-1.1389132851036265e-05,-0.05412951856851578,-3.040637784579303e-05,-0.002188998507335782,-0.003912403713911772,0.0008276943117380142,
0.00011444216943345964,-0.00041183619759976864,2.8924356229254045e-05,-2.7384821805753745e-05,-0.0005298548494465649,-0.0004502606170717627,0.0001970354642253369,6.955034768907353e-05,
0.00013317223056219518,9.3427712272387e-05,-0.008717824704945087,4.417502714204602e-05,-1.5334857380366884e-05,-4.806298602488823e-05,4.8226236685877666e-05,0.017351973801851273,
-0.003476128214970231,-0.0007219666731543839,0.0003473146352916956,0.0033998091239482164,-8.973156218416989e-05,-0.00044828979298472404,-0.0001120108863688074,0.0005450216704048216,
1.8408018149784766e-05,0.001272848923690617,-0.020677603781223297,-3.5963406844530255e-05,1.8976779756485485e-06,-8.108997280942276e-05,-8.850832091411576e-05,0.00566336652263999,
-0.05407799035310745,5.892499757464975e-05,0.00012154484284110367,-0.0044394745491445065,-2.4745282644289546e-05,0.001000941381789744,-6.146094528958201e-05,0.0018732747994363308,
1.8771754184854217e-05,-2.6494353733141907e-05,1.8803968487191014e-05,0.04437166452407837,2.9772683774353936e-05,6.6655525188252795e-06,2.4681938157300465e-05,-8.989797606773209e-06,
-5.168155894352822e-06,0.00562664307653904,-2.4070761810435215e-06,-2.779176429612562e-05,3.522195765981451e-05,9.63993625191506e-06,3.666461634566076e-05,-4.896662176179234e-06,
-3.7065525248181075e-05,3.114595165243372e-05,0.057490646839141846,-2.391448106209282e-05,-0.0043496605940163136,-5.0221351557411253e-05,1.3985346413392108e-05,3.243788887630217e-05,
2.043017593678087e-05,7.62860963732237e-06,-5.091435468784766e-06,2.2853415430290624e-05,-1.8384327631792985e-05,2.403652251814492e-05,-2.5995563191827387e-05,-2.355786091357004e-05,
-0.0691680982708931,-0.009365808218717575,-1.3193763379604206e-06,9.193110599881038e-06,-3.9476999518228695e-05,1.1095672562078107e-05,-8.565187454223633e-05,-1.8649092453415506e-05,
-7.819598067726474e-06,-3.487972207949497e-05,1.1288124369457364e-05,1.788025110727176e-05,3.528691377141513e-05,4.0751252527115867e-05,-3.7063102809042903e-07,8.56932092574425e-06,
-7.5652633313438855e-06,1.9961716191119194e-07,2.32700531341834e-05,5.914589928579517e-05,-4.6061755710979924e-05,-1.2590100595843978e-05,1.9457240341580473e-05,-2.885801950469613e-05,
-9.318446245742962e-06,0.016503090038895607,-9.592974492989015e-06,-4.190869276499143e-06,4.986432759324089e-05,0.0015141948824748397,-2.6361707568867132e-05,-1.2614040315384045e-05,
-4.8757832701085135e-05,-1.6572088497923687e-05,1.2074549886165187e-05,-7.708409611950628e-06,7.327495040954091e-06,2.598656647023745e-05,-2.7378795493859798e-05,3.1117466278374195e-05,
0.04520152136683464,-0.0020166542381048203,-2.946921540569747e-06,-1.436517050024122e-05,9.816300917009357e-06,4.1717750718817115e-05,0.010238646529614925,7.664824806852266e-05,
-1.2448384040908422e-05,3.5051674785790965e-05,-5.979791239951737e-05,2.7721811420633458e-05,-3.4102288282156223e-06,9.858209523372352e-06,-5.946006695012329e-06,-3.624815144576132e-05,
-3.793518408201635e-05,-2.0504126950982027e-05,1.4095628102950286e-05,3.163965811836533e-05,-1.4834026842436288e-06,3.6110010114498436e-05,1.5949777662171982e-05,0.017855755984783173,
3.118869244644884e-06,-2.3491609681514092e-05,-4.889342744718306e-05,0.005341735202819109,-0.010838640853762627,-1.3060414858045988e-05,6.414093604689697e-06,1.1641634955594782e-05,
6.226923687790986e-06,-0.003664773888885975,-1.0198055861110333e-05,4.159950549365021e-05,1.7773591025616042e-05,-3.66512467735447e-05,0.0005188077921047807,0.00041830065310932696,
-0.005297028459608555,-5.0956943596247584e-05,0.0013345751212909818,1.9745884856092744e-05,0.002940831473097205,-4.25154939875938e-05,-1.8112032194039784e-05,8.060325853875838e-06,
5.0834401918109506e-05,0.00043500587344169617,0.003050881903618574,0.00019947280816268176,-3.314088098704815e-05,-2.4670463972142898e-05,0.0003300366224721074,-3.992698111687787e-05,
0.0031965188682079315,-0.0031281032133847475,7.650602128705941e-06,0.0003318915842100978,-2.6937745133182034e-05,1.3815897546010092e-05,-0.0011373651213943958,1.8864389858208597e-05,
1.6945616152952425e-05,-0.00039832486072555184,2.127787593053654e-05,4.0093178540701047e-05,-0.0013411579420790076,-4.123187864024658e-06,-0.0008934826473705471,2.459977076796349e-05,
-3.265541863584076e-06,-4.443081343197264e-05,-9.580061487213243e-06,-0.0004350994131527841,-2.234080784546677e-05,-0.0015311029274016619,-0.0020402746740728617,-0.0012662246590480208,
-4.6008353820070624e-06,-0.0028702227864414454,-2.3578979380545206e-05,-1.732083001115825e-05,9.574179421178997e-05,-0.00010996943456120789,1.1588006600504741e-05,-2.0235482224961743e-05,
-2.5897320483636577e-06,-2.5164825274259783e-05,0.0038491315208375454,-6.896799459354952e-05,-5.550030618906021e-05,2.04673324333271e-06,-2.440367461531423e-05,0.00205633114092052,
-0.000943915918469429,-0.003737512743100524,-0.0010831273393705487,-0.061419934034347534,-5.4106571042211726e-05,7.339664989558514e-06,0.002718484727665782,0.0014749871334061027,
-7.83049699748517e-07,0.000860421045217663,0.009509068913757801,-9.753038284543436e-06,-4.470373096410185e-05,1.2108131159038749e-05,2.627092726470437e-05,0.026039598509669304,
0.00037156345206312835,-3.218699202989228e-05,-2.753671469690744e-05,0.0007826019427739084,6.742488494637655e-06,0.0009967510122805834,3.519348683767021e-05,0.004216987174004316,
6.966873479541391e-05,2.5237881345674396e-05,-9.895758012135047e-06,0.0027639383915811777,-0.04217810183763504,3.8911392039153725e-05,2.4838462195475586e-05,-1.2329216588113923e-05,
-1.6114767277031206e-05,-0.002456523245200515,-5.146197509020567e-05,-7.821371400495991e-05,4.2799703805940226e-05,-5.654135748045519e-06,-0.012620741501450539,0.003713113022968173,
0.019558563828468323,-3.0497303669108078e-05,-0.0022542302031069994,1.952740603883285e-05,0.003974162507802248,1.036173898683046e-06,-3.673970786621794e-05,-3.486274363240227e-05,
-4.165632708463818e-05,0.0063488841988146305,-0.040024567395448685,0.002820327179506421,-2.9950040698167868e-05,6.717733049299568e-05,0.004952933173626661,3.3487023756606504e-05,
-0.0032257733400911093,-0.0002747385296970606,4.2230207327520475e-05,0.046595606952905655,-9.955988207366318e-05,-1.3598372788692359e-05,-0.008968964219093323,-9.082154065254144e-06,
-6.15828757872805e-05,-0.004156757611781359,2.2656608052784577e-05,-7.22603072063066e-05,-0.02608591690659523,4.180286487098783e-05,-0.011076042428612709,-7.491383439628407e-05,
3.6461649415286956e-06,-3.179373379680328e-06,4.840027031605132e-05,-0.006130581721663475,4.053575321449898e-05,0.0009741836693137884,0.0051750182174146175,0.0025503269862383604,
-1.0751319678092841e-05,-0.004153769928961992,1.2029697245452553e-05,8.674222772242501e-05,0.003265333827584982,0.002980652032420039,-9.730949386721477e-06,-2.566606099208002e-06,
-3.866992119583301e-05,2.1207784811849706e-05,0.02419431321322918,2.8014464987791143e-05,-4.7296391130657867e-05,-6.328510789899155e-05,8.047591836657375e-05,0.04202236980199814,
-0.0018270398722961545,0.0008232789114117622,-0.003555369796231389,0.017214955762028694,-0.0002999034768436104,-2.7737964046536945e-05,0.005546186584979296,-0.00373140093870461,
-5.037307346356101e-06,0.0007217118400149047,0.04881616681814194,-4.7884954256005585e-05,-1.2866066754213534e-06,-3.5370094337849878e-06,1.974969927687198e-05,0.015248383395373821,
0.0048258062452077866,5.0614671636139974e-05,-4.672029535868205e-05,0.0010647765593603253,-1.6679978216416202e-06,-0.001219123019836843,-4.6159511839505285e-05,0.004855808336287737,
3.166015085298568e-05,9.07587764231721e-06,2.1968091914459364e-06,0.00019735081878025085,-0.0005764831439591944,-2.843250331352465e-05,-9.459939974476583e-06,-2.645138192747254e-05,
3.40761907864362e-05,0.0003214951138943434,-1.4810100879003585e-07,-3.1055034924065694e-05,-9.008818437905575e-07,2.2240254111238755e-05,-0.027108078822493553,0.00011852788884425536,
-0.0019491597777232528,5.4151034419192e-05,-0.004184055142104626,1.917082590807695e-05,-0.0016404653433710337,-2.994534770550672e-05,-3.967357315559639e-06,-4.223516953061335e-05,
6.348307124426356e-06,6.186656537465751e-05,-0.04889564588665962,0.0002088111941702664,8.363398592337035e-06,1.2404359495121753e-06,-0.0001492411392973736,3.192733493051492e-05,
-0.00034272600896656513,0.007747710216790438,1.6209747627726756e-05,-0.035423144698143005,-3.33206321556645e-06,6.667455454589799e-05,-0.001709107542410493,3.383591683814302e-05,
2.73831574304495e-05,3.736872531590052e-05,4.4255200918996707e-05,7.317485869862139e-05,0.014946403913199902,-8.20177374407649e-05,-0.0037278071977198124,3.8337264413712546e-05,
2.7518974093254656e-05,-1.0845456927199848e-05,1.203101419378072e-05,9.931179374689236e-05,-4.356490899226628e-05,0.0007178439991548657,0.002236791653558612,0.000678042066283524,
1.587921906320844e-05,0.0015753174666315317,-7.241111234179698e-06,-9.72921225184109e-06,-0.009374184533953667,0.004153022076934576,-1.7397673218511045e-05,-1.1194484841325902e-06,
4.134893242735416e-05,-3.8667290937155485e-05,-0.002116997493430972,-6.0011399909853935e-05,4.4943659304408357e-05,5.0248022489540745e-06,2.005108217417728e-05,-0.007746479008346796,
0.0012247037375345826,-0.00018444618035573512,0.00535623449832201,0.020056666806340218,-7.802271284162998e-06,-2.1272891899570823e-05,-0.008188329637050629,-0.003125295974314213,
-4.624355824489612e-06,-0.0005647428915835917,-0.026386933401226997,-7.042533979984e-05,-3.3430282201152295e-05,-1.961285488505382e-05,2.0551942725433037e-05,0.03505128249526024,
-6.458877032855526e-05,-1.2973057891940698e-05,4.78902984468732e-05,0.0011543200816959143,-2.447818042128347e-05,0.0006227227859199047,7.4908884926117025e-06,0.004737339448183775,
6.7279838731337804e-06,-1.6280932868539821e-06,3.537810334819369e-05,-0.004330860450863838,-6.536174169013975e-06,4.846742012887262e-05,-2.8486627343227156e-05,2.8170656150905415e-05,
-9.92516379483277e-06,0.00403025234118104,-1.3234193829703145e-05,-3.6235373954696115e-06,2.4662824216648005e-05,-6.028335519658867e-06,-5.503436113940552e-06,7.841574188205414e-06,
-1.4738100617250893e-05,-1.4985655980126467e-05,-0.0816425010561943,-2.1155059584998526e-05,-0.040613505989313126,1.8378263121121563e-05,-1.979324770218227e-05,1.7718450180836953e-05,
-7.633306267962325e-06,-6.984516858210554e-06,-2.154426738343318e-06,5.639110167976469e-05,1.9236516891396604e-05,2.258342647110112e-05,1.467360561946407e-05,2.6609170163283125e-05,
-0.046625908464193344,-0.0369592010974884,-1.3436472727335058e-05,1.0407289664726704e-05,-3.192910298821516e-05,1.73043881659396e-05,9.204633897752501e-06,-1.437035643903073e-05,
-2.4190618205466308e-05,-5.220056846155785e-05,-4.973273007635726e-06,-8.504593097313773e-06,3.1512437999481335e-05,5.097331268189009e-07,5.1818306019413285e-06,2.6608879124978557e-05,
3.80736673832871e-05,2.135405520675704e-05,-3.263259486629977e-06,7.100066795828752e-06,-2.7796579161076806e-05,-1.0999480764439795e-05,-3.7146521208342165e-05,-1.4569943687092746e-06,
-3.526462387526408e-05,0.008465009741485119,6.774720986868488e-06,-1.6934867744566873e-05,1.740239531500265e-05,-0.024361828342080116,1.8206637832918204e-05,-3.3838407489383826e-06,
-1.1284448646620149e-06,1.2686334116551734e-07,-4.151827852183487e-06,-3.438662679400295e-05,2.914094875450246e-05,2.524193178032874e-06,-1.6435695215477608e-05,2.919418693636544e-05,
0.0030227876268327236,0.025163568556308746,-6.054388450138504e-06,5.373964995669667e-06,3.3543208246555878e-06,-8.030842195694277e-07,0.03950900211930275,-7.703504525125027e-05,
1.4454337360803038e-05,1.456987956771627e-05,1.5731162420706823e-05,-2.4562919861637056e-05,-2.0243389371898957e-05,-3.375258074811427e-06,-3.2573152566328645e-05,1.7635686162975617e-05,
-9.394253538630437e-06,-1.547005376778543e-05,3.210614886484109e-05,-7.474164885934442e-05,2.1689052118745167e-06,-1.3209270946390461e-05,2.6818501282832585e-05,-0.012842743657529354,
3.0760995286982507e-05,6.878135536680929e-06,1.338564402431075e-06,0.008138664066791534,-1.5514456208620686e-06,4.256266402080655e-05,1.3574965123552829e-05,1.5198935216176324e-05,
1.4426217603613622e-05,-0.036104559898376465,1.9753304513869807e-05,-2.191397015849361e-06,3.200459832441993e-05,1.0010700179918786e-06,1.5569165043416433e-05,4.0067276131594554e-05,
1.9690232875291258e-05,-1.0534238754189573e-05,-0.007929007522761822,1.5016533325251658e-05,0.03198663517832756,1.405951024935348e-05,7.155585535656428e-06,3.455313708400354e-05,
-3.4910310660052346e-06,-6.887692143209279e-05,4.496942710829899e-05,-0.00016000545292627066,-2.497555033187382e-05,1.3960245269117877e-05,9.633818081056233e-06,5.2955374485463835e-06,
-0.007273195777088404,-0.02645616978406906,-1.2735215022985358e-05,-1.2121317013225053e-05,8.306712697958574e-05,-1.4289887985796668e-05,-1.2015581887681037e-05,-2.8290023692534305e-06,
-2.7985327051283093e-06,-9.366771701024845e-05,2.2297446776065044e-05,-5.6816650612745434e-05,1.577891998749692e-05,-2.7820879040518776e-05,4.750474909087643e-05,8.616532909400121e-07,
-4.309638370614266e-06,-5.127019903738983e-05,1.298687607231841e-06,1.292681531595008e-06,2.864969974325504e-05,3.0268620321294293e-05,-1.704203532426618e-05,8.772174624027684e-05,
-3.6817058571614325e-05,0.009231546893715858,1.4406859918381087e-05,1.4290037142927758e-05,-1.9531829821062274e-05,0.03536595031619072,4.349431401351467e-05,-9.574071555107366e-06,
4.1386436350876465e-05,1.4239058145903982e-05,-1.2035904546792153e-05,1.282407629332738e-05,-1.2137739986428642e-06,6.40669804852223e-06,-1.4328377062611253e-07,2.3221259937145078e-07,
-0.02755950763821602,0.020673271268606186,8.651187818031758e-05,8.97970221558353e-06,-3.6018034734297544e-05,-3.314450441394001e-05,0.029035527259111404,-3.512837793095969e-05,
-1.1974809240200557e-05,-5.613489338429645e-05,9.998400855693035e-06,2.0357607354526408e-05,-8.881592293619178e-06,4.255616204318358e-06,1.4526667655445635e-06,-1.7059677475117496e-06,
2.9487737265299074e-06,1.2519201845861971e-05,-9.25982567423489e-06,4.636086305254139e-05,3.391092104720883e-05,-1.8525726773077622e-05,5.620985120913247e-06,0.014342081733047962,
1.5739306036266498e-05,-1.532892019895371e-05,1.892842374218162e-05,0.011539946310222149,4.664737843995681e-06,3.441784792812541e-05,4.478225037019001e-06,-8.301891284645535e-06,
-6.912305707373889e-06,-0.004055572208017111,-2.74174763035262e-05,3.506078883219743e-06,1.388744294672506e-05,-7.07764274920919e-06,1.508489049228956e-06,-2.140256947313901e-05,
6.040768312232103e-07,-3.145126174786128e-05,0.03355396166443825,6.667079105682205e-06,-0.019830940291285515,2.0948622477590106e-05,-8.67675134941237e-06,9.363589015265461e-06,
-1.2497454918047879e-05,6.4301761995011475e-06,-2.4742928872001357e-05,-3.065548662561923e-05,1.667682681727456e-06,2.8465890864026733e-05,2.822565147653222e-05,7.924634701339528e-06,
-0.041153255850076675,-0.0039170291274785995,-3.0376584618352354e-05,2.6787020033225417e-06,3.712302350322716e-05,-4.625656856660498e-06,-2.3355998564511538e-05,7.83852556196507e-06,
1.9592513126553968e-05,-1.2943769434059504e-05,-5.056558165961178e-06,6.105043212301098e-06,-7.247214398375945e-06,-3.064476914005354e-05,-5.8149671531282365e-05,-1.3527490409614984e-05,
7.505845474042872e-07,-1.0504218153073452e-05,-5.855730705661699e-06,-2.0062258045072667e-05,2.3516281544289086e-06,-5.529271948034875e-05,-5.476997830555774e-05,-5.6392033002339303e-05,
-2.335676981601864e-05,0.032985273748636246,1.0625922186591197e-06,4.19482284996775e-06,-6.935204510227777e-06,-0.011829812079668045,1.1742382412194274e-05,-1.8651016944204457e-05,
-1.727471726553631e-06,-5.857111773366341e-06,6.6932057052326854e-06,-5.469722054840531e-06,1.8164517314289697e-05,7.764912879792973e-06,8.195998816518113e-06,-3.7188115129538346e-06,
-0.0634271577000618,-0.006871241144835949,1.170242376247188e-05,1.0731850125011988e-05,-3.491344614303671e-05,-1.5251013110173517e-06,0.004177760798484087,2.8261081752134487e-05,
-1.0846158602362266e-06,3.0061286452109925e-05,4.729534703074023e-05,4.006074505014112e-06,9.729131306812633e-06,1.2827467799070291e-05,1.1092882232333068e-05,-2.121968918800121e-06,
-2.5074461518670432e-05,2.7426199267210905e-06,-5.438029802462552e-06,4.501185321714729e-05,-2.621760177135002e-05,3.274905338912504e-06,1.3695473171537742e-05,-0.07789098471403122,
-0.1387207955121994,0.0010511436266824603,0.10282555222511292,0.022899048402905464,-0.04469064623117447,-0.40722352266311646,0.07539266347885132,-0.016257349401712418,
0.29298800230026245,-0.010271444916725159,0.17166776955127716,0.17778441309928894,0.059659138321876526,0.2234600931406021,0.00211213412694633,-0.09311467409133911,
0.0012137660523876548,-0.22590409219264984,0.04202922433614731,0.1252024620771408,0.005992456339299679,0.23614463210105896,0.32016149163246155,0.25617578625679016,
0.005003832746297121,-0.06156802922487259,0.03507860004901886,-0.10368310660123825,0.25866928696632385,0.07771232724189758,0.022997938096523285,-0.34539222717285156,
-0.033677078783512115,-0.2069406658411026,-0.33971107006073,-0.07541417330503464,0.07480008900165558,0.0023065716959536076,-0.05805988982319832,0.15039277076721191,
0.18819382786750793,-0.042320720851421356,-0.2515007555484772,0.28993624448776245,-0.01951172947883606,-0.20144502818584442,-0.0333152711391449,-0.25777724385261536,
0.08437303453683853,-0.011139463633298874,-0.13154277205467224,-0.07404551655054092,0.06682362407445908,-0.04075433686375618,-0.03517160192131996,-0.041420500725507736,
0.07096951454877853,-0.013818414881825447,-0.009492254815995693,0.17579270899295807,0.026307307183742523,-0.03256684169173241,0.13861548900604248,0.14755254983901978,
-0.04638296738266945,0.1323579102754593,-0.00844071339815855,0.17697088420391083,0.014149707742035389,0.21019305288791656,-0.18981967866420746,0.09839943051338196,
0.021376434713602066,-0.017666812986135483,0.06243480369448662,0.0326300747692585,0.1331840455532074,0.1916966587305069,-0.25829148292541504,-0.003041675081476569,
-0.062003374099731445,0.033369001001119614,0.02355988696217537,-0.1662130355834961,0.03232942894101143,0.10347285121679306,0.08664017915725708,0.006266892421990633,
-0.004668883979320526,-0.1267169564962387,0.16070115566253662,0.011376282200217247,-0.08779044449329376,-0.018885010853409767,0.035239458084106445,-0.030234910547733307
};


#endif /* USE_WEIGHTS_FILE */

#ifndef USE_WEIGHTS_FILE

#define WEIGHTS_dec_dense1_bias_DEFINED
#define WEIGHTS_dec_dense1_bias_TYPE WEIGHT_TYPE_float
static const float dec_dense1_bias[96] = {
-0.052786871790885925,-0.2712861895561218,-0.0633070170879364,0.008762434124946594,-0.03747374564409256,-0.21052899956703186,0.055568162351846695,-0.15789251029491425,
0.0020707135554403067,-0.0011370218126103282,0.20501911640167236,0.06773581355810165,0.1426297277212143,0.16478362679481506,-0.0010960595682263374,-0.0603644959628582,
0.022469433024525642,-0.08955204486846924,0.00955212116241455,0.11369793117046356,0.011110430583357811,-0.09158004075288773,0.11403259634971619,0.1514744758605957,
-0.011441928334534168,-0.057593245059251785,0.05253774672746658,-0.006710892543196678,0.11278633773326874,-0.07928616553544998,-0.0010522566735744476,-0.03963882103562355,
-0.02188948728144169,-0.09797593951225281,-0.05953747406601906,-0.031063610687851906,0.02620602771639824,-0.039620786905288696,-0.08385440707206726,-0.018418382853269577,
0.0428815595805645,-0.08578565716743469,0.13427387177944183,0.08008681237697601,-4.819562309421599e-05,-0.19287754595279694,-0.06684764474630356,-0.14920732378959656,
0.09774854779243469,-0.13307467103004456,-0.08876866847276688,-0.05340871587395668,0.0675482228398323,-0.042537786066532135,-0.08850211650133133,0.0015253934543579817,
-0.21808543801307678,-0.014084071852266788,-0.19119060039520264,0.13155797123908997,0.022212591022253036,-0.022469041869044304,0.10141132771968842,0.1471833437681198,
-0.019912298768758774,0.10207804292440414,0.020878419280052185,0.02648506686091423,-0.03331241011619568,-0.17965847253799438,-0.10836030542850494,0.005043623503297567,
0.01907523348927498,-0.022333716973662376,0.008360525593161583,0.01550549827516079,-0.007812116760760546,0.0943959578871727,-0.13937829434871674,-0.05700425058603287,
-0.044282834976911545,0.07115766406059265,0.003117367159575224,-0.11157772690057755,-0.06679365783929825,0.03719991445541382,0.15963146090507507,0.005767692346125841,
-0.005406531970947981,0.16359390318393707,0.15005938708782196,0.024767238646745682,0.010909412987530231,0.05192131549119949,0.14309723675251007,-0.01992592215538025
};


#endif /* USE_WEIGHTS_FILE */

#ifndef USE_WEIGHTS_FILE

#define WEIGHTS_dec_glu1_weights_int8_DEFINED
#define WEIGHTS_dec_glu1_weights_int8_TYPE WEIGHT_TYPE_int8
static const opus_int8 dec_glu1_weights_int8[4096] = {
-89,11,-28,-10,74,-60,100,0,
-15,26,-123,-6,9,6,2,-90,
6,-18,-4,-14,29,22,-5,1,
-32,-62,22,-29,17,19,2,4,
3,-34,91,38,-57,72,14,-48,
11,13,20,-33,11,22,-5,-26,
-15,6,15,-11,5,-15,-11,-14,
2,18,43,-15,-27,-25,22,3,
-6,24,44,11,-10,-59,12,-64,
13,-16,41,-22,-68,-5,-34,-9,
-8,22,-1,-1,-28,6,26,27,
-39,-30,0,-35,-24,-19,-12,10,
2,39,-44,18,42,-49,11,-24,
0,18,-13,-41,-9,-1,10,-9,
-2,-7,12,3,-60,-8,-19,-29,
0,39,-28,10,-16,2,-17,-3,
18,-44,-2,-19,-1,1,-18,-1,
7,76,2,34,-7,-22,17,-2,
25,16,-4,-8,-1,56,10,61,
-8,6,-13,-7,-33,-57,4,35,
8,21,15,-15,4,-16,37,-88,
-3,-32,24,-6,-29,-4,-23,-24,
-3,8,13,7,-50,-47,-20,8,
41,-13,10,3,9,9,-34,-3,
10,61,-6,6,-11,-10,-6,-15,
15,3,20,-10,123,6,9,-29,
-5,6,41,4,5,-15,8,1,
23,-30,-27,29,-2,74,42,22,
-24,-26,-5,30,25,-6,-66,-1,
13,9,-7,15,24,-8,-21,59,
-10,-9,3,-14,-7,93,-15,43,
-3,17,-20,75,-5,-15,-32,127,
-13,14,-15,-18,-19,57,15,-21,
23,0,12,38,22,-1,7,-10,
-3,-11,-2,6,7,-17,14,31,
-2,12,-10,-4,31,-18,-23,-11,
2,18,10,17,7,80,-11,57,
19,37,23,-9,19,-18,26,10,
9,8,-113,-16,11,26,30,-100,
39,6,-43,14,5,20,40,35,
52,4,-6,6,20,14,16,-19,
-12,-39,11,-32,2,2,-12,9,
7,-1,4,-1,43,-37,-4,-36,
-27,-15,42,49,-14,23,3,15,
11,-21,-9,39,4,13,4,-41,
-1,18,6,-12,-38,-4,-19,1,
26,-5,11,-9,4,49,-15,39,
-35,9,-28,44,10,3,-7,4,
29,-2,-66,2,-21,19,-65,18,
-27,18,-54,-15,15,10,0,17,
14,17,19,-21,-13,-82,-16,47,
102,27,29,32,-11,-11,-21,19,
20,17,-8,18,-15,66,-13,-3,
-14,28,-3,-16,-30,-7,67,45,
18,3,13,11,-52,2,28,-5,
-14,82,18,12,-86,-10,9,11,
28,-12,27,-6,6,25,18,-52,
-2,-7,-34,-14,47,-28,29,-8,
-5,7,-7,16,-3,-41,-72,9,
31,14,-1,19,13,22,-8,36,
-53,11,12,39,11,118,-58,-6,
13,-68,18,11,-19,17,11,-13,
11,-17,0,-2,-57,-72,10,20,
-35,97,-8,17,-20,-40,-2,-7,
-17,-19,4,-74,30,75,46,-6,
6,1,19,-21,47,30,32,27,
-57,3,2,22,39,13,6,-7,
2,31,92,24,34,26,2,87,
8,-23,7,12,-32,11,8,37,
9,9,-1,-8,-44,21,39,18,
-21,34,66,51,2,-2,1,-20,
-23,-43,23,12,2,-50,13,14,
-107,7,-53,2,8,23,-12,-71,
-51,0,-26,-9,-26,-45,-1,-32,
-1,27,-8,-5,28,-18,5,0,
16,-50,6,20,-62,-13,8,-22,
5,31,27,-9,38,-5,9,17,
0,-43,3,-19,24,32,-18,-21,
-122,-7,9,-77,16,23,-76,-2,
-3,53,-74,29,-28,-48,-25,41,
92,1,-9,9,49,-9,19,-112,
-33,-20,-72,-16,26,-38,3,-61,
-6,63,11,51,-21,-3,-5,-24,
21,11,-27,-34,-45,-84,-3,8,
6,-14,35,-12,-14,5,-42,13,
49,16,-14,34,-9,4,18,-23,
-32,-30,0,43,48,5,-26,12,
34,38,-27,15,-11,-32,-50,-13,
47,-53,-7,-29,-23,20,12,-31,
-33,-9,1,-14,-32,-23,8,-35,
-5,-11,-44,0,17,-3,-11,-2,
16,24,9,-24,-3,29,40,-49,
-27,3,-19,20,-8,-2,-24,31,
24,15,7,29,-11,-22,-26,-7,
-82,-2,27,-47,-5,61,10,-2,
-13,65,-12,-4,2,0,-31,115,
-17,8,-20,-10,12,63,39,6,
-21,8,-13,-3,15,86,44,40,
-11,-8,58,-36,-25,2,-11,-20,
17,-3,34,33,14,-5,16,-19,
16,39,30,-2,-9,127,-30,23,
6,0,-20,-37,-3,93,-29,15,
4,16,-66,-6,21,19,-18,11,
-21,-24,-7,-25,33,23,19,-11,
-24,-14,46,83,7,11,21,11,
-4,-8,-35,-94,-7,-9,-3,2,
30,-52,-6,15,-80,10,50,-19,
-30,9,81,11,-8,2,9,-50,
4,-34,-17,0,-1,-38,4,20,
15,21,4,31,6,-58,21,36,
11,-10,-57,20,-1,17,-63,-29,
-6,-20,14,115,13,33,-44,20,
22,4,-14,-19,5,21,-34,15,
17,30,2,1,19,-13,-48,13,
59,-26,18,-19,52,-29,-30,-99,
-50,-55,-49,-43,20,-40,-22,18,
8,2,64,-28,-10,44,-7,2,
12,2,-54,-37,64,61,-5,3,
31,3,15,11,-19,20,-20,-1,
16,-15,-13,-2,-76,25,-21,11,
55,-1,-27,-25,-22,9,-4,-35,
-53,-21,78,23,-2,-19,37,-39,
-12,5,-6,9,-20,17,-10,-7,
-51,35,-8,-41,20,101,-16,19,
-24,30,-11,-10,-4,86,4,10,
-2,7,9,8,-9,127,-24,-10,
28,33,-47,-35,-22,13,14,-5,
21,-45,33,6,-32,-43,-36,5,
52,36,23,8,34,19,-20,42,
-6,-4,12,-12,97,2,49,-2,
-24,-29,-46,-18,25,8,-1,-10,
-5,37,-15,12,15,-8,-16,6,
-8,32,-23,-3,43,4,0,-53,
11,-27,6,11,-61,83,0,-22,
27,23,51,26,-16,15,11,-11,
33,-65,26,103,1,9,6,-18,
-60,-2,17,-38,-32,28,-32,4,
14,7,-7,0,20,-29,9,-49,
-10,44,4,49,26,-10,16,-26,
-53,-37,16,14,3,15,5,-102,
-48,21,-5,-27,0,28,-21,-108,
2,-15,-25,6,27,51,-29,1,
-59,-27,26,21,-40,14,-22,5,
-13,21,8,-15,36,9,0,-1,
29,-75,-20,-35,-20,-83,-23,81,
-9,-4,-3,-9,17,-30,-11,24,
5,-4,-6,16,6,-7,8,121,
-35,-43,23,92,7,17,-1,-32,
-38,-2,1,-28,-11,14,5,-29,
8,7,11,16,22,73,37,-67,
-18,-33,22,22,21,24,-2,-7,
-15,-26,-24,-38,1,-9,20,32,
-11,5,43,-43,-2,27,11,-20,
3,-6,-2,17,-7,67,-39,-25,
-5,5,25,6,10,-9,13,2,
-28,-30,60,23,-2,-12,53,-6,
-15,-46,31,98,1,-18,-55,3,
5,37,-7,-5,36,15,-19,38,
27,5,39,90,9,-33,-21,-4,
34,3,-47,96,-6,2,2,-16,
30,3,14,-10,2,0,-46,18,
-17,-1,-3,9,13,39,-41,-20,
12,18,-23,10,22,36,30,13,
76,-10,12,-72,44,11,8,3,
5,-9,19,-49,-20,9,28,-48,
1,1,-6,1,-10,9,-42,21,
-10,-3,-3,19,-2,15,-26,-15,
-10,38,59,-25,4,17,-108,-21,
-51,17,-118,22,9,-69,2,-37,
17,-5,97,32,-6,29,-20,6,
2,-22,-10,5,6,-8,4,-1,
0,-9,-35,-31,-3,-2,0,3,
-34,-13,-17,93,33,9,61,18,
12,1,77,-16,0,-62,-1,31,
0,-8,-15,-1,-4,-5,2,10,
16,68,2,-37,8,-6,-1,-5,
-25,-42,5,20,-20,30,-19,18,
13,-6,-10,-4,34,-13,7,-15,
-1,0,18,6,-6,-8,-20,11,
-34,-23,-85,22,3,-1,-14,-5,
-90,30,-21,-13,-85,-10,-19,39,
0,20,-80,26,16,-5,-8,-14,
-39,31,-16,-16,12,29,2,1,
-104,11,20,1,-6,2,-3,-2,
-10,-38,42,3,-2,40,24,42,
-17,9,-7,13,-9,-2,34,-127,
-18,1,-11,-7,-21,6,18,32,
4,-26,-1,29,10,5,-9,-9,
-34,-28,0,-20,-17,-4,87,8,
25,9,-20,3,14,46,-56,-21,
5,6,-32,-2,-1,12,-13,22,
-56,-15,7,35,20,19,2,-23,
31,5,1,-49,21,26,48,33,
-10,6,15,12,77,18,12,-7,
28,17,38,20,22,11,16,0,
-45,23,-32,21,-6,0,-1,-72,
14,-4,9,1,-27,-33,41,-2,
35,34,-4,-17,19,17,-22,31,
5,11,-1,-14,0,-38,28,-31,
-5,-25,64,43,36,-1,56,-52,
-120,-9,-26,2,-17,37,17,9,
6,35,5,29,38,-31,3,19,
-47,-27,25,15,-27,15,-7,-7,
-8,46,10,12,-48,2,8,20,
-10,-8,1,-4,-45,15,13,8,
-28,-11,-35,-47,-6,-9,-2,-10,
-49,-49,-4,-55,-30,-40,-29,-7,
-28,37,49,8,-47,-26,18,7,
22,-15,-11,5,-19,-27,13,44,
-9,-76,1,25,-41,-42,15,30,
-44,-37,-10,90,-19,-21,3,45,
-5,-62,9,-2,36,40,28,38,
9,-1,0,0,-48,-1,-29,-20,
-18,5,-23,-9,-56,-63,-46,-59,
-23,-90,-36,6,9,-15,-15,-8,
23,61,37,-13,13,7,37,-2,
109,-12,10,-1,-4,43,41,-29,
13,38,-42,-9,68,8,97,-7,
10,53,16,11,5,-2,38,15,
12,12,3,-6,10,43,6,-13,
8,-30,-11,49,11,3,-7,127,
24,-20,-31,23,-5,-53,-26,32,
-33,-1,-73,110,17,4,-9,127,
-3,13,24,105,-3,14,-29,127,
11,5,-8,-21,49,-12,-27,13,
15,-5,17,-7,69,0,-13,-20,
29,-25,15,-15,30,-16,5,-10,
64,-23,-24,-16,61,-15,2,-4,
4,3,12,-2,-23,-17,51,14,
10,-24,85,-2,-63,-12,104,-34,
2,-17,63,-86,8,25,32,-23,
3,-18,-33,-24,39,7,-41,28,
-11,-7,-30,-11,0,-14,2,-14,
11,-20,-21,17,8,4,-63,16,
-32,-22,30,13,-1,-27,-18,15,
25,21,-15,-48,34,-56,41,29,
-4,-19,-1,-2,-1,1,-24,17,
-6,1,17,1,-18,1,-4,12,
8,74,-4,27,-1,61,-2,15,
33,19,4,-54,16,-41,-22,38,
5,10,-5,21,-20,-4,3,28,
-18,47,-40,-21,-22,16,-57,78,
-31,-16,-78,20,17,-28,-23,-39,
10,-2,-36,14,96,-3,-3,43,
1,-7,-17,23,-40,-3,6,2,
-29,-18,-2,6,-77,-37,24,3,
-72,-5,-46,9,-64,-19,3,8,
-22,10,7,21,-6,11,29,-9,
57,-15,20,3,8,-31,-26,6,
31,15,17,17,63,-127,-17,24,
20,-27,-22,43,6,-24,19,-5,
33,2,26,-19,-25,-22,31,-55,
-27,19,15,-17,-12,9,46,-8,
-20,-36,-77,-52,-48,-71,-14,5,
-54,-75,-13,3,-37,-12,-15,3,
-4,-19,31,9,-6,38,52,-50,
-82,-27,-55,-1,43,13,65,-14,
35,6,-33,27,35,3,-52,40,
43,53,-20,11,12,30,-3,11,
6,-2,-12,-10,-17,-9,-50,25,
-93,-5,45,50,-23,28,27,-48,
31,-38,18,21,3,-24,76,19,
17,-18,-23,27,-22,27,61,-3,
-46,6,2,-13,-7,51,4,21,
-16,27,20,72,-15,-114,-7,-84,
-15,50,-10,38,-48,-40,6,-22,
23,-29,-33,13,-9,6,25,-29,
-24,-6,25,-4,2,12,8,-9,
-25,-28,51,-34,47,15,42,2,
-63,-18,-34,-6,-32,-21,-53,-33,
40,26,-13,33,-16,36,19,-1,
-11,-1,1,-8,-32,4,-48,-12,
16,-67,1,-48,-3,-1,3,-18,
-27,-102,10,27,-59,-52,5,55,
-25,-25,15,13,3,-50,3,103,
-17,25,-9,-22,31,-36,3,27,
-16,-25,15,-13,20,44,-3,-33,
-32,-28,-14,32,-1,-44,-10,-12,
-35,-17,17,-20,-14,-44,15,-25,
-1,-12,-2,9,6,-16,1,16,
-39,30,33,-31,-9,-11,-16,18,
16,23,48,-17,-10,-3,63,16,
9,14,-36,-20,-3,34,8,-22,
8,13,67,14,-15,-4,19,-16,
-27,-45,-3,5,-38,-30,-21,23,
-40,49,-43,104,-9,22,-94,111,
50,-14,-32,23,-5,48,58,71,
0,-7,14,-9,35,-41,15,43,
-13,54,-36,-10,-11,91,11,46,
-4,-20,-53,0,18,-14,-8,-27,
49,-17,6,46,54,9,20,11,
24,3,-11,8,3,-19,-32,19,
15,99,-95,-10,-34,41,-16,-26,
-18,44,18,42,-3,5,59,-47,
15,-29,48,26,-13,-50,-15,78,
-3,-24,-110,0,9,1,16,-2,
24,21,5,-47,1,-6,1,18,
13,23,14,-1,18,3,18,-6,
24,18,-59,-50,-16,13,12,12,
8,-1,-12,5,-30,-38,-6,-82,
12,52,-23,-80,1,-1,4,-33,
0,38,-23,9,0,29,-61,8,
-8,20,21,-24,-7,44,6,-18,
10,17,0,-22,9,29,-21,-39,
-9,-16,58,42,-2,28,-62,-1,
-5,28,-63,-3,-24,-58,-57,51,
-34,-61,-42,-87,8,-71,-107,-2,
-7,18,-8,-15,-64,8,-37,-92,
73,-50,5,-17,16,22,-19,3,
-94,-14,15,-6,-91,-38,-20,4,
-17,2,7,2,-42,-41,-13,-10,
15,1,-13,2,-46,-52,-23,-12,
-25,-1,-95,-34,-9,35,7,4,
-3,-20,-34,55,-7,-53,-35,55,
15,7,8,11,-6,-21,-19,-14,
-61,-68,-15,7,-36,-28,9,16,
-69,48,-26,10,1,114,-39,-9,
1,-29,-24,-59,-52,-57,9,-2,
-29,-11,4,19,7,24,17,-8,
22,1,-13,-31,-44,-33,42,-1,
-6,-3,-21,11,46,18,1,51,
22,-3,-21,-49,81,9,-37,47,
11,-20,-36,46,-10,18,27,20,
-3,-26,14,-6,41,12,-32,19,
-59,-31,-72,2,15,-16,-14,2,
27,46,43,-6,35,66,-36,-9,
28,-47,-14,30,-11,-18,12,22,
-31,52,36,2,10,-41,-38,-16,
-5,28,6,-8,-58,-7,-26,-13,
15,-1,-9,-7,19,-9,18,-13,
7,-8,-77,3,8,18,4,1,
22,-15,-45,-1,-18,30,-13,-11,
21,19,35,0,-49,-25,-46,-24,
-1,-4,-25,5,16,-39,-60,-4,
-33,2,-3,-20,-45,28,-88,-36,
-19,35,-67,-26,17,-22,0,14,
-35,26,8,-8,-59,-70,-15,61,
83,-31,-28,-18,-30,-13,3,-26,
-43,19,19,-14,-2,-5,-5,51,
-2,-13,-6,-15,-14,1,0,-6,
-3,22,13,18,-21,-69,-38,12,
14,20,-19,24,22,-44,-56,8,
-25,-6,-23,-15,-8,-13,-3,-44,
11,-45,-25,-8,-17,-6,-3,-8,
16,-4,-38,5,-14,25,43,-8,
57,-4,7,65,15,-4,-51,-9,
6,-19,6,2,-3,19,26,10,
5,-35,-8,-2,-11,-1,-2,14,
-34,-13,37,36,-6,-41,-3,113,
-29,-30,17,43,-13,32,1,-23,
1,-20,-25,15,16,-41,13,25,
14,-14,-32,21,-7,-5,-38,-26,
-19,5,-21,29,12,-13,14,-30,
17,36,3,-14,-37,-9,25,9,
17,0,-28,-12,11,0,-4,27,
-15,-11,10,-9,9,-17,14,0,
21,-31,-57,-72,17,25,43,-9,
-11,6,-27,1,29,-17,-20,-21,
10,9,14,27,-9,26,23,12,
-28,-26,-72,-49,3,5,10,4,
3,-3,-14,8,-24,3,-14,-3,
0,19,52,58,66,39,-18,53,
-30,-4,7,28,-11,-28,-36,-55,
-48,-17,-66,-63,15,-2,-20,23,
-3,-59,35,35,14,46,-52,36,
31,8,49,-86,-1,-6,30,29,
-127,0,-7,25,-19,23,23,-65,
4,1,-25,19,-5,-4,57,15,
36,0,3,-51,-31,-64,-50,51,
12,-42,-28,3,17,-15,-27,-28,
-41,27,-19,7,-83,-46,11,-88,
16,43,23,-39,-1,7,-20,-26,
-17,19,27,3,-68,52,17,8,
56,-10,48,-43,26,8,45,1,
-31,-27,33,-20,-45,-54,21,2,
-2,-15,-47,7,16,-28,15,-6,
13,26,-94,0,-9,64,-17,48,
-112,-17,-68,9,-16,-28,-77,-52,
-5,-1,14,-13,-15,-48,55,7,
-43,2,-84,-4,-6,-25,33,34,
25,-53,-61,-2,-11,-66,-38,-18,
24,28,-5,10,45,-1,20,13,
-5,5,-9,-26,-59,-60,5,11,
-6,-24,-8,21,-1,-127,-1,3,
60,1,49,20,30,29,15,38,
48,-30,116,-15,33,18,-29,22,
47,-44,-65,19,-25,-46,-9,3,
-65,-28,-21,-17,-3,-5,-10,-11,
11,7,-14,11,3,-49,10,-20,
-36,38,88,34,10,-33,-40,18,
-49,41,17,89,14,-21,37,25,
-41,-66,-49,57,21,-10,-7,11,
0,-23,13,-13,-20,20,24,18,
19,-21,-4,-8,-15,6,7,-1,
-82,6,24,46,-34,-25,-8,6,
52,18,-73,-28,10,-10,6,-3,
21,49,-8,-5,-14,24,-32,6,
95,-33,53,12,3,-23,3,6,
-32,28,-127,36,-4,-33,9,10,
14,52,37,7,-1,15,-6,-21,
6,-16,-7,-12,-32,-22,14,97,
20,-23,-6,-38,25,11,0,17,
-38,-63,-14,76,20,-2,-5,40,
-38,-52,127,-65,-26,10,-3,-17,
-56,-20,2,-4,-14,-37,-3,-5,
-49,-5,-23,-36,-73,-4,29,-20,
-33,0,-1,16,4,-5,36,8,
-27,43,2,12,2,-1,-12,5,
-1,-4,-7,-29,5,-6,18,-23,
-9,-13,-32,11,-15,19,16,-15,
-20,-10,66,34,-1,-22,10,-3,
11,28,-24,-12,-9,-5,0,20,
-14,-30,11,-10,-40,43,57,36,
7,4,-34,3,6,-41,-56,-55,
44,20,18,75,12,-36,16,29,
-58,80,48,15,3,-1,-5,-16,
-33,29,17,-32,42,-41,15,-35,
-5,18,52,22,26,7,11,15,
104,-3,68,53,47,-14,13,-20,
-23,16,26,56,-25,1,3,-1,
11,15,11,13,-22,-25,4,3,
6,-43,-54,-75,-13,29,23,0,
-39,7,43,-47,4,-6,-52,38,
-29,-44,-89,16,-6,-15,-10,-1,
64,-1,-41,-78,-29,0,33,-19,
32,5,-2,1,19,-15,-15,-33,
78,-28,-15,-28,27,30,-4,-30,
28,-29,10,-39,-2,-17,12,-14,
4,-10,-68,-16,15,-8,-55,11,
2,-105,-15,-22,2,-25,5,-42,
42,-9,8,33,0,50,-39,3,
11,22,49,-85,-86,-11,22,13,
-11,-24,-24,-65,-50,-25,-11,-9,
2,11,-11,58,-31,-12,24,-25,
-26,-30,-16,43,-8,22,33,5,
105,-53,20,-65,17,-2,3,-7,
35,-8,37,-12,-85,-5,-26,1,
55,61,12,6,31,-52,8,17,
19,-51,-65,-15,4,125,13,3,
40,-56,-24,-7,6,-1,48,81,
40,-6,-1,65,-26,-22,42,11,
-13,25,-77,13,-8,-47,45,3,
-36,6,-35,83,-25,-23,-28,-78,
-65,16,-71,19,-11,-1,8,-12,
-97,-32,-37,-6,-90,-39,25,-23,
-26,-8,-43,15,25,-127,-15,-13,
61,-74,34,11,1,28,31,17,
19,55,-75,-17,35,13,-26,1,
17,0,35,11,14,-2,14,-4,
56,-3,-2,6,39,6,108,21,
-21,-51,37,11,16,-8,-6,-15,
11,47,10,11,44,15,8,50,
0,34,-8,7,-86,35,-19,-9,
-47,4,1,-10,-76,22,22,-27,
1,2,-1,-14,-40,5,35,-56,
-18,-10,17,-39,-4,-43,-1,17,
-7,13,-20,-2,-33,-1,13,-8,
35,-24,-21,27,2,-13,13,-17,
-35,-2,12,-5,18,6,14,-79,
-22,-38,2,-13,-21,-7,-15,15,
2,-7,3,4,-2,-4,50,23,
-28,64,-29,11,77,9,26,11,
10,17,-18,21,-95,-34,46,26,
-2,-9,9,-6,-40,-8,-19,2,
-10,-96,2,-21,-13,49,-11,-29,
8,39,-8,-3,21,-8,10,-63,
7,-26,3,11,-8,29,-26,32,
-10,-31,-2,22,-24,-105,-7,36,
-28,16,-40,-16,4,2,6,-31,
-13,-37,16,16,-21,-18,101,-99,
1,21,41,-18,27,38,26,15,
-19,-40,67,-7,-4,-35,-26,9,
-15,35,-27,-4,4,1,60,11,
0,56,-14,-10,-22,14,67,-24,
-24,4,3,-12,22,86,-23,16,
-14,44,15,-2,6,26,-6,-38,
11,13,-18,100,5,7,19,1,
-44,8,17,27,-44,60,-83,10,
23,36,13,15,75,50,64,35,
-4,-5,7,122,-8,-20,-21,58,
78,3,-9,-22,0,9,-1,-8,
-50,1,-16,13,13,27,-25,-92,
1,21,-16,-49,-15,68,-19,57,
11,-23,-25,-12,-18,-8,-10,-26,
14,-36,-124,-5,13,2,-127,3,
15,18,-23,-28,7,38,-15,1,
15,0,0,50,59,48,2,34,
-11,43,18,-71,12,25,18,14,
16,26,-39,38,-11,30,3,6,
-1,31,67,62,32,-11,28,24,
-19,-5,43,-7,-40,42,-26,15,
9,-17,-6,-19,-4,10,7,4,
14,-7,-2,38,44,9,20,-1,
7,-6,41,-4,-2,31,-38,35,
2,10,-33,-4,-1,27,47,-48,
-6,28,-38,-13,5,19,-22,11,
-41,-46,-5,26,-7,10,-1,-17,
16,-5,-11,-54,5,-63,92,-1,
17,10,-17,-30,14,-19,55,20,
24,-16,-33,-2,9,-8,-23,9,
-52,27,21,17,23,15,-35,3,
11,-34,-6,-19,-55,78,-3,-18,
-1,39,-45,-4,6,58,32,-4,
-21,-51,-16,-4,-73,2,-1,10,
-47,6,20,-24,36,20,-5,5,
-25,16,42,27,-9,-6,4,-107,
-26,-2,13,8,4,-20,50,-19,
0,-45,-17,-9,21,46,13,37,
-48,-32,16,-17,14,-1,8,-57,
-36,-36,27,12,-58,70,-28,46,
-6,127,17,-13,-16,38,54,-20,
-7,-14,31,-10,6,-43,-26,9
};


#endif /* USE_WEIGHTS_FILE */

#ifndef USE_WEIGHTS_FILE

#endif /* USE_WEIGHTS_FILE */

#ifndef USE_WEIGHTS_FILE

#define WEIGHTS_dec_glu1_subias_DEFINED
#define WEIGHTS_dec_glu1_subias_TYPE WEIGHT_TYPE_float
static const float dec_glu1_subias[64] = {
-1.446892828680575,-0.03853107523173094,0.41099577862769365,-0.1064259922131896,-0.6011751294136047,1.5840380592271686,-1.5975394193083048,-0.7970331022515893,
0.25807073526084423,-3.038838137872517,2.6112678460776806,-2.2398777594789863,1.0198394898325205,1.2309616887941957,-0.6153481751680374,1.6216890141367912,
2.9570985585451126,1.0669520627707243,-10.571057736873627,-1.0453726071864367,-0.9181439643725753,-3.8944189585745335,0.40428923489525914,1.564323004335165,
0.29145095497369766,-1.6113538853824139,1.6325542442500591,0.7987007519695908,2.8215280259028077,0.6100649945437908,-2.4896553847938776,-2.0673783193342388,
2.692362032365054,-0.739773977547884,1.5875150095671415,3.1027950327843428,0.17210704437457025,-1.1583684151992202,2.9364510271698236,2.896034198347479,
3.863821528851986,3.0240433178842068,-2.238663984462619,0.1251533031463623,4.454525476321578,1.8172412593849003,4.785337257198989,1.4110711649991572,
0.79089623875916,1.4358795722946525,-0.3411060757935047,1.6496617924422026,-1.3571386691182852,-0.7201020955108106,1.73608005233109,2.734321117401123,
1.7604197449982166,-0.8360179029405117,-1.0076084872707725,-0.7797513119876385,-1.1064029280096292,-2.0271358522586524,2.171200348995626,2.9928681068122387
};


#endif /* USE_WEIGHTS_FILE */

#ifndef USE_WEIGHTS_FILE

#define WEIGHTS_dec_glu1_scale_DEFINED
#define WEIGHTS_dec_glu1_scale_TYPE WEIGHT_TYPE_float
static const float dec_glu1_scale[64] = {
4.6501456381520256e-05,5.056571535533294e-05,6.345465226331726e-05,3.809090776485391e-05,0.00011834155884571373,6.396277603926137e-05,2.9950120733701624e-05,7.213622302515432e-05,
4.838221502723172e-05,5.8935613196808845e-05,6.969886453589424e-05,6.809587648604065e-05,4.486163379624486e-05,4.34646281064488e-05,3.9074686355888844e-05,7.511297008022666e-05,
5.1742757932515815e-05,8.236467692768201e-05,0.0004040615167468786,7.839314639568329e-05,4.819653258891776e-05,0.00011442058166721836,5.218655496719293e-05,0.0002513776416890323,
7.649631152162328e-05,5.7410976296523586e-05,7.387791993096471e-05,2.320657586096786e-05,5.264634091872722e-05,7.169643504312262e-05,5.5534237617393956e-05,3.37030433001928e-05,
4.679845733335242e-05,7.467938121408224e-05,7.91146740084514e-05,4.4582950067706406e-05,2.5569312128936872e-05,5.494584911502898e-05,7.732996891718358e-05,4.0360035200137645e-05,
9.94241563603282e-05,7.884557999204844e-05,8.393940515816212e-05,4.479359631659463e-05,8.063219138421118e-05,2.968669286929071e-05,4.787779107573442e-05,5.4732987337047234e-05,
2.2811462258687243e-05,4.141442695981823e-05,8.952915231930092e-05,3.6693396396003664e-05,3.562043639249168e-05,3.395266685402021e-05,4.2191117245238274e-05,0.00033640762558206916,
6.538477464346215e-05,9.680615039542317e-05,5.289283217280172e-05,4.951430673827417e-05,5.5138189054559916e-05,2.0622350348276086e-05,7.465531234629452e-05,0.00016713397053536028
};


#endif /* USE_WEIGHTS_FILE */

#ifndef USE_WEIGHTS_FILE

#define WEIGHTS_dec_glu1_bias_DEFINED
#define WEIGHTS_dec_glu1_bias_TYPE WEIGHT_TYPE_float
static const float dec_glu1_bias[64] = {
0.0,0.0,0.0,0.0,0.0,0.0,0.0,0.0,
0.0,0.0,0.0,0.0,0.0,0.0,0.0,0.0,
0.0,0.0,0.0,0.0,0.0,0.0,0.0,0.0,
0.0,0.0,0.0,0.0,0.0,0.0,0.0,0.0,
0.0,0.0,0.0,0.0,0.0,0.0,0.0,0.0,
0.0,0.0,0.0,0.0,0.0,0.0,0.0,0.0,
0.0,0.0,0.0,0.0,0.0,0.0,0.0,0.0,
0.0,0.0,0.0,0.0,0.0,0.0,0.0,0.0
};


#endif /* USE_WEIGHTS_FILE */

#ifndef USE_WEIGHTS_FILE

#define WEIGHTS_dec_glu2_weights_int8_DEFINED
#define WEIGHTS_dec_glu2_weights_int8_TYPE WEIGHT_TYPE_int8
static const opus_int8 dec_glu2_weights_int8[4096] = {
-58,5,27,5,63,-6,-16,18,
7,5,-12,10,23,17,-28,17,
5,-1,-18,-9,-5,21,5,-26,
11,0,-25,-62,-5,-7,61,48,
-43,7,-112,-17,23,-34,-84,-18,
-21,2,-11,-36,4,3,-10,-40,
-53,10,-15,8,10,-127,43,-8,
29,-13,11,-7,23,-26,30,20,
31,-2,-40,-19,22,19,-6,15,
-17,10,1,-20,79,5,45,-24,
2,1,-7,46,3,9,17,7,
-12,41,42,14,38,16,6,-73,
40,7,11,-21,-99,-30,2,3,
-14,16,-16,-6,71,49,19,8,
-28,35,6,23,-43,-28,-29,13,
-36,9,-16,0,-32,-10,76,6,
1,13,-25,35,9,28,2,22,
2,-4,-10,10,-5,-8,32,55,
20,48,19,6,-8,-14,9,2,
82,-1,-8,44,-27,68,53,-21,
-18,1,-15,-23,2,6,-33,53,
23,2,7,-13,-79,9,-33,-14,
-79,-9,0,26,-17,-17,-6,-42,
-1,-67,17,27,14,2,63,-25,
68,2,-78,-6,7,1,26,7,
-9,2,-6,-23,-61,1,-127,10,
-53,0,0,7,44,5,31,20,
-32,12,-90,-39,-1,4,49,-18,
-48,1,2,27,-5,17,-8,-4,
-11,-36,26,-5,-121,39,-36,-3,
-32,-62,-21,-10,29,-30,7,6,
-28,-4,24,-57,127,-37,-29,18,
-18,23,-13,10,6,54,27,-2,
-16,16,-16,-3,-9,38,18,-8,
47,-1,0,-4,6,34,-17,0,
-21,28,-32,9,10,37,-1,-22,
-14,-16,-51,0,-5,-9,13,-3,
11,2,19,-8,10,-19,43,-17,
-4,11,-6,-8,-19,-5,-3,-6,
70,-28,25,-34,-8,-43,-37,-37,
-18,-14,-8,-15,-18,-13,-1,7,
33,-4,-127,-1,-11,-14,-37,-26,
25,1,13,4,-2,7,25,-10,
27,-5,4,-38,-71,-4,-18,-37,
-5,8,-19,14,-13,-16,-4,-14,
-2,55,21,-23,-3,-8,-73,-31,
-19,-24,-38,-31,-23,16,-52,5,
-1,-9,52,-35,24,31,33,-56,
-3,2,42,-4,-7,-33,-7,-24,
10,-1,18,13,-5,-11,-38,-6,
19,-31,62,18,1,-19,-16,-15,
-14,-4,-21,6,-5,-42,65,-40,
-3,-19,1,67,-39,54,-46,-20,
35,-6,15,-24,27,-2,21,-51,
-40,12,19,12,-16,-6,-2,-17,
-11,13,-46,13,-82,55,-21,-74,
-14,-24,36,-15,1,30,-5,-16,
3,8,0,-13,-14,18,-19,42,
-11,-95,-1,-127,-31,23,1,-22,
32,-59,-16,11,34,42,13,59,
16,-1,-7,9,-10,2,7,-10,
-51,-2,-5,-17,-28,23,-121,22,
11,-9,1,-58,21,-27,-14,-23,
-26,17,-1,13,-83,20,17,4,
5,-3,-14,-29,103,8,-7,-39,
-32,18,14,40,-10,14,18,-11,
24,10,-25,13,6,14,18,15,
-5,-2,-23,-5,-8,2,-11,-47,
1,3,-15,-26,41,-32,-26,-17,
69,-1,-102,17,-38,7,-10,29,
-12,-14,-10,-55,49,-11,-8,-34,
24,-12,43,41,1,-3,1,5,
124,5,-20,-11,-12,127,44,-36,
-58,14,8,0,17,2,-10,39,
5,23,8,5,-5,46,-4,-24,
30,-10,-7,62,8,-5,6,66,
8,19,-3,1,-80,-12,-6,-5,
15,-21,14,-26,-8,-23,-35,36,
19,-16,23,-32,-47,20,7,-30,
-19,0,105,1,-88,16,38,-108,
-3,4,4,4,3,41,-27,19,
-90,-39,19,-18,-7,50,-43,32,
-2,7,15,24,2,-67,6,-15,
2,-1,-106,-23,27,-19,11,-24,
-27,3,4,12,17,8,-48,50,
49,-17,14,-44,-93,-6,8,-1,
36,3,61,68,44,-19,50,-70,
10,-9,0,-40,-69,-10,-87,-22,
2,1,-22,5,98,3,47,21,
-13,8,43,72,-16,4,22,-65,
-3,-10,-24,-52,39,3,0,-12,
-3,-1,3,22,-6,5,58,-12,
-18,12,-5,-12,26,-3,4,-4,
5,20,-80,20,-33,19,110,-7,
-62,44,16,23,-97,48,-2,7,
13,-96,-58,27,35,-10,123,6,
-17,-7,-16,0,38,9,21,-9,
-26,10,25,1,-54,23,-96,97,
1,64,17,3,-9,38,45,0,
-3,-24,-31,-11,40,-59,-43,7,
-16,-6,5,-5,1,-13,69,7,
-7,-36,-23,1,26,12,-52,33,
1,-18,-10,-6,1,-13,-27,-7,
-41,-1,8,-8,5,22,2,17,
6,10,20,17,-50,7,0,11,
4,-5,-13,37,48,-11,90,-8,
4,-20,-28,-10,15,-9,26,-1,
0,-25,15,-20,42,-9,17,-16,
-5,-2,-6,-15,9,-27,-8,-11,
-2,13,38,2,30,41,-103,-26,
5,-47,0,4,-2,-29,-54,-75,
-41,3,23,-21,-10,-56,-26,5,
-8,21,16,17,0,-34,6,6,
-16,13,9,51,13,-43,19,-34,
4,-7,7,37,1,8,13,-26,
-1,121,75,-42,13,-52,17,-31,
-16,8,30,5,45,42,50,-3,
-55,6,-65,-46,63,-21,10,54,
-58,18,39,28,10,-39,28,-20,
-34,7,30,-24,9,-12,53,9,
-7,1,39,-8,-2,8,8,-1,
19,88,5,41,-22,-66,-4,35,
3,25,-3,25,15,11,3,-25,
-4,36,3,-22,14,-8,-10,80,
8,-1,-39,-16,-16,7,14,-5,
55,12,-58,-40,37,40,-9,-40,
-13,-6,-6,-18,-33,11,25,19,
-8,-21,14,-40,72,2,-2,-78,
22,7,1,-2,-1,-8,-9,-13,
-10,-10,-13,-25,-13,-10,18,0,
-14,-4,4,-13,-6,24,-1,-15,
19,-9,-30,-10,76,-17,-38,-61,
26,-23,-53,-3,-28,31,17,-72,
13,-13,26,103,-10,6,26,13,
-7,32,-15,-41,0,9,-127,3,
-5,-9,-38,-91,4,-11,1,-81,
-52,-17,-4,-3,5,49,6,54,
11,-4,-52,47,-37,-16,-5,-1,
0,4,-27,34,3,19,-8,3,
-10,-7,-13,10,54,23,-6,2,
-18,-3,-2,6,-3,27,8,21,
17,51,-82,-9,-17,49,-17,-8,
12,3,-30,2,-43,-15,14,4,
-2,57,43,-36,-120,2,34,-15,
-127,10,0,9,-22,-43,-9,32,
-46,10,-84,-4,-6,-35,21,28,
22,-36,-26,62,-23,4,-7,13,
47,-49,10,-18,-48,116,-19,77,
5,-2,-26,-6,-70,29,-30,0,
31,21,-27,12,18,4,34,1,
11,0,-26,80,-7,8,21,-22,
48,34,-23,41,28,-4,-58,97,
-10,8,-31,13,-58,1,9,-14,
0,-1,5,-8,-28,-3,3,-29,
17,1,-24,92,10,2,6,9,
-9,-9,-10,15,9,2,-9,-30,
-9,38,-14,6,-37,58,-14,-10,
-7,16,-28,-14,-5,-10,-33,-12,
100,9,10,-17,-1,-5,12,13,
-86,-11,-36,-26,-32,21,-3,34,
-13,20,23,-5,-27,-102,-66,8,
32,-6,34,-5,-4,30,-68,-1,
-59,-56,20,-4,-7,80,-19,3,
13,102,21,15,9,120,75,-17,
5,-19,11,2,2,22,16,39,
28,14,-5,0,-9,-1,60,-9,
19,20,95,34,3,-7,10,-1,
1,-35,-31,-1,-13,-22,-4,6,
2,-3,-24,-25,48,-23,54,5,
-1,30,-3,12,15,8,-84,-6,
19,4,14,35,-9,-23,-1,-3,
-3,35,74,49,20,20,-52,39,
19,-6,-5,-13,-18,20,-58,-23,
-29,-36,37,-1,-1,22,-9,-5,
-4,1,-4,-68,1,0,-19,18,
-8,28,8,-43,-9,-4,-28,-73,
-6,30,-12,-10,-4,57,-32,-19,
2,11,74,-47,-12,64,61,19,
3,-15,-98,68,6,-35,-8,10,
16,22,33,-47,-2,8,-6,-43,
18,21,-63,-34,70,-25,-45,5,
-44,25,32,26,11,8,28,-64,
31,32,9,-10,-3,2,8,2,
-64,-26,-22,-21,-114,-10,-28,-19,
14,7,-1,34,-10,-41,28,31,
-11,-31,18,-13,16,-5,7,-28,
-11,85,0,-11,4,8,-4,21,
15,27,-21,-30,85,35,16,-10,
-21,7,-54,14,81,38,5,79,
16,67,-5,-105,-95,-34,-5,-36,
17,-4,29,-13,11,8,2,-10,
-46,21,-18,20,44,20,8,-69,
17,11,-16,3,7,2,6,-7,
-58,-6,0,-32,3,-13,-82,-45,
11,-3,-26,-28,-7,-10,-1,-4,
-37,-7,38,-66,-13,12,-14,-18,
57,-37,-5,7,-15,3,-9,-3,
-9,17,16,14,71,26,-6,-5,
27,8,5,-94,-15,-30,-5,-2,
58,-35,46,-36,23,-11,-120,-9,
8,34,8,28,10,-21,-6,-28,
-30,14,-50,-3,-37,-20,15,20,
0,33,-6,22,9,-12,-17,-43,
-55,42,20,-86,-11,13,2,0,
-36,20,-31,9,20,32,15,-10,
11,23,5,9,83,38,-31,-26,
19,-54,-1,-35,-40,4,1,-1,
-54,16,-59,4,-14,-23,2,2,
6,-52,-21,-4,5,26,-5,10,
-18,-11,0,-6,-29,-53,-38,28,
-21,-10,-18,12,-29,-12,-14,7,
0,-72,-54,0,-67,15,-4,31,
21,-46,65,2,-12,2,29,12,
-21,9,-12,-5,36,18,-20,-1,
-7,-14,-20,-34,10,9,14,-3,
14,18,31,-1,8,6,5,-11,
127,-12,21,18,5,-127,27,1,
-10,-1,91,22,25,11,-3,90,
-12,2,-43,-12,35,1,-7,32,
-106,-8,24,75,-1,5,-4,-13,
-35,64,-46,13,1,-15,17,1,
-15,3,13,-4,-48,-1,9,-37,
-78,-51,27,10,-9,-120,-50,-2,
83,-91,21,19,-5,-2,0,4,
21,1,5,-1,10,-27,-12,2,
-12,-7,-23,-2,20,-82,39,-11,
-11,96,2,17,16,-12,30,5,
75,-83,89,18,-5,15,-9,0,
-11,25,27,-22,3,6,-24,14,
12,-5,28,11,7,60,18,-18,
-16,-73,21,-20,9,-20,9,2,
23,-3,103,6,-3,-8,3,6,
54,-9,1,-22,8,-4,24,3,
13,11,-16,8,33,27,85,33,
17,57,23,30,-6,17,31,38,
-47,12,99,30,9,-20,-9,3,
1,30,-12,35,-4,-7,9,-12,
-3,-3,-33,14,-6,-59,78,-2,
-2,12,27,-91,11,-28,31,7,
-4,-28,19,34,7,10,-11,0,
-14,-25,6,38,-6,5,7,-18,
-11,20,0,-3,-14,-20,-45,127,
7,-17,18,-30,-46,11,-9,-5,
-6,4,11,46,3,-29,-34,-18,
-11,36,15,40,-32,-8,1,5,
16,-3,3,-6,-34,-21,-24,78,
-75,5,-4,-45,70,-8,12,8,
-42,13,46,-48,4,14,-15,-10,
18,-17,-14,29,1,-8,0,9,
-1,10,33,26,2,-18,22,5,
4,23,1,21,-6,47,7,46,
-10,-9,-9,-2,4,-17,17,25,
0,-32,-17,-5,21,-28,10,-24,
7,5,127,-26,62,3,20,4,
-37,20,-22,-81,-19,13,-5,-9,
8,-69,-14,14,2,-3,7,6,
-16,-3,-31,28,-17,1,-47,-15,
13,-21,-1,-51,12,-7,-16,-27,
11,3,9,-29,-34,-7,8,-13,
-16,-6,-10,-33,12,-8,21,27,
53,-7,-11,4,-25,21,-9,18,
52,36,-19,25,-12,27,-3,14,
61,-13,-105,-24,31,0,16,28,
26,6,-34,81,-62,-6,-9,68,
19,14,5,-1,16,29,-11,69,
-45,-33,-24,45,0,23,4,125,
-10,33,-8,14,4,28,-2,43,
-9,26,14,23,37,-5,0,72,
13,-5,-40,-5,-14,9,18,12,
3,-35,-8,47,-8,38,8,19,
13,-13,-9,-9,11,-3,7,4,
4,-11,26,-28,-53,105,-3,38,
5,-12,-9,127,37,-40,-25,-2,
-20,-51,-23,74,-3,-8,-23,-7,
-21,32,-30,31,20,19,0,-3,
13,64,-23,13,16,81,13,21,
-36,4,-3,-36,-74,9,70,1,
51,-7,-3,20,-1,29,11,13,
35,6,-50,26,-3,-15,34,25,
-3,13,-29,18,-32,19,107,14,
-4,5,-6,-1,-3,9,27,74,
-77,-18,-39,-27,9,-1,6,-27,
6,2,40,2,19,2,21,18,
14,1,-25,41,4,-1,41,-49,
-32,-20,32,-14,21,22,0,-11,
-33,19,-20,-1,19,-3,20,-8,
-15,-8,-4,0,16,-14,20,-6,
47,43,6,-25,-24,-65,39,-9,
32,-61,-75,7,42,-82,-30,29,
-5,113,35,-13,6,-114,-11,81,
-26,9,-18,1,-1,-31,-48,1,
45,84,-18,24,-23,-106,-96,-8,
-3,-5,-49,0,8,7,-6,56,
-6,69,-17,-27,-4,6,3,12,
-37,-9,20,-5,2,-20,-38,17,
41,-29,81,-35,2,32,-97,57,
-3,-6,-60,22,18,3,34,25,
-26,44,-116,-13,16,-14,69,-17,
-3,6,-3,-4,-18,-4,-2,13,
-76,-6,-59,45,51,3,22,-1,
-3,51,9,-62,-14,5,33,12,
3,-16,-52,-25,-14,-12,27,-2,
8,24,6,-9,3,15,-2,67,
9,-23,-48,60,1,-34,34,0,
-13,20,-31,-63,-2,-14,-6,-9,
-15,16,9,-84,-24,-7,-22,-19,
7,-1,-1,10,-13,-51,-13,24,
9,-54,17,-103,-50,0,-15,-32,
56,-18,-38,-33,14,13,25,-16,
83,-20,36,7,-21,-9,-3,7,
-27,30,2,18,-23,-6,22,4,
-92,-4,9,15,-103,7,-34,45,
5,51,-2,5,-47,-33,-5,25,
-20,-15,-4,-59,-6,21,8,-4,
3,6,3,44,-4,-40,-10,18,
21,87,-5,41,-4,13,-2,-18,
-73,-27,-11,15,93,36,9,27,
-111,-6,-14,18,63,-100,5,13,
-27,2,14,-32,75,54,15,-17,
-66,12,-11,-6,111,9,-4,-73,
20,-3,8,0,-14,-1,2,-11,
0,10,-42,8,-20,6,-55,-36,
-13,6,4,-7,0,13,80,-3,
37,6,-39,-11,-9,-8,-40,21,
-28,8,9,-17,5,-7,-119,-10,
9,-13,9,-43,30,19,76,-80,
-7,-6,-124,-5,61,-34,-5,26,
30,21,-11,-57,-9,-7,-18,-20,
-18,-1,0,70,2,6,-2,-10,
0,-15,22,20,-10,68,13,-40,
1,15,1,-5,6,3,-4,4,
-18,16,4,-7,3,-13,4,-16,
-52,22,-26,15,-16,-3,4,-2,
34,-17,-1,3,-51,41,-43,-7,
-21,-12,4,-7,29,-24,-59,-4,
-11,-67,-8,-22,1,84,8,2,
4,-75,18,-21,-49,5,-5,19,
14,-80,18,25,13,41,-19,127,
-28,12,-8,6,25,-71,13,44,
5,-4,-23,-24,35,-4,19,7,
28,9,0,-31,0,3,14,4,
-23,-17,-23,8,-25,-10,-44,2,
0,3,-7,-3,-9,-13,-37,2,
-28,-2,-26,-19,127,-3,45,-35,
-23,1,11,-13,-12,5,15,0,
2,13,4,-16,-26,4,79,17,
11,4,30,4,12,5,17,62,
9,2,0,38,12,2,-10,-1,
-36,-35,23,10,1,2,-5,12,
4,17,-8,3,-16,15,-12,17,
-11,13,2,16,20,3,38,20,
-82,32,-9,9,27,-40,-2,-4,
5,-127,12,-4,-13,28,3,-2,
37,-22,-10,31,-38,88,16,7,
-2,33,-9,-2,99,-45,-47,-10,
8,121,37,-45,-17,-12,-20,-14,
-7,24,-8,11,5,-15,5,-1,
-10,-23,36,-2,-7,-30,-8,2,
-2,-12,-5,0,-43,-45,-5,3,
15,-11,-5,-27,5,-13,-10,-4,
13,1,6,-54,-5,-27,-12,-7,
-17,10,127,-35,5,27,-19,-6,
-5,-16,-15,0,-90,-39,-7,24,
-29,15,-64,5,-28,1,-25,-1,
-12,-88,30,22,12,10,-1,-9,
2,-39,-20,14,6,13,-21,-6,
-1,-2,-10,13,4,-124,-10,45,
0,-26,-5,-5,8,-26,-7,-19,
-3,32,12,39,6,-17,-15,-6,
-10,42,30,-26,18,55,-38,-80,
12,-13,-6,3,32,82,3,-22,
-5,-53,-20,-11,-3,-32,46,-10,
40,-21,-14,-12,2,0,-2,-2,
-45,5,-28,45,-20,29,97,-7,
9,0,-16,3,11,-1,17,-26,
-40,40,19,-30,-27,-26,-34,2,
3,38,-1,0,5,12,13,20,
-8,-35,1,2,-22,-2,-6,88,
4,-1,-3,27,23,-17,8,-28,
-10,-84,-9,-60,12,-22,-8,0,
8,16,2,-21,0,-7,3,-1,
19,41,-25,-27,-29,-6,5,31,
-7,-3,0,-8,34,22,-8,45,
-21,-41,12,-111,-1,2,-1,-43,
-8,-7,-7,-2,13,-17,100,3,
31,-10,-17,-29,22,16,-30,17,
-9,-18,8,26,17,-14,-24,-16,
13,58,-15,-12,8,8,-8,23,
9,20,14,-55,-45,38,-14,59,
-14,-12,4,-13,7,19,-31,-63,
84,-13,-5,9,24,-39,-9,-77,
-22,-8,-18,-11,-35,1,-6,-45,
-4,29,-4,23,10,-23,-35,75,
7,-10,14,32,-8,4,-6,0,
9,45,-10,4,29,45,-1,-2,
-15,5,31,25,-1,14,-10,-9,
33,44,14,46,-30,127,-69,-1,
-85,74,22,34,10,-28,19,-11,
-4,-3,-7,-53,-120,28,-4,-4,
-102,-27,-35,-30,-25,-34,-2,9,
31,-2,7,-28,14,12,-41,5,
-24,55,24,-48,10,4,3,12,
-36,-27,-7,0,12,82,-58,46,
-3,9,10,53,7,30,1,-4,
-12,3,26,13,-13,0,16,-25,
-94,-6,-8,-5,-14,4,-24,6,
30,-16,-80,-25,15,4,-47,29,
-22,-70,-6,-9,-7,-10,35,29,
11,5,24,-9,-8,-4,14,-46,
8,7,34,-19,-60,-1,6,-58,
0,-4,13,14,31,-1,-2,7,
52,-6,-26,-33,1,0,6,-20,
-22,-64,8,8,-35,81,14,-15,
25,-72,-21,14,5,-22,89,-3,
29,100,59,-7,-40,-7,18,-7,
31,-28,-35,4,5,-54,36,7,
18,-47,-3,9,42,-22,-18,-22,
42,-43,-64,12,-78,35,-57,14,
15,-17,-16,-8,7,122,36,4,
-56,27,-16,7,-35,28,-22,0,
11,14,-46,17,-25,34,-1,-14,
41,24,-3,-81,13,-43,-11,-2,
35,18,-13,-1,5,-22,68,-5,
-8,23,23,-3,-2,13,6,16,
72,4,14,0,56,-32,11,-22,
-33,15,31,-18,51,-22,-127,13,
51,18,-18,23,24,52,-35,-1,
31,-40,-14,-38,7,-7,-127,5,
-15,-24,2,-29,-14,7,-42,39,
-15,21,52,77,8,67,-47,-41,
28,-4,-26,33,2,26,-14,-39,
-5,27,-3,25,0,55,-48,-15,
97,32,9,6,21,-1,51,-124,
-9,-95,53,-35,27,10,89,6,
-10,22,-14,-14,12,-23,-20,-29,
23,-20,-11,5,4,-23,29,58,
-28,-26,-3,-25,67,9,-36,-86,
-13,22,-12,-28,-9,13,31,-63,
-37,-8,-10,-3,-87,113,7,-13,
-21,89,22,2,-8,3,20,-37,
-12,-5,-8,11,15,-2,-16,-7,
11,5,-12,-11,3,35,1,-54,
15,-34,2,70,-31,21,-27,-3,
-19,56,9,-37,0,27,-4,-6,
14,-38,7,-78,-65,-64,9,-86,
43,16,-11,-95,-90,-26,-1,-48,
3,3,-1,21,-42,-14,9,-14,
30,47,9,22,-69,-14,4,-31,
63,13,-10,-3,21,-15,20,-2,
10,-8,2,21,-13,-11,-8,13,
-33,2,35,-12,-9,-11,32,-19,
11,0,-27,93,11,-23,-5,-16,
16,-26,1,-35,26,17,-36,-29,
-10,-7,-124,17,2,45,6,40,
-25,-14,26,-66,15,-19,1,13,
-12,12,-12,5,37,-45,-8,1,
4,49,2,0,7,105,62,-69,
-4,6,-41,5,21,-35,13,116,
10,-10,7,-2,-27,17,12,55,
98,6,48,-17,13,51,37,55,
-97,-32,-6,-7,20,-42,-65,6,
-16,-5,2,-5,40,7,-33,-8,
-72,96,24,11,31,-41,5,-19,
40,17,6,-2,-7,-34,17,-44,
-13,28,-17,45,55,-83,-41,54,
125,4,0,-5,3,29,-8,76,
-55,6,36,54,-41,-81,-1,-37,
-14,-5,18,-10,26,52,-49,30,
-7,0,-38,56,-48,-3,-53,25,
-4,26,2,3,-5,-42,-49,52,
62,7,19,-62,13,-6,-90,-6,
-16,-6,2,-48,-20,11,7,4,
36,2,56,0,-32,-9,-11,-5,
20,0,28,21,69,1,-28,9,
24,-5,-3,-5,19,0,4,-29,
12,-4,35,-23,34,1,-26,-21,
-3,30,-3,-8,28,-30,-4,16,
-1,5,16,71,-58,-38,-77,-30,
51,4,10,-2,48,20,58,5,
10,-2,-4,-15,0,-6,55,31,
-5,100,20,1,-107,98,19,34,
10,-19,7,0,-12,75,36,-18,
6,-2,-45,-29,-44,63,-9,-17,
12,-5,-3,0,28,101,45,17,
4,-1,-4,-7,-2,-15,71,-81,
22,-1,-7,7,-37,26,36,-64,
44,-15,127,1,20,-42,39,-7,
-7,15,-3,10,-19,28,40,2,
-6,-11,28,7,4,-12,-41,15,
5,29,5,5,35,-19,5,20,
44,21,37,-34,10,22,-26,69,
26,51,0,-15,21,-7,-24,-33,
5,-1,-16,-5,4,38,-68,-51,
0,-13,11,0,-24,11,71,-39,
6,-23,-24,28,11,-81,92,12,
26,19,-24,22,3,-8,15,-17,
9,12,-18,2,0,-26,-105,28,
0,-11,-7,-1,10,-66,39,-80,
-17,22,-65,-45,5,40,-31,-2,
3,39,16,41,6,-44,-23,36,
-16,60,4,11,-126,-3,-23,-21,
4,3,-19,-1,-8,42,19,55,
-62,2,-22,-24,-35,-22,-35,-35,
28,-27,47,-16,-53,20,33,35,
7,18,11,32,17,77,-29,-43,
0,-2,23,-5,-30,-50,20,48,
-18,25,11,-34,-11,28,19,-93,
0,-5,-4,-9,44,4,-4,16,
-16,33,7,6,-34,-19,12,-105,
13,-3,-3,-6,-22,29,17,17,
25,10,10,16,-59,-70,-8,21,
-20,-16,-127,19,9,20,1,5
};


#endif /* USE_WEIGHTS_FILE */

#ifndef USE_WEIGHTS_FILE

#endif /* USE_WEIGHTS_FILE */

#ifndef USE_WEIGHTS_FILE

#define WEIGHTS_dec_glu2_subias_DEFINED
#define WEIGHTS_dec_glu2_subias_TYPE WEIGHT_TYPE_float
static const float dec_glu2_subias[64] = {
3.0968875624239445,4.5873271226882935,3.1720391381531954,2.0205777883529663,5.158882096409798,4.602236929349601,1.5122405402362347,-0.9117507375776768,
-0.14204994402825832,-3.8030753238126636,0.2143712304532528,-0.4091976727358997,-1.387975551187992,1.433363570831716,0.8620487321168184,0.9221411431208253,
2.7184123592451215,-0.1081152968108654,-0.502270745113492,1.1407724632881582,-2.9774400824680924,0.9145845100283623,0.8515495103783906,-0.05285995081067085,
-2.320965997874737,2.195300441235304,-1.4508590400218964,-1.280875219963491,3.371925512328744,0.5879333019256592,-0.10611467622220516,7.714019484817982,
1.2971514710225165,-2.540300991386175,1.4098469177260995,-1.6319975620135665,0.1464448468759656,-4.562678515911102,-1.110091209411621,-0.6332055777311325,
1.5703438520431519,4.997660014778376,0.06259371293708682,-1.1037208288908005,5.557020127773285,-0.40714403497986495,3.4041793565265834,1.4878039108589292,
-0.9163156505674124,0.834302837960422,2.1234891237691045,3.099754136055708,-2.337895916774869,-0.026641923934221268,0.40641479566693306,2.7614862574264407,
-3.8172501549124718,2.3258591811172664,-7.5194984674453735,-1.7421658490784466,-0.31613911455497146,1.6109160482883453,-2.885224098339677,-3.4356604730710387
};


#endif /* USE_WEIGHTS_FILE */

#ifndef USE_WEIGHTS_FILE

#define WEIGHTS_dec_glu2_scale_DEFINED
#define WEIGHTS_dec_glu2_scale_TYPE WEIGHT_TYPE_float
static const float dec_glu2_scale[64] = {
8.266081567853689e-05,0.0003225061227567494,0.00012066031922586262,4.058689228259027e-05,0.00010496412869542837,0.00011150180216645822,5.512687857844867e-05,4.125942359678447e-05,
5.08410666952841e-05,6.174324516905472e-05,3.836278119706549e-05,4.4137381337350234e-05,7.537200872320682e-05,6.600191409233958e-05,5.4740205087000504e-05,6.785937875974923e-05,
6.277074135141447e-05,4.053816883242689e-05,9.416399552719668e-05,4.468885890673846e-05,5.965498712612316e-05,0.0001309354993281886,5.197762948228046e-05,4.162201003055088e-05,
4.966120468452573e-05,0.0001678236003499478,7.824716885806993e-05,2.906522058765404e-05,5.165485345060006e-05,7.233431097120047e-05,4.641936902771704e-05,0.00022664295102003962,
2.951962778752204e-05,4.762468961416744e-05,2.761481846391689e-05,8.184951730072498e-05,8.870069723343477e-05,0.00013660304830409586,4.5525393943535164e-05,5.193615288590081e-05,
6.83144317008555e-05,0.00021271164587233216,3.285759157733992e-05,4.0234794141724706e-05,0.0002635907439980656,3.053198452107608e-05,3.834701419691555e-05,6.931947427801788e-05,
7.675620872760192e-05,3.690625817398541e-05,7.776924030622467e-05,5.9676069213310257e-05,8.038702799240127e-05,5.244473140919581e-05,5.714493818231858e-05,9.750666504260153e-05,
8.189942309400067e-05,3.007200575666502e-05,0.0002960432611871511,5.692050399375148e-05,2.6481748136575334e-05,4.804688796866685e-05,7.861003541620448e-05,5.805245746159926e-05
};


#endif /* USE_WEIGHTS_FILE */

#ifndef USE_WEIGHTS_FILE

#define WEIGHTS_dec_glu2_bias_DEFINED
#define WEIGHTS_dec_glu2_bias_TYPE WEIGHT_TYPE_float
static const float dec_glu2_bias[64] = {
0.0,0.0,0.0,0.0,0.0,0.0,0.0,0.0,
0.0,0.0,0.0,0.0,0.0,0.0,0.0,0.0,
0.0,0.0,0.0,0.0,0.0,0.0,0.0,0.0,
0.0,0.0,0.0,0.0,0.0,0.0,0.0,0.0,
0.0,0.0,0.0,0.0,0.0,0.0,0.0,0.0,
0.0,0.0,0.0,0.0,0.0,0.0,0.0,0.0,
0.0,0.0,0.0,0.0,0.0,0.0,0.0,0.0,
0.0,0.0,0.0,0.0,0.0,0.0,0.0,0.0
};


#endif /* USE_WEIGHTS_FILE */

#ifndef USE_WEIGHTS_FILE

#define WEIGHTS_dec_glu3_weights_int8_DEFINED
#define WEIGHTS_dec_glu3_weights_int8_TYPE WEIGHT_TYPE_int8
static const opus_int8 dec_glu3_weights_int8[4096] = {
21,-13,-11,-15,-14,-15,7,7,
14,-56,-39,-74,8,-24,-69,-49,
9,-11,21,-13,-9,-27,-94,-35,
-16,25,-5,1,15,-13,5,-5,
-15,-47,22,5,-6,38,-19,7,
83,-41,57,72,60,-42,-1,-12,
-27,-33,-12,-7,-18,-83,59,29,
10,21,26,8,-38,30,5,5,
-127,-2,-6,4,-86,1,-27,4,
-20,-6,-42,47,-57,-4,9,23,
-26,2,9,13,-15,2,37,-38,
-25,9,31,-6,-46,3,44,-105,
-1,-8,-27,21,16,-10,-8,75,
-89,-4,-57,-42,25,-2,-42,26,
15,-1,7,22,-24,-44,-2,18,
-5,-10,-11,-22,19,-39,-52,90,
-1,38,23,0,-6,2,41,-7,
-45,50,-13,-16,-29,74,-54,-7,
0,-7,-44,-21,25,-53,18,-52,
11,-37,-40,3,-22,35,-14,36,
39,-5,-5,-17,-123,-3,20,8,
-6,0,-45,-13,5,-5,-44,-20,
-34,11,2,4,-12,-73,-45,12,
-81,-3,-33,4,1,-18,50,11,
-3,-10,-11,0,5,-6,3,4,
-22,19,1,34,-63,4,23,0,
26,-1,-3,-3,20,46,-58,-9,
1,-13,32,1,6,-23,3,5,
12,7,-18,-4,8,-4,-7,25,
27,-9,1,-19,-44,20,-43,-47,
-34,2,-75,-54,-17,-18,-2,-6,
-17,6,49,-41,-25,-104,-16,-17,
6,1,48,-28,-19,-6,79,15,
98,12,55,34,69,0,-21,47,
76,14,4,26,16,-12,83,19,
-62,-9,63,29,-3,-7,43,36,
-1,38,14,7,-8,-15,-41,5,
-10,-6,48,-7,15,6,15,18,
-1,12,10,-2,-23,-7,-58,55,
9,-51,-53,64,-3,6,-71,-1,
18,-1,-3,15,14,8,4,-5,
33,18,21,-2,-2,13,0,31,
8,9,1,-19,112,-46,97,-70,
12,-34,-6,-18,-9,8,-6,-33,
17,1,0,-6,-49,3,15,51,
36,1,-38,-46,54,-2,7,-31,
-2,3,2,10,-33,-2,-54,-38,
-30,3,-7,-5,15,6,35,-95,
10,6,8,15,27,11,16,-23,
33,-16,12,17,18,4,73,26,
4,-10,11,9,29,-1,-55,-41,
60,-22,-16,2,8,17,92,3,
-6,-22,0,-7,7,33,-99,-30,
31,2,-97,-20,1,-6,-24,24,
7,2,-59,-10,36,-16,-65,26,
25,64,-47,-82,-12,-18,-74,29,
17,-10,5,12,-41,13,1,-9,
31,13,-19,-24,21,25,4,54,
43,-22,0,-2,-50,32,-33,-4,
-29,18,24,-34,25,53,28,49,
-25,-17,18,27,45,25,59,-66,
-35,1,21,4,20,-127,0,2,
19,-61,3,32,14,-79,8,35,
-4,22,42,-22,28,-61,6,30,
9,-12,26,19,6,10,-28,-4,
-6,3,50,-23,28,-1,-24,7,
21,-10,-40,91,20,6,-41,-3,
35,-58,23,-3,2,5,-4,-19,
77,-54,-37,21,-14,-18,4,12,
-2,-89,10,47,11,-104,-20,-56,
57,-16,-33,-46,27,98,44,-103,
9,-45,-45,-49,-20,-4,11,-17,
9,5,33,-10,-58,0,-7,-1,
-73,-4,127,-26,-126,-3,66,18,
-39,3,52,77,-28,20,-72,4,
12,0,-70,2,-27,-7,-22,-30,
76,22,-40,42,-4,-8,-18,17,
-24,13,20,-106,-11,6,8,10,
102,-7,6,68,11,118,65,27,
-15,25,-51,23,-25,2,-35,-57,
19,50,-87,-15,-4,2,12,-12,
-48,-38,9,-15,-14,47,-34,-44,
19,-5,-20,-19,-79,8,-32,39,
-17,22,-30,6,-3,85,-27,-29,
-127,10,43,65,1,-8,-4,2,
-28,-16,-51,24,17,-28,-32,-4,
1,14,11,9,-26,24,20,41,
-85,20,3,-36,0,5,4,8,
23,-19,-12,-21,1,-2,1,7,
13,-33,-5,-46,4,-14,6,42,
34,-1,12,-20,-5,30,-60,4,
7,9,25,-27,6,-15,-2,7,
-73,-56,19,-54,-1,7,3,1,
-68,37,-107,-16,-17,6,-71,-12,
19,-19,10,-5,1,-9,-2,5,
-43,-62,-55,-74,14,8,-74,2,
39,38,-35,-45,-7,2,16,-21,
-24,-22,-31,62,115,-26,16,28,
38,12,-21,7,-29,31,0,-7,
68,3,-1,107,27,4,5,41,
-50,-2,70,-32,-2,-3,-7,1,
-13,-1,44,-2,-63,15,23,6,
-10,3,8,16,16,-21,111,-41,
8,36,64,1,2,4,19,-5,
49,7,-53,16,4,0,-4,-2,
6,5,-6,101,-3,5,-23,-14,
-38,12,-24,8,-7,3,-3,-7,
-5,3,4,19,-2,7,-13,-116,
-13,2,-54,-1,17,5,1,-9,
19,-5,2,7,-4,4,4,0,
-14,-5,6,-38,70,6,17,-5,
-1,2,19,-10,21,-2,-2,20,
-51,-21,31,-69,2,13,9,-20,
5,3,5,-4,7,2,16,13,
3,-8,-20,9,-21,-3,-14,13,
33,6,46,-14,-11,3,24,15,
-38,6,13,8,-5,-14,-32,-97,
-13,50,-5,-38,1,-50,-18,-20,
25,-21,-49,-14,9,109,-29,-62,
25,-1,-56,43,-15,3,-3,-43,
-20,-17,-25,0,5,-3,1,15,
16,-24,-3,9,7,-20,-2,11,
17,-12,13,8,42,38,6,-42,
51,-45,14,-45,0,9,-3,6,
-70,62,-7,-4,1,-14,-3,96,
11,-24,-24,-52,-34,13,-6,-1,
64,-4,8,-3,19,44,56,-34,
20,-91,-73,86,-6,-16,-5,13,
-2,-28,17,-17,14,-16,9,-54,
-8,21,-32,26,1,-23,69,-10,
21,-26,-69,22,18,-27,8,30,
-9,-35,-104,5,-13,-11,35,-2,
-22,-7,-25,-3,-94,-23,27,-44,
22,-17,-11,-46,-74,-28,-19,-25,
73,-70,-26,-43,34,-33,-40,-24,
-21,-66,26,2,-16,-5,11,-5,
-47,-2,-37,-1,-36,-4,40,-59,
54,3,33,30,9,-3,-21,3,
22,1,-35,-22,-18,-6,11,7,
-83,-5,-27,-11,-127,-2,-5,12,
-42,-27,62,2,-59,8,28,-8,
-10,-53,-48,-11,24,-7,24,45,
8,32,-31,11,-22,-19,-30,26,
52,-7,-37,27,17,-17,-5,-1,
-64,28,-60,-41,-29,36,-8,-41,
31,2,19,25,19,-18,2,-7,
9,41,15,51,-2,10,-14,-9,
-18,18,52,13,-4,-11,23,0,
9,6,-10,-44,-64,-6,-55,-33,
5,18,28,-2,-72,-1,-13,1,
-127,24,-17,15,-32,-16,2,-3,
-6,2,-122,-7,-38,-13,-9,6,
-1,8,24,-55,45,-1,-48,18,
23,-17,32,-33,20,0,12,3,
-8,-42,-11,-3,15,-6,46,83,
54,0,-23,-18,-4,-6,31,3,
22,22,2,-47,-12,13,-106,-23,
-36,2,22,23,-22,1,-94,-35,
-34,-10,-37,-34,-25,-18,-43,-4,
-19,-15,19,13,-5,3,-8,23,
3,3,-54,-75,95,13,-32,34,
5,-9,10,-46,63,11,14,13,
-20,20,19,36,14,-93,7,16,
67,15,-7,-10,7,7,49,-7,
-12,7,34,17,3,38,37,6,
-23,14,46,9,5,0,-9,-9,
36,-1,-25,-17,-117,8,-23,10,
6,-6,2,-5,2,-21,-31,-3,
2,11,-20,38,12,1,-10,36,
14,27,-60,88,12,-2,11,6,
-15,0,-14,-74,0,4,-20,7,
6,-4,-12,-5,12,-1,2,3,
36,-1,18,9,-11,-3,-8,-14,
19,-4,28,-25,20,0,1,2,
8,3,12,-35,-74,2,8,33,
-5,5,3,-51,8,-2,-2,-5,
18,26,-43,8,17,16,-24,44,
86,-1,-20,-15,2,-1,-9,6,
11,-13,55,31,-12,-13,26,-9,
2,3,35,32,10,2,0,21,
23,-74,19,-26,-22,2,4,100,
1,35,27,-5,-7,10,21,-52,
-11,-9,-74,7,28,-15,-46,9,
6,-2,-71,-40,6,-12,-12,43,
-1,3,4,-28,43,-43,-15,15,
8,24,2,-23,42,-26,-9,29,
25,2,8,33,7,-8,-2,-36,
-2,11,1,12,-24,8,-6,-13,
-34,-11,39,-28,41,-84,26,51,
-27,-102,-18,8,12,-14,0,38,
56,-53,34,50,11,-1,-21,8,
-33,-20,24,-31,-6,1,16,-49,
21,-15,-29,-13,6,18,-58,-18,
4,22,-45,-15,29,-4,-14,6,
-12,-13,6,-7,4,-49,-53,2,
6,20,-71,49,12,-30,-23,16,
3,94,-31,-8,6,56,-3,-30,
10,94,-8,-25,10,-127,-47,-21,
-101,23,-14,-89,41,88,30,-40,
-7,12,-6,-48,-60,-23,-12,-42,
-69,6,-14,18,-127,6,-6,14,
-27,1,-45,-8,-51,-13,31,19,
49,-4,-103,1,-9,-7,-17,-9,
8,4,39,15,40,2,-11,-17,
18,-2,2,37,13,6,22,34,
33,28,26,-27,-16,-45,-37,-1,
-3,-14,5,-83,20,-6,-37,48,
-34,-18,-38,-17,-15,22,-90,48,
-11,29,-8,4,-10,41,-4,-22,
-35,27,41,20,-1,28,-6,-3,
55,74,21,41,13,26,52,-20,
-22,50,-49,127,-30,-23,27,102,
-15,-85,-30,-29,-61,-30,-50,2,
-51,-40,-24,13,-12,-31,-4,3,
-3,2,-7,2,-8,9,-38,-22,
99,4,6,-10,25,21,7,-9,
94,21,-12,61,39,-7,-27,80,
25,-8,35,4,7,-9,31,83,
19,2,-6,-16,72,2,-32,-9,
4,-1,-1,-8,7,-3,-16,40,
-8,13,-3,25,1,-2,7,15,
4,-15,4,-2,-14,11,-80,-6,
7,-27,87,-31,-33,-14,-3,-11,
15,7,-103,-8,-39,4,29,-72,
18,-18,28,8,28,-41,37,-20,
-12,-3,57,-4,74,-115,18,10,
-27,-5,-48,-41,34,-4,2,55,
-48,6,1,3,-58,0,81,13,
-24,4,6,-8,-83,1,-8,-14,
-10,-8,21,-29,-121,-8,-3,35,
17,-4,5,3,-16,15,28,12,
4,-2,24,-3,-5,15,17,-25,
37,2,-63,-1,7,8,-18,24,
7,-1,-6,19,-11,-3,-23,24,
3,-7,14,31,-3,-8,-6,8,
-1,11,8,-92,0,0,12,80,
-24,5,-4,-4,-6,2,-3,-2,
-1,3,-15,-20,-26,-3,17,15,
-33,0,-8,16,-1,2,-8,-9,
